{"format": "mlp-pv-v1", "in_dim": 36, "hidden": 256, "n_actions": 23, "bid_fractions": [0.0, 0.01, 0.02, 0.03, 0.04, 0.05, 0.06, 0.08, 0.1, 0.12, 0.15, 0.18, 0.22, 0.27, 0.32, 0.38, 0.45, 0.52, 0.6, 0.7, 0.8, 0.9, 1.0], "layers": [{"type": "linear", "weight": [[-0.0009558924357406795, 0.03417542204260826, -0.05053466558456421, 0.02938864380121231, 0.034345559775829315, 0.08190923929214478, 0.06694191694259644, 0.09663265198469162, 0.04765938222408295, 0.09703044593334198, -0.027338949963450432, -0.0008490734035149217, -0.13508786261081696, -0.054977912455797195, -0.033778801560401917, 0.04434233158826828, 0.10160595178604126, 0.1095341295003891, -0.06878920644521713, -0.05341196060180664, 0.10890515148639679, 0.1816580891609192, -0.007878554984927177, 0.17236796021461487, 0.02321571111679077, -0.00920674204826355, 0.1569211483001709, -0.12782622873783112, -0.0740053728222847, 0.07350657880306244, -0.025771090760827065, 0.18343311548233032, -0.07846969366073608, -0.07590573281049728, -0.06675410270690918, -0.18697020411491394], [-0.13410943746566772, 0.15680450201034546, -0.07359379529953003, 0.023425988852977753, -0.05926201492547989, -0.12370109558105469, -0.04581576585769653, -0.15114398300647736, -0.09822633862495422, -0.07358451932668686, 0.11284890025854111, 0.04665679112076759, -0.12193983793258667, 0.007322637364268303, 0.11735183000564575, 0.1426677256822586, 0.00678220484405756, 0.02056126482784748, 0.09773430228233337, -0.1104869619011879, -0.01597515121102333, -0.09665559977293015, -0.12748508155345917, -0.08080486208200455, 0.04527970775961876, 0.1274683177471161, -0.10315796732902527, 0.05329037085175514, 0.09393025189638138, -0.09662080556154251, -0.01736358366906643, 0.026659803465008736, 0.0949181467294693, 0.08148594200611115, -0.176916241645813, -0.05856284499168396], [0.11282108724117279, 0.10582267493009567, 0.033058181405067444, 0.05239804461598396, -0.045439913868904114, -0.2265104353427887, -0.05149058625102043, -0.1318812519311905, -0.09487008303403854, 0.14482083916664124, 0.12928500771522522, -0.13863766193389893, 0.05873389169573784, 0.07317836582660675, -0.030105536803603172, -0.016649562865495682, 0.10564767569303513, -0.09619873017072678, 0.09131653606891632, 0.10522999614477158, 0.14390476047992706, 0.08139882981777191, -0.1068873405456543, -0.0779089480638504, 0.10803329944610596, 0.025487462058663368, -0.043320659548044205, -0.07522974908351898, 0.21439898014068604, -0.02303961291909218, -0.012125464156270027, -0.015464126132428646, -0.10552792251110077, -0.03318840637803078, -0.17838744819164276, -0.2066519856452942], [0.13476091623306274, 0.0667300820350647, -0.023051496595144272, 0.07284869253635406, -0.06252004206180573, 0.011222343891859055, 0.047896672040224075, -0.19331932067871094, -0.05714389309287071, 0.10323449969291687, 0.0034034873824566603, 0.06757315993309021, 0.03433913365006447, 0.1274893581867218, -0.08712451159954071, 0.11019669473171234, -0.13020360469818115, -0.12011799961328506, -0.05118808150291443, -0.08567068725824356, -0.05787007138133049, -0.1510450690984726, -0.029815666377544403, 0.03313770890235901, -0.07665999233722687, -0.1355859488248825, 0.12288448959589005, -0.03068150021135807, 0.022194158285856247, -0.06749716401100159, 0.03445356339216232, 0.11150871962308884, 0.15792207419872284, 0.015604989603161812, 0.265296071767807, -0.07081960141658783], [-0.18162158131599426, -0.059233661741018295, 0.12824605405330658, 0.00634738290682435, 0.015764769166707993, -0.0873337984085083, -0.0973944142460823, -0.06947407871484756, -0.048020631074905396, 0.07207204401493073, 0.09649337828159332, -0.12186011672019958, 0.14799366891384125, -0.1629464477300644, -0.022520672529935837, -0.06146582216024399, 0.011804591864347458, -0.038690757006406784, -0.11664491146802902, -0.13729450106620789, 0.0070046246983110905, 0.007737272884696722, -0.06073342636227608, 0.08080431073904037, -0.12527337670326233, -0.003908553160727024, 0.1527707427740097, -0.04578590765595436, 0.1890217661857605, 0.1103367805480957, -0.09604848176240921, 0.1478787213563919, 0.00497982045635581, -0.06118485704064369, 0.15084217488765717, -0.12275286763906479], [0.06070489436388016, -0.031528621912002563, 0.09666303545236588, 0.03151886910200119, 0.07365556061267853, 0.1260344386100769, 0.09729451686143875, 0.024416374042630196, -0.06082484871149063, 0.0054340665228664875, 0.15968787670135498, 0.154457688331604, -0.09877809882164001, -0.050335973501205444, -0.08709582686424255, -0.10650010406970978, -0.06747832149267197, 0.10309980064630508, -0.05658965930342674, 0.03246334195137024, 0.05123433098196983, 0.09881851822137833, -0.07350865751504898, -0.102903351187706, -0.05823853239417076, 0.16305728256702423, -0.026892337948083878, 0.17529289424419403, 0.12398595362901688, -0.2692667245864868, 0.031310055404901505, -0.015924520790576935, 0.05999409407377243, -0.015809055417776108, 0.06957833468914032, 0.13392557203769684], [-0.1206054836511612, -0.021782875061035156, 0.10726219415664673, -0.15500682592391968, -0.09773996472358704, 0.15551139414310455, 0.05974085256457329, -0.015147831290960312, -0.09545497596263885, 0.06007103621959686, -0.11486855149269104, -0.04780343547463417, -0.07898016273975372, -0.001984184607863426, 0.011080941185355186, 0.13208681344985962, -0.018851663917303085, 0.1555979996919632, 0.08630652725696564, -0.11046482622623444, 0.06089125946164131, -0.07129572331905365, -0.0711480900645256, 0.06928025186061859, 0.05515022948384285, 0.1098879799246788, -0.0735643282532692, -0.0010810684179887176, 0.1138300895690918, -0.3943914771080017, 0.11006207764148712, -0.15158411860466003, -0.004918386228382587, -0.020670320838689804, -0.10775883495807648, 0.0191744826734066], [0.11450830101966858, -0.038435690104961395, -0.1726449877023697, -0.07430129498243332, -0.1879138946533203, 0.050410546362400055, -0.06667614728212357, -0.05810520052909851, -0.047533899545669556, 0.03807080164551735, 0.10621565580368042, 0.12437797337770462, 0.0800752192735672, -0.05398636311292648, -0.0479620136320591, 0.06528981775045395, 0.1222883015871048, 0.0551307275891304, -0.06463917344808578, -0.07600696384906769, -0.1674189567565918, 0.04820447787642479, -0.07184148579835892, -0.14733408391475677, 0.17518030107021332, -0.1543712615966797, -0.015010063536465168, 0.04801982641220093, -0.02382015623152256, 0.09018022567033768, -0.13402453064918518, 0.14126452803611755, 0.03388877958059311, 0.15264296531677246, -0.02438998408615589, 0.03015715628862381], [-0.1049375981092453, -0.110059954226017, -0.059716444462537766, 0.024405421689152718, 0.05250316485762596, 0.0932721197605133, 0.016036055982112885, -0.012838858179748058, 0.07043194025754929, -0.0668632760643959, 0.10198268294334412, -0.057131391018629074, -0.08159898221492767, 0.09390269219875336, -0.08316487073898315, 0.06747452169656754, 0.04641038551926613, -0.09205290675163269, 0.04813612252473831, 0.09738411009311676, 0.07419610023498535, -0.052823010832071304, -0.1409560739994049, -0.035308610647916794, 0.07012906670570374, -0.07698577642440796, 0.06212771311402321, 0.11661049723625183, -0.11223199218511581, 0.20549790561199188, 0.06575901806354523, 0.017797796055674553, 0.017389066517353058, 0.028691403567790985, -0.0884726345539093, 0.027309775352478027], [0.10676347464323044, 0.12072354555130005, 0.1077432706952095, -0.017454897984862328, 0.06215262785553932, -0.09154210984706879, -0.14414511620998383, -0.1497768610715866, 0.09960571676492691, 0.01248426828533411, -0.12809693813323975, 0.053950704634189606, 0.12233135104179382, 0.13389863073825836, 0.14180903136730194, 0.1118522584438324, -0.03182542696595192, -0.08668126910924911, 0.12788565456867218, 0.08086667209863663, -0.11438538879156113, 0.12937068939208984, 0.062412556260824203, 0.0755816251039505, -0.13030800223350525, 0.14907753467559814, -0.060733430087566376, 0.1268153339624405, -0.04671581834554672, 0.04304460808634758, 0.0200982466340065, 0.0557166188955307, -0.06458240002393723, 0.09201633185148239, -0.13131749629974365, 0.022817030549049377], [-0.15811295807361603, -0.1785043627023697, -0.12677259743213654, 0.08807007968425751, 0.12890538573265076, 0.1347118318080902, 0.11196791380643845, -0.11569203436374664, -0.09114548563957214, 0.004263863433152437, -0.09416773915290833, 0.0988617017865181, -0.150129497051239, -0.02488301880657673, -0.17887577414512634, -0.09153692424297333, 0.11959637701511383, 0.1923910230398178, 0.11615894734859467, 0.15848883986473083, 0.14538723230361938, -0.05711304396390915, 0.06993459165096283, 0.14116165041923523, 0.056322239339351654, 0.0932745561003685, 0.0771174356341362, 0.08835946768522263, -0.079750657081604, 0.056767262518405914, 0.026221683248877525, -0.06130006164312363, -0.09981796890497208, -0.09200118482112885, -0.10973842442035675, 0.18464048206806183], [0.0660678818821907, -0.11267313361167908, -0.059411074966192245, 0.0638166144490242, 0.10954485088586807, 0.038811542093753815, 0.0015979947056621313, 0.0672980546951294, 0.05797766521573067, -0.10230820626020432, 0.1549306958913803, 0.1304055005311966, -0.057018980383872986, 0.07631077617406845, -0.08227448165416718, -0.04038313403725624, 0.1834266483783722, 0.0010700449347496033, -0.10827350616455078, -0.04503467306494713, -0.05085163563489914, -0.015859518200159073, 0.01196365151554346, 0.1601909101009369, 0.015413263812661171, -0.015710411593317986, 0.010865251533687115, 0.10772654414176941, 0.10222402960062027, -0.37447503209114075, -0.015153124928474426, -0.12655243277549744, -0.06463083624839783, 0.08760802447795868, -0.14670979976654053, 0.12075464427471161], [0.16051171720027924, 0.031786054372787476, -0.10616782307624817, -0.0761793702840805, 0.01665540784597397, -0.11091608554124832, 0.0716053768992424, -0.05499918758869171, -0.11943874508142471, -0.12026126682758331, 0.0015944141196087003, 0.12456297874450684, -0.14463388919830322, 0.10079667717218399, -0.055627819150686264, 0.04184881970286369, 0.015599994920194149, -0.10493522882461548, 0.15812796354293823, 0.1167270764708519, 0.1742538958787918, 0.203596830368042, -0.07535755634307861, 0.18386715650558472, 0.02673698030412197, 0.1806848794221878, -0.08018746972084045, -0.01840071938931942, -0.13678617775440216, 0.035567305982112885, 0.04432283714413643, -0.09792429208755493, 0.07780729234218597, 0.05666416138410568, 0.022143028676509857, 0.050049904733896255], [-0.2074344903230667, -0.10170228779315948, 0.02588878571987152, 0.10446173697710037, 0.136760875582695, 0.07032158970832825, 0.04756035655736923, -0.1705067902803421, -0.13103145360946655, 0.04000591114163399, -0.10203294456005096, 0.05107799917459488, -0.12529121339321136, -0.15066711604595184, -0.1553165763616562, 0.05021011829376221, -0.05184922739863396, 0.17250007390975952, 0.11074657738208771, 0.1173897460103035, -0.016422433778643608, -0.08093087375164032, -0.02590196207165718, -0.005647365003824234, 0.06320719420909882, -0.20553065836429596, 0.15596836805343628, -0.06434301286935806, -0.15359564125537872, -0.2489435374736786, 0.1364869773387909, 0.1018829494714737, -0.1524989902973175, 0.032040130347013474, 0.057077806442976, 0.20860837399959564], [0.14175698161125183, -0.06138750538229942, 0.049617938697338104, 0.0866221934556961, 0.09020739793777466, 0.015530819073319435, -0.02096671238541603, 0.0025551151484251022, -0.06670670211315155, -0.06132127717137337, 0.0036950393114238977, 0.0772433653473854, -0.06051894649863243, -0.056424982845783234, 0.08128464967012405, -0.05793984234333038, 0.07982780039310455, -0.092432402074337, 0.03525802865624428, -0.14968286454677582, -0.10273971408605576, -0.10964493453502655, 0.1267874538898468, -0.058941226452589035, -0.021670253947377205, -0.006239368114620447, 0.13992208242416382, 0.17214640974998474, -0.15207047760486603, 0.020446868613362312, -0.15135787427425385, -0.00026879136567004025, -0.06626661866903305, -0.027531331405043602, -0.08857523649930954, 0.03853360936045647], [-0.0395447239279747, 0.061502981930971146, -0.02367362193763256, -0.1331283152103424, -0.04253947362303734, 0.09969335049390793, -0.011263879016041756, 0.06356204301118851, -0.024257712066173553, 0.07241588085889816, -0.13148081302642822, -0.15521284937858582, 0.199082151055336, -0.1641877293586731, 0.052428316324949265, -0.010285919532179832, -0.049573399126529694, 0.006474594119936228, 0.11223078519105911, 0.03679198771715164, -0.1775738149881363, -0.05617697909474373, -0.047348979860544205, 0.10300077497959137, -0.0939527153968811, 0.0867733359336853, -0.03279012814164162, -0.042989809066057205, 0.14157769083976746, 0.008620728738605976, 0.13109397888183594, 0.10046691447496414, -0.04421956092119217, -0.05244455486536026, 0.003282804973423481, 0.1938992142677307], [-0.08554452657699585, -0.1859789937734604, 0.05046793445944786, 0.21760697662830353, -0.01571252942085266, -0.12008979916572571, -0.0533234104514122, 0.021382777020335197, -0.034773968160152435, -0.06829580664634705, 0.03860914707183838, 0.10648627579212189, 0.17389647662639618, 0.12663386762142181, -0.022586598992347717, -0.12847180664539337, -0.1213410347700119, 0.1451190561056137, 0.09699695557355881, 0.07151850312948227, -0.11452797055244446, 0.15295277535915375, 0.16774950921535492, 0.16459140181541443, -0.11735348403453827, -0.019789157435297966, -0.10880789905786514, 0.18798738718032837, -0.059766605496406555, 0.02931247279047966, 0.12306847423315048, -0.047101203352212906, -0.06611485034227371, 0.04873325675725937, 0.006683799903839827, -0.15945351123809814], [0.1688176989555359, -0.08235568553209305, 0.1181209534406662, 0.13869307935237885, 0.16484291851520538, 0.056823812425136566, 0.1491861343383789, -0.005728219170123339, -0.08656260371208191, 0.17339646816253662, 0.033870235085487366, -0.1331735998392105, -0.01835206151008606, -0.061402253806591034, 0.14005061984062195, 0.011484191752970219, -0.13810397684574127, -0.01160815916955471, 0.10263168811798096, 0.04029141366481781, 0.10754027217626572, -0.04550758749246597, 0.05797620490193367, -0.0502244234085083, -0.0671415627002716, -0.17729951441287994, -0.09297674894332886, 0.07290123403072357, -0.07543493062257767, -1.2880960639449768e-05, 0.06162522733211517, 0.025661567226052284, -0.10279062390327454, 0.16753773391246796, -0.10814519971609116, 0.057095564901828766], [-0.1432388573884964, -0.03863861411809921, 0.14619047939777374, -0.07014597207307816, 0.11172686517238617, -0.09886529296636581, -0.11156775802373886, -0.07023881375789642, -0.020259583368897438, -0.06799143552780151, -0.1068904772400856, 0.07302744686603546, -0.05825497955083847, -0.06093408167362213, 0.11453090608119965, -0.15124601125717163, 0.05587438866496086, 0.07975511252880096, -0.022556614130735397, 0.09786301106214523, -0.052573319524526596, 0.07782046496868134, -0.17255769670009613, -0.04946977645158768, -0.025725500658154488, 0.10154802352190018, 0.06419132649898529, 0.14072884619235992, -0.019569093361496925, -0.16341029107570648, 0.07801496237516403, -0.051148705184459686, 0.13601818680763245, -0.0728362649679184, 0.021300217136740685, -0.05180974677205086], [0.056258346885442734, 0.05766305327415466, -0.014468967914581299, -0.07789570838212967, 0.09906226396560669, 0.11376702785491943, 0.06836788356304169, -0.04450284317135811, 0.07794247567653656, 0.0941639244556427, 0.05300334095954895, -0.1601543426513672, 0.13170567154884338, -0.15788134932518005, 0.03617199510335922, 0.023789331316947937, -0.08219432830810547, 0.1038196012377739, -0.14633536338806152, 0.06043536216020584, -0.12111205607652664, 0.06069709733128548, 0.011168764904141426, 0.16200415790081024, -0.055980682373046875, 0.1035194918513298, -0.020924048498272896, -0.059653107076883316, -0.14356917142868042, -0.17794658243656158, 0.16223806142807007, -0.036700423806905746, 0.006451436318457127, 0.01767103746533394, 0.14386588335037231, 0.2189658284187317], [0.19682645797729492, -0.11691442131996155, -0.07821811735630035, -0.0791909322142601, -0.04168998822569847, 0.061202503740787506, 0.09823134541511536, -0.11759467422962189, 0.09436844289302826, -0.05563430115580559, -0.03901463374495506, 0.14544537663459778, -0.02958369255065918, 0.025386789813637733, -0.10972357541322708, 0.1501598209142685, -0.0026673951651901007, -0.14937429130077362, 0.05086447298526764, -0.13380016386508942, -0.14656893908977509, 0.04951153323054314, 0.12993904948234558, -0.030930154025554657, 0.07771842926740646, 0.12281201034784317, 0.08637140691280365, -0.09375863522291183, -0.0060204314067959785, -0.11731930077075958, -0.154560849070549, 0.0024520920123904943, 0.11815222352743149, 0.14222516119480133, 0.017436718568205833, -0.01643371395766735], [-0.10849722474813461, 0.10813329368829727, -0.07502718269824982, -0.061333391815423965, 0.01758372038602829, 0.09871957451105118, -0.04898941144347191, 0.0829605683684349, 0.08169339597225189, -0.11994607001543045, -0.03339645266532898, 0.15268515050411224, -0.1505587100982666, -0.09161702543497086, 0.06692598760128021, -0.17802470922470093, 0.0879642590880394, 0.1095181554555893, 0.10722345113754272, -0.09007912874221802, 0.18599191308021545, -0.10750386863946915, 0.14807075262069702, -0.15760169923305511, -0.15478871762752533, 0.10815786570310593, 0.008033531717956066, 0.013256246224045753, -0.11182231456041336, 0.07527022063732147, -0.034560251981019974, -0.16548675298690796, 0.00930870696902275, 0.03434765338897705, 0.018592307344079018, 0.15548984706401825], [0.2523823380470276, 0.06067175418138504, -0.048470012843608856, -0.10131698846817017, -0.16696421802043915, -0.09846765547990799, -0.04951737821102142, -0.06170114129781723, 0.00035783881321549416, -0.09768876433372498, 0.08761639893054962, -0.11636967957019806, -0.015497062355279922, 0.12833692133426666, 0.12541189789772034, -0.11555732041597366, 0.041544947773218155, -0.0474516898393631, -0.09820262342691422, -0.09901870042085648, 0.022802840918302536, -0.16930119693279266, -0.0037194094620645046, 0.030040405690670013, -0.08128273487091064, 0.16156113147735596, -0.05088400840759277, 0.06849692016839981, 0.1573454588651657, -0.07780852913856506, 0.05667249113321304, -0.05111010745167732, -0.058437831699848175, -0.05624815449118614, -0.019929945468902588, -0.12617699801921844], [0.04048004746437073, 0.0007575887721031904, 0.03748529404401779, -0.027394337579607964, -0.01554629672318697, -0.07126933336257935, -0.13820528984069824, -0.028041386976838112, -0.022969381883740425, -0.011975078843533993, -0.08028896898031235, 0.03332540765404701, -0.046965342015028, -0.018747013062238693, 0.01741700991988182, -0.0027026028838008642, 0.08305761963129044, -0.04036638140678406, 0.053879547864198685, 0.12615031003952026, -0.011625745333731174, 0.028206035494804382, 0.011010529473423958, 0.1001548022031784, -0.10027049481868744, 0.055027302354574203, 0.057799603790044785, -0.13229238986968994, -0.02569812349975109, -0.18203303217887878, 0.07129687815904617, -0.18669499456882477, 0.09001680463552475, 0.09661877900362015, -0.024001095443964005, 0.09787818789482117], [0.13685713708400726, -0.05364300310611725, 0.01476681511849165, -0.11266933381557465, -0.09729433804750443, 0.019405413419008255, 0.03506004810333252, -0.01736093871295452, -0.03530391678214073, -0.03225765749812126, 0.008013385348021984, 0.0272661205381155, 0.14067237079143524, 0.245183527469635, -0.06150726228952408, 0.029071390628814697, -0.07852524518966675, -0.11940215528011322, -0.10516969114542007, 0.1696455329656601, 0.12213875353336334, 0.04379507526755333, 0.10712208598852158, -0.13369184732437134, 0.027960076928138733, 0.06350784748792648, -0.05445454269647598, 0.1369825154542923, 0.057750143110752106, 0.18616683781147003, -0.0388147309422493, 0.09229538589715958, -0.11961406469345093, -0.022617245092988014, 0.057580191642045975, -0.004287872463464737], [0.16992482542991638, 0.1811145693063736, 0.15925614535808563, 0.2220500409603119, 0.11788908392190933, -0.12548236548900604, -0.24425503611564636, -0.037364132702350616, -0.0821584090590477, 0.03083326481282711, 0.05472128093242645, 0.01733626239001751, -0.058586422353982925, 0.0915834829211235, 0.12900987267494202, 0.029834728688001633, -0.17613515257835388, -0.13322937488555908, 0.02968749590218067, 0.0070119816809892654, 0.03724629804491997, -0.15585081279277802, -0.18419267237186432, 0.08730781078338623, 0.054677385836839676, -0.19754670560359955, 0.07718413323163986, -0.1855931431055069, 0.11785046756267548, -0.18757835030555725, 0.1734941005706787, -0.2252282202243805, -0.17506025731563568, 0.00923224538564682, 0.1734752357006073, 0.11287685483694077], [0.1257750689983368, -0.1196373999118805, 0.05946307256817818, -0.12723471224308014, 0.04757168889045715, -0.042277827858924866, -0.0030893052462488413, 0.03681601211428642, -0.047249119728803635, -0.07337681949138641, -0.14399030804634094, -0.15012645721435547, 0.09862013161182404, -0.09988564997911453, -0.10572946071624756, -0.05828652158379555, -0.15110990405082703, -0.10338304191827774, 0.11391434818506241, 0.10405199229717255, 0.02488158456981182, -0.11448587477207184, 0.05824887380003929, -0.0067349583841860294, -0.10581149160861969, 0.004600890912115574, 0.1402631253004074, -0.16771027445793152, -0.18726567924022675, 0.05771905928850174, 0.09875103086233139, -0.11413691192865372, 0.031581103801727295, 0.10003824532032013, 0.1143205538392067, 0.06752432137727737], [0.10840773582458496, 0.0915054902434349, 0.010069246403872967, -0.041123777627944946, 0.13644014298915863, 0.10890080779790878, -0.10683988779783249, 0.03407057747244835, -0.05217894911766052, -0.13230015337467194, 0.036388836801052094, -0.09107786417007446, 0.034106429666280746, -0.08148844540119171, -0.1403293013572693, 0.007943456992506981, -0.07670226693153381, 0.07204318791627884, 0.016513749957084656, 0.10359103977680206, 0.02545418031513691, -0.04233802482485771, 0.08601322770118713, 0.012322292663156986, 0.02752048894762993, -0.015208031982183456, -0.009898526594042778, -0.023696353659033775, -0.02711617946624756, -0.021341472864151, 0.005834131967276335, -0.13043634593486786, -0.045281779021024704, 0.1282430738210678, -0.1725231409072876, -0.20891015231609344], [-0.05388200655579567, -0.10990343242883682, 0.09181000292301178, 0.05303533002734184, 0.10068260878324509, -0.10953699052333832, 0.017518576234579086, 0.1435903012752533, 0.16644129157066345, 0.042632341384887695, -0.06186138093471527, 0.042696740478277206, 0.12083660066127777, -0.14961685240268707, -0.08246248215436935, 0.07083704322576523, -0.0036852394696325064, -0.12057442218065262, -0.06508295238018036, 0.087249256670475, -0.056784871965646744, 0.17634335160255432, 0.13309918344020844, 0.04844251275062561, -0.02187926508486271, 0.04514909163117409, 0.0039355456829071045, 0.054119136184453964, -0.14680902659893036, 0.1509380340576172, -0.12890680134296417, 0.11602941155433655, -0.09271850436925888, 0.20959527790546417, -0.0009054648107849061, -0.0329953096807003], [0.10719187557697296, 0.04932410269975662, 0.08561199903488159, 0.04941166937351227, -0.18293173611164093, 0.11009124666452408, -0.066250741481781, -0.08069262653589249, 0.07143574208021164, 0.13427820801734924, -0.16005301475524902, -0.021260857582092285, 0.11547999829053879, 0.15770213305950165, 0.07097046077251434, -0.033499885350465775, -0.08035656809806824, 0.11741695553064346, 0.043159399181604385, 0.13562755286693573, -0.08954446762800217, -0.1495707929134369, -0.01313797291368246, -0.20745445787906647, 0.05405741557478905, 0.07412644475698471, 0.022227561101317406, -0.04512563720345497, 0.08380762487649918, -0.21575531363487244, 0.16828879714012146, -0.1815902441740036, -0.18231649696826935, -0.03869004547595978, 0.16391843557357788, -0.1006188914179802], [0.09998781979084015, -0.07581550627946854, 0.06991244852542877, -0.008912572637200356, 0.03440367802977562, 0.054447922855615616, 0.06524623930454254, 0.047303322702646255, 0.08293206244707108, -0.048276856541633606, -0.01683168299496174, 0.11328009516000748, -0.06315305083990097, 0.12764713168144226, -0.03732398524880409, -0.028357096016407013, -0.005214952398091555, -0.0837986096739769, 0.0228834617882967, 0.016202617436647415, -0.0039646802470088005, 0.0511157289147377, 0.14500150084495544, 0.16482672095298767, -0.10170979052782059, 0.13036379218101501, -0.10019984841346741, -0.12344945222139359, 0.0763927772641182, 0.00880968663841486, -0.06191255524754524, -0.13599641621112823, -0.04146765545010567, 0.060267284512519836, -0.13347280025482178, -0.05636291205883026], [-0.03479606658220291, -0.06382223218679428, -0.1294766068458557, -0.05238151177763939, -0.07576093077659607, -0.14659270644187927, -0.09571153670549393, -0.06618310511112213, -0.09867420047521591, -0.011313448660075665, -0.1080087348818779, -0.12440050393342972, 0.08371025323867798, -0.056276630610227585, -0.1058482900261879, 0.14129824936389923, 0.03623739629983902, 0.16182957589626312, -0.047753315418958664, -0.0740237683057785, -0.032143253833055496, 0.012791749089956284, 0.13418152928352356, -0.16811905801296234, -0.00044578665983863175, -0.04593798518180847, -0.07586531341075897, -0.10738176852464676, 0.07911942899227142, -0.2704257667064667, 0.042461104691028595, -0.14242933690547943, 0.09204848110675812, -0.1483834981918335, 0.1442265659570694, -0.21736392378807068], [-0.12777873873710632, -0.0035460006911307573, 0.11165720969438553, -0.11482098698616028, -0.12275788933038712, 0.16783711314201355, 0.05960622429847717, 0.017183810472488403, -0.10402818769216537, -0.0847119688987732, -0.07419393211603165, 0.16004163026809692, 0.14373455941677094, -0.3220836818218231, 0.06039774417877197, -0.04767884314060211, -0.08369804918766022, -0.050139419734478, -0.03574468940496445, 0.16807059943675995, -0.11274923384189606, -0.07163696736097336, -0.03144356980919838, 0.04177789390087128, 0.06247502192854881, 0.0280609093606472, -0.012313388288021088, -0.07947853952646255, -0.01376448292285204, -0.09069524705410004, 0.10357780754566193, -0.1526940017938614, -0.09037751704454422, -0.1368745118379593, -0.08742602169513702, 0.26269248127937317], [0.21627368032932281, -0.1712554544210434, -0.07952611893415451, 0.10961456596851349, 0.14538529515266418, 0.08153215795755386, -0.02179969847202301, -0.05442041903734207, 0.023862143978476524, -0.0408562496304512, 0.09368859231472015, -0.033087071031332016, 0.07671058923006058, 0.14699406921863556, 0.15358151495456696, -0.14949274063110352, -0.09772476553916931, -0.0766119584441185, -0.09155850112438202, 0.15878209471702576, -0.004592651501297951, -0.08492584526538849, -0.053759850561618805, -0.07553782314062119, 0.08661558479070663, -0.11908712983131409, -0.1260426938533783, -0.1455310881137848, 0.09921641647815704, 0.060033123940229416, -0.0612257681787014, 0.06107158586382866, 0.14347250759601593, 0.06789254397153854, -0.005189849995076656, 0.00629722373560071], [0.09915988892316818, 0.0663340613245964, -0.05307302251458168, 0.09121398627758026, 0.07570971548557281, -0.036975909024477005, 0.027636021375656128, 0.14679008722305298, -0.15046744048595428, -0.06249835342168808, 0.01727544143795967, -0.12850596010684967, 0.03118615597486496, 0.029585478827357292, 0.07115335017442703, -0.17293010652065277, -0.19591213762760162, -0.008911230601370335, 0.003299594856798649, -0.1957121342420578, -0.10965965688228607, -0.22082142531871796, -0.1600855439901352, -0.11000950634479523, 0.143927663564682, -0.1079765111207962, 0.051404744386672974, 0.13680876791477203, 0.08740317821502686, -0.2960655093193054, 0.07131707668304443, 0.043630558997392654, 0.08960608392953873, -0.1610363870859146, 0.07850591093301773, 0.10307920724153519], [-0.24723252654075623, -0.001157158869318664, 0.06643441319465637, -0.07428407669067383, 0.08352156728506088, 0.12684090435504913, 0.031249187886714935, 0.12968942523002625, 0.1426403671503067, 0.13416682183742523, -0.02896488830447197, 0.12952055037021637, -0.17826542258262634, -0.11280018836259842, -0.05509943142533302, -0.07646709680557251, 0.136326402425766, 0.07196984440088272, 0.090269073843956, 0.10232401639223099, -0.13755156099796295, -0.002992241410538554, 0.011940393596887589, 0.04224257916212082, 0.07698595523834229, -0.07270094007253647, -0.05483460798859596, 0.12805195152759552, -0.061850134283304214, -0.16749750077724457, 0.08234487473964691, 0.09330647438764572, -0.06907067447900772, -0.021413104608654976, -0.17429713904857635, -0.10335558652877808], [0.14619822800159454, -0.015146707184612751, 0.15807224810123444, -0.00967944785952568, 0.012625995092093945, -0.008460364304482937, 0.1050543338060379, 0.12495619803667068, 0.14199674129486084, 0.09589071571826935, -0.0496588870882988, -0.08849632740020752, -0.1223968118429184, 0.10334723442792892, 0.17820340394973755, 0.026838356629014015, 0.045167211443185806, -0.13253875076770782, 0.0764181911945343, 0.10855825990438461, -0.14532962441444397, -0.08486532419919968, 0.14620700478553772, 0.06846940517425537, 0.026830850169062614, 0.07012142986059189, -0.03787943720817566, -0.07813926786184311, -0.11579842120409012, 0.2273104190826416, -0.012848416343331337, -0.015521714463829994, -0.0308686476200819, -0.08830688148736954, -0.0017172611551359296, -0.22237081825733185], [0.13636872172355652, 0.06296564638614655, -0.05074140429496765, -0.10012593865394592, 0.07076288759708405, -0.07494744658470154, 0.019561825320124626, 0.01655547507107258, -0.11599928885698318, 0.0323951356112957, -0.013631731271743774, 0.129088893532753, -0.09255322068929672, -0.09499496966600418, 0.12527254223823547, -0.18079638481140137, 0.002847680589184165, 0.14902333915233612, -0.09097836166620255, 0.14839334785938263, 0.13926078379154205, 0.14361925423145294, -0.038121748715639114, 0.1409006267786026, -0.08756968379020691, -0.0997987911105156, 0.0334414504468441, 0.010695160366594791, 0.0840519592165947, 0.2069854736328125, -0.11513316631317139, 0.09002892673015594, 0.03617324307560921, 0.06563146412372589, 0.072870172560215, -0.01794268935918808], [-0.13386407494544983, 0.1857161670923233, -0.09341487288475037, 0.10522980988025665, -0.1773432493209839, 0.011442642658948898, 0.027263663709163666, 0.024312010034918785, -0.03077886439859867, -0.07995066791772842, -0.06387418508529663, 0.03754023090004921, 0.18464049696922302, -0.19833995401859283, -0.028790326789021492, -0.12076149880886078, 0.13654600083827972, 0.1258663833141327, -0.031304456293582916, -0.07368218153715134, -0.10568743199110031, 0.029809357598423958, -0.04167253524065018, 0.11465580761432648, 0.0951935201883316, -0.0086434381082654, 0.081587053835392, -0.1412787139415741, 0.03861737251281738, -0.03568921238183975, 0.045046117156744, -0.02155233360826969, -0.018679460510611534, -0.07594466209411621, -0.21328142285346985, 0.15181168913841248], [0.06339826434850693, 0.02613363042473793, 0.14247900247573853, -0.054168276488780975, 0.02274262346327305, 0.04425275698304176, 0.018399911001324654, 0.10535920411348343, 0.10322646796703339, 0.08224798738956451, 0.1370839625597, 0.050663430243730545, 0.1519467830657959, -0.3431379795074463, -0.08625515550374985, 0.004370033275336027, 0.03555114567279816, -0.1565377563238144, -0.057436130940914154, -0.09104956686496735, -0.16949379444122314, 0.03282216936349869, 0.11554021388292313, 0.07406797260046005, -0.05726677179336548, -0.1819629818201065, -0.1483803540468216, -0.0006054503028281033, 0.11343400925397873, -0.04911428317427635, -0.08375215530395508, -0.08853085339069366, -0.011507751420140266, -0.0055312723852694035, -0.19122223556041718, 0.16055899858474731], [-0.09722699970006943, -0.12232952564954758, 0.014680654741823673, -0.13580523431301117, -0.020465439185500145, 0.049699969589710236, -0.09661117941141129, -0.0381670817732811, -0.008730265311896801, -0.13140371441841125, 0.10985513776540756, 0.11645858734846115, 0.10571801662445068, -0.0426163412630558, 0.08575855195522308, -0.15218651294708252, -0.06916794925928116, -0.051466286182403564, -0.06279495358467102, 0.04986526444554329, -0.09257417917251587, -0.020166393369436264, -0.06818853318691254, -0.16505266726016998, -0.025366798043251038, -0.194554403424263, 0.0631224662065506, 0.072779580950737, 0.16027404367923737, 0.06209913641214371, 0.010489641688764095, 0.05535653978586197, 0.1548030823469162, 0.16314469277858734, -0.09274356812238693, -0.19598019123077393], [-0.14367474615573883, -0.11232700943946838, 0.06980844587087631, 0.07637850195169449, 0.11190900951623917, 0.06683184951543808, -0.04763438180088997, -0.044039536267519, 0.08653464168310165, 0.11650444567203522, 0.05771367996931076, -0.11951658129692078, 0.09675934910774231, -0.018256545066833496, 0.08759800344705582, 0.03896459564566612, 0.09620363265275955, -0.17592103779315948, -0.12180642783641815, 0.08034597337245941, -0.06845289468765259, -0.15699297189712524, 0.13226807117462158, -0.026048794388771057, 0.10029682517051697, -0.17528429627418518, 0.051965005695819855, -0.10420511662960052, -0.14290151000022888, 0.006509508937597275, -0.09243780374526978, 0.031850557774305344, -0.05358688160777092, 0.07587197422981262, -0.0017818969208747149, -0.037383414804935455], [-0.24775831401348114, -0.17449772357940674, -0.08194421976804733, -0.17865946888923645, -0.034012336283922195, -0.021450219675898552, -0.028353890404105186, -0.051389180123806, 0.08759941160678864, 0.06313145160675049, -0.0555710531771183, -0.11535267531871796, 0.06052780896425247, 0.1570371687412262, -0.17754274606704712, -0.06434544920921326, -0.02297985553741455, -0.058607958257198334, 0.121119424700737, -0.03760836273431778, 0.11299347132444382, -0.05618247017264366, -0.04018494859337807, -0.14842469990253448, -0.10237640887498856, 0.07297839224338531, 0.0569947212934494, -0.033751726150512695, 0.13093845546245575, -0.1262487918138504, 0.042468227446079254, 0.12583774328231812, -0.05161197483539581, 0.03812022507190704, -0.007078063208609819, -0.10718607902526855], [-0.0197478998452425, 0.08545204252004623, -0.11394958943128586, -0.014384585432708263, 0.05466409772634506, 0.02661864086985588, 0.046541862189769745, 0.0940321609377861, -0.05982331559062004, -0.054121218621730804, -0.06766437739133835, -0.13921433687210083, 0.02614618092775345, 0.12595050036907196, -0.031584303826093674, -0.1319023221731186, 0.10556936264038086, -0.05923915654420853, 0.000819580105599016, -0.1173274964094162, -0.10880529135465622, 0.18041659891605377, -0.11894723773002625, -0.05937047302722931, 0.1498744785785675, -0.021727051585912704, -0.03100360929965973, -0.015352212823927402, 0.10804778337478638, -0.11069540679454803, 0.0183558389544487, 0.10205284506082535, 0.016857687383890152, 0.05325903743505478, -0.0626637414097786, 0.0738835483789444], [0.0653451681137085, -0.004045981448143721, -0.14634428918361664, 0.07084362208843231, 0.06392079591751099, 0.010021613910794258, 0.11613764613866806, 0.08813613653182983, -0.032739538699388504, -0.09608388692140579, 0.17386499047279358, 0.014592867344617844, -0.08571256697177887, -0.1161116287112236, 0.0625937283039093, -0.09724283963441849, -0.07539580017328262, 0.12576277554035187, 0.09150801599025726, -0.03098192811012268, 0.013064819388091564, 0.01811433583498001, 0.02920064702630043, 0.026898901909589767, -0.10291316360235214, 0.237190842628479, -0.027966303750872612, 0.058005888015031815, -0.07824882864952087, 0.160758838057518, -0.13322897255420685, 0.05645531788468361, 0.07871297001838684, -0.022456906735897064, -0.16221889853477478, 0.12438951432704926], [-0.021750276908278465, -0.18976937234401703, -0.17735210061073303, 0.007047315593808889, 0.12419512122869492, 0.12070994079113007, 0.1355564445257187, 0.08534866571426392, 0.09234122186899185, 0.13014192879199982, -0.033532436937093735, -0.06879516690969467, 0.1449897289276123, -0.19965073466300964, -0.09577485918998718, -0.20243655145168304, 0.023386947810649872, 0.16787457466125488, 0.1207067146897316, 0.040804214775562286, 0.06849192082881927, -0.12272952497005463, -0.11974182724952698, -0.15519042313098907, 0.1082262396812439, 0.03461233153939247, -0.06815315783023834, 0.050627291202545166, -0.11691194027662277, 0.03357267007231712, 0.034360941499471664, 0.010699350386857986, -0.12199828773736954, -0.14146986603736877, 0.07761025428771973, 0.259193480014801], [0.01638662815093994, -0.02392955869436264, -0.0006620932836085558, -0.0063741495832800865, -0.0736895501613617, -0.0686524361371994, 0.035419680178165436, 0.07011829316616058, -0.02056504227221012, 0.07460641115903854, -0.11215038597583771, 0.18805401027202606, 0.16329354047775269, -0.008266041055321693, 0.08433741331100464, 0.06135200709104538, -0.10134584456682205, 0.0033170843962579966, 0.04832367226481438, -0.03643731772899628, 0.18515104055404663, -0.11664890497922897, -0.13152506947517395, -0.0864495262503624, -0.14501209557056427, 0.2050284445285797, -0.06815711408853531, -0.0901675894856453, -0.0020853641908615828, -0.05839927867054939, -0.05625578761100769, 0.10584507137537003, -0.11138494312763214, 0.06524690985679626, 0.13004453480243683, 0.0022605156991630793], [0.07021158188581467, -0.0755826011300087, 0.16063565015792847, 0.14193940162658691, -0.015155111439526081, 0.009503383189439774, -0.1454191952943802, -0.07439256459474564, -0.055746518075466156, -0.1551440954208374, 0.04035866633057594, -0.08525504916906357, -0.09723115712404251, -0.22462132573127747, 0.029241792857646942, -0.18617624044418335, -0.06947760283946991, 0.03726750984787941, 0.08263987302780151, 0.0027966212946921587, -0.10744758695363998, -0.05953742563724518, 0.05298735201358795, 0.01724424585700035, 0.1174120083451271, 0.053929854184389114, 0.11054276674985886, -0.15392732620239258, 0.12706325948238373, -0.23674875497817993, -0.06646177917718887, -0.022708937525749207, -0.06503937393426895, -0.0006138517637737095, 0.11517383903265, -0.062445785850286484], [0.06159096583724022, -0.14488555490970612, 0.026226215064525604, 0.13423466682434082, 0.14609509706497192, 0.131361186504364, 0.12499801814556122, 0.009836595505475998, 0.042882297188043594, -0.07402440905570984, 0.15173177421092987, 0.10502062737941742, -0.08656919747591019, 0.19628673791885376, 0.016209175810217857, 0.033271800726652145, -0.03302435204386711, -0.051237691193819046, 0.024722019210457802, -0.08256889134645462, -0.15662960708141327, -0.04454769194126129, -0.030042564496397972, 0.14726191759109497, 0.15902398526668549, -0.19091680645942688, 0.003569585271179676, -0.0461079441010952, -0.06504514813423157, -0.06437596678733826, -0.05923723801970482, 0.10691966861486435, -0.07305822521448135, 0.021204156801104546, -0.09041339159011841, -0.12449613213539124], [0.1185111254453659, -0.11056085675954819, -0.007250708527863026, 0.10066398978233337, 0.013141537085175514, -0.10825243592262268, -0.10941585898399353, -0.046011608093976974, -0.143602654337883, 0.11063601076602936, -0.04413362219929695, 0.12835147976875305, -0.11457553505897522, -0.10813694447278976, 0.060795705765485764, 0.09461065381765366, 0.15952035784721375, 0.018024759367108345, -0.0037295478396117687, -0.08150482177734375, 0.07588168978691101, -0.09568504989147186, -0.05328279733657837, -0.14764416217803955, -0.19278572499752045, 0.1743394285440445, 0.012619574554264545, 0.13287392258644104, 0.11732325702905655, 0.09401391446590424, 0.06076273322105408, -0.05286037549376488, 0.08365084230899811, 0.06350544095039368, 0.006348786875605583, 0.035619355738162994], [0.017877014353871346, 0.04313793033361435, -0.09356942027807236, 0.01201610267162323, -0.09067420661449432, 0.05046534165740013, -0.095801442861557, 0.011991830542683601, -0.07342719286680222, 0.08820328116416931, -0.09864970296621323, 0.11190148442983627, 0.12088806182146072, 0.1594010293483734, 0.08178611844778061, 0.13440999388694763, 0.17458218336105347, 0.005609487649053335, 0.06810100376605988, -0.12299088388681412, -0.027691785246133804, 0.025652466341853142, 0.04548176750540733, -0.03958146646618843, -0.14380447566509247, -0.050331395119428635, 0.08343981951475143, 0.159439817070961, -0.13555093109607697, 0.1904679834842682, -0.10048116743564606, -0.13296020030975342, -0.07225944101810455, -0.028729422017931938, 0.0543588325381279, -0.23489168286323547], [0.0668761283159256, 0.11935735493898392, -0.0051951417699456215, 0.09157850593328476, -0.02798295207321644, -0.12620364129543304, -0.12347034364938736, -0.07636188715696335, -0.1531701534986496, -0.13561603426933289, 0.02879379130899906, -0.0013797912979498506, 0.11504516750574112, -0.07988566160202026, -0.003666418604552746, -0.1036805734038353, 0.035244185477495193, -0.016352709382772446, 0.07498461753129959, 0.072403185069561, 0.10184296220541, 0.005780867300927639, -0.035647694021463394, 0.07748635858297348, -0.15325912833213806, 0.14514842629432678, 0.10939431190490723, 0.11544138193130493, -0.14283037185668945, -0.11906249076128006, -0.03556500002741814, -0.010247543454170227, 0.032862354069948196, -0.01821705885231495, 0.16447299718856812, -0.03630610555410385], [-0.056104421615600586, 0.062298472970724106, -0.051378559321165085, -0.04571309685707092, 0.04804990813136101, -0.0931289866566658, -0.028742482885718346, -0.04273490607738495, 0.13439379632472992, -0.12917488813400269, -0.08462943881750107, -0.15441954135894775, 0.042917124927043915, -0.1308119148015976, 0.050761524587869644, -0.1148393452167511, -0.09998912364244461, -0.08796472102403641, 0.02737187221646309, 0.15215590596199036, 0.18507985770702362, -0.03503728657960892, -0.1502389907836914, -0.053098030388355255, -0.06780063360929489, 0.053784698247909546, 0.06544867902994156, 0.10681699961423874, 0.06808290630578995, 0.20852161943912506, -0.048122890293598175, 0.013952590525150299, 0.0266717616468668, -0.0334632582962513, 0.0040497323498129845, -0.027017751708626747], [-0.21425919234752655, 0.1174047663807869, -0.0007110813166946173, -0.06605084240436554, 0.10261096805334091, -0.03271692246198654, 0.08603464066982269, 0.14524509012699127, 0.04379472881555557, 0.051943350583314896, 0.08079200983047485, 0.1325131207704544, -0.04822302982211113, -0.07145406305789948, 0.005047207232564688, 0.14800745248794556, 0.03209744766354561, 0.1513780802488327, 0.015512671321630478, 0.07906274497509003, 0.02675056643784046, -0.005959967616945505, -0.1485903114080429, -0.14811062812805176, 0.04529151692986488, 0.06973394006490707, 0.11984588205814362, 0.026457585394382477, 0.075983427464962, 0.13063235580921173, -0.12534606456756592, -0.1329289674758911, -0.11497392505407333, 0.03145051747560501, -0.12597337365150452, 0.0021744638215750456], [0.009831243194639683, 0.09355832636356354, -0.018078653141856194, 0.09530749171972275, 0.06888958066701889, -0.04574374854564667, 0.03054545447230339, 0.016594547778367996, 0.13845106959342957, -0.0043433974497020245, -0.04793282598257065, -0.09854438155889511, 0.14670678973197937, -0.09742681682109833, -0.03220190480351448, 0.1067574992775917, 0.1811610609292984, 0.03689802065491676, -0.0911301001906395, 0.1761341691017151, -0.04700656607747078, -0.04294808208942413, -0.09223013371229172, -0.059123795479536057, -0.11584056168794632, -0.023028500378131866, -0.11100348085165024, -0.006743509788066149, 0.10865101218223572, -0.23721249401569366, 0.011425703763961792, -0.03619333356618881, 0.1066204085946083, 0.14754553139209747, -0.024212105199694633, 0.03544306382536888], [-0.17337900400161743, -0.13084781169891357, -0.04722992703318596, -0.04586899280548096, 0.18602506816387177, 0.015133894048631191, 0.03166728466749191, -0.14305825531482697, 0.08570879697799683, 0.21685294806957245, -0.15356259047985077, -0.12141987681388855, 0.06141456589102745, 0.04487612470984459, -0.09539667516946793, 0.11734096705913544, -0.026086637750267982, 0.005457191728055477, -0.04576229676604271, 0.11121164262294769, 0.08182764798402786, 0.06964828819036484, 0.03364304453134537, 0.10757981985807419, 0.09944441169500351, -0.11872925609350204, -0.03402001038193703, 0.0493629053235054, -0.12111011147499084, 0.21061493456363678, -0.11023908853530884, 0.040834177285432816, -0.12075783312320709, -0.0075997174717485905, 0.19124601781368256, -0.02405947633087635], [-0.10522357374429703, 0.08446361124515533, -0.05449799448251724, -0.08907098323106766, -0.14665429294109344, -0.09439392387866974, 0.0486450120806694, -0.06623553484678268, -0.07419564574956894, -0.022267570719122887, 0.13047952950000763, -0.08362570405006409, -0.05671245977282524, 0.11434794217348099, -0.06832346320152283, 0.1594361811876297, -0.06548301130533218, -0.021632418036460876, -0.053085558116436005, 0.06130511313676834, 0.05771981552243233, -0.10907134413719177, 0.08493940532207489, -0.02904946729540825, -0.055444713681936264, -0.057911939918994904, 0.09757857769727707, 0.14034691452980042, 0.059584274888038635, 0.03977010026574135, 0.08935386687517166, -0.0866553857922554, -0.10805997252464294, -0.021213166415691376, -0.13807615637779236, 0.016543341800570488], [-0.033427223563194275, -0.04804094135761261, -0.11257994920015335, -0.02936374396085739, 0.09918463975191116, 0.11658181995153427, 0.01386556588113308, 0.10324688255786896, 0.049046896398067474, -0.0021647668909281492, -0.01158626563847065, 0.028919875621795654, 0.054464492946863174, 0.16252483427524567, -0.17949178814888, -0.05157563462853432, -0.10715534538030624, -0.08294416218996048, 0.03441781550645828, 0.09884074330329895, -0.13235905766487122, 0.08752430230379105, 0.12781336903572083, -0.0974411889910698, 0.0317293182015419, -0.09155352413654327, 0.04616129398345947, -0.07279714941978455, -0.09922762215137482, 0.014234914444386959, -0.1430325210094452, 0.13233955204486847, -0.02673373930156231, 0.032905593514442444, -0.05251237004995346, 0.09108953177928925], [-0.14213894307613373, -0.09558335691690445, -0.028314491733908653, -0.17669737339019775, 0.11398427188396454, -0.11781424283981323, -0.07227823138237, -0.0526789166033268, 0.08696005493402481, 0.09252344816923141, -0.11928630620241165, 0.1342802196741104, -0.21996110677719116, 0.07827108353376389, -0.014068087562918663, -0.04339180886745453, 0.11455343663692474, 0.16748201847076416, 0.028458399698138237, -0.040791600942611694, 0.12825244665145874, 0.10031704604625702, 0.03127242997288704, -0.04702853038907051, -0.007667307276278734, 0.15211151540279388, 0.03815465793013573, -0.04113401100039482, -0.1407775580883026, -0.1700623482465744, 0.12348330020904541, -0.024325832724571228, -0.005315756890922785, 0.05471840500831604, -0.10586533695459366, 0.04600057750940323], [-0.004477635957300663, 0.10983957350254059, 0.12938673794269562, 0.10363877564668655, 0.15244817733764648, -0.17414763569831848, -0.03424571454524994, 0.021547606214880943, -0.14362409710884094, 0.030259912833571434, -0.1145024374127388, 0.0839807316660881, 0.14964942634105682, -0.1638367474079132, 0.1640050709247589, 0.07981627434492111, -0.11009284108877182, 0.14308881759643555, -0.12600518763065338, -0.12706519663333893, -0.06567849218845367, -0.019961941987276077, 0.04610958322882652, -0.04976809769868851, -0.16831327974796295, 0.032104723155498505, 0.11664421111345291, 0.13901416957378387, 0.09012477844953537, -0.0438571535050869, 0.04056214541196823, -0.12955866754055023, 0.07666292041540146, -0.08408898115158081, -0.1266336441040039, -0.08355585485696793], [0.1338055431842804, 0.024952813982963562, -0.1218261569738388, -0.02529093436896801, -0.12163911014795303, -0.05135061964392662, -0.0032648120541125536, -0.019540924578905106, 0.0015237790066748857, 0.1345088630914688, -0.13185442984104156, -0.11311758309602737, 0.16529768705368042, 0.08463755995035172, -0.027482297271490097, 0.09801124781370163, 0.0639151781797409, -0.029370291158556938, -0.0702790915966034, -0.04160711541771889, 0.07084079831838608, -0.0834568440914154, 0.09188549965620041, -0.1641847789287567, -0.13758474588394165, 0.21343474090099335, 0.014557442627847195, 0.018707692623138428, 0.027490349486470222, 0.0669700875878334, -0.06333092600107193, 0.03345479443669319, -0.04691459983587265, -0.039376258850097656, 0.015670226886868477, -0.010998386889696121], [0.058583591133356094, -0.10250871628522873, -0.08308213949203491, -0.12508030235767365, -0.10094752162694931, -0.1417039930820465, -0.010699767619371414, 0.01945553347468376, -0.08784901350736618, 0.1785835474729538, -0.15873797237873077, -0.04203236475586891, -0.15527957677841187, -0.11931927502155304, 0.04173337295651436, -0.09396818280220032, 0.05654490366578102, -0.06532362848520279, 0.1275295913219452, 0.1435108780860901, 0.11740124970674515, -0.03790350630879402, -0.11163901537656784, -0.11591988056898117, 0.15848590433597565, -0.18094637989997864, -0.015478546731173992, -0.05370170250535011, 0.05655665323138237, -0.3233751058578491, 0.12279796600341797, -0.13488690555095673, 0.164864644408226, -0.07974619418382645, -0.060837432742118835, 0.08409841358661652], [0.07944668084383011, -0.059959545731544495, -0.19347016513347626, 0.05964095517992973, 0.18658332526683807, 0.13827461004257202, 0.15761621296405792, 0.035149428993463516, -0.001958558801561594, -0.044169552624225616, -0.1543208509683609, -0.14804059267044067, -0.060326654464006424, 0.1068955659866333, -0.08751237392425537, -0.018991386517882347, -0.06588943302631378, -0.10675674676895142, -0.037571001797914505, 0.14512114226818085, 0.09609104692935944, 0.16234755516052246, -0.03144543617963791, 0.0067043546587228775, 0.07862437516450882, -0.11060044169425964, -0.07399865984916687, 0.11961580812931061, 0.00035208920598961413, -0.2593804895877838, 0.09937210381031036, 0.0057993181981146336, 0.06579706817865372, -0.13796518743038177, -0.021334810182452202, 0.08671945333480835], [-0.03142077103257179, -0.175316721200943, 0.132466122508049, 0.09644446521997452, 0.010565265081822872, 0.07138780504465103, 0.002641288097947836, 0.08257441967725754, -0.039655156433582306, -0.09858738631010056, 0.05114469304680824, 0.020730718970298767, 0.07354379445314407, -0.1004306897521019, -0.033090900629758835, -0.036206405609846115, -0.004628559108823538, -0.12363999336957932, -0.16730518639087677, 0.05250895768404007, -0.11519137769937515, -0.012070582248270512, 0.026525774970650673, 0.01585967093706131, 0.10281864553689957, 0.006237151566892862, 0.028053149580955505, -0.026636948809027672, 0.011493233032524586, 0.08323965966701508, 0.08416511118412018, -0.16914281249046326, -0.08675231784582138, -0.13682161271572113, -0.08865024894475937, 0.11257719993591309], [-0.20291249454021454, -0.1931474357843399, -0.03321512043476105, -0.06717926263809204, 0.15081731975078583, 0.06304581463336945, 0.09282797574996948, 0.14108063280582428, -0.1102280542254448, -0.024689067155122757, 0.07898176461458206, -0.1078135296702385, 0.08285816758871078, -0.0631500780582428, -0.08929409086704254, 0.004933443386107683, -0.07450799643993378, 0.15122061967849731, 0.13774476945400238, -0.011385898105800152, -0.1525178998708725, 0.03537913039326668, 0.014411414042115211, 0.1325967013835907, 0.03029628098011017, 0.052364472299814224, 0.04820997640490532, -0.07278928905725479, -0.11106730997562408, -0.09293767809867859, -0.0007100678631104529, 0.05858924984931946, -0.01615329459309578, 0.19686758518218994, -0.023225700482726097, -0.13115240633487701], [0.001959399553015828, -0.10971704870462418, -0.034137874841690063, 0.158766970038414, -0.018157608807086945, 0.18327395617961884, 0.05727355554699898, -0.07219117134809494, 0.05918680131435394, -0.12400504946708679, -0.01794677972793579, 0.01823306828737259, 0.06276016682386398, -0.20303849875926971, 0.0034379560966044664, -0.07237379252910614, 0.08441849797964096, 0.03630511835217476, 0.04360377788543701, 0.08250615000724792, -0.057625912129879, -0.03839560225605965, 0.11849335581064224, -0.15710309147834778, -0.1249915361404419, -0.038091111928224564, -0.09182468801736832, -0.012670534662902355, 0.1399623602628708, 0.014700417406857014, -0.14397411048412323, -0.07359929382801056, 0.1385836899280548, 0.027880294248461723, -0.10644172132015228, 0.08551859110593796], [0.04529881104826927, -0.11015719920396805, 0.06827390193939209, 0.05882294848561287, 0.1098775863647461, 0.062919482588768, 0.028160331770777702, 0.00781076168641448, 0.03056863322854042, -0.02854430489242077, 0.04825834557414055, -0.1451140195131302, -0.04275771602988243, 0.019365398213267326, 0.005268520675599575, -0.07369757443666458, -0.1157953143119812, 0.1139187440276146, -0.02897362969815731, -0.14996811747550964, 0.17459461092948914, 0.07945508509874344, -0.06839793920516968, -0.11442382633686066, 0.17800652980804443, 0.1350448876619339, -0.041858572512865067, 0.14362148940563202, -0.015622293576598167, -0.02046622894704342, -0.07336898893117905, -0.12623554468154907, -0.08585358411073685, -0.054908473044633865, -0.15007874369621277, 0.18801316618919373], [-0.0035753101110458374, -0.06555715203285217, 0.027663875371217728, -0.12537255883216858, -0.12924720346927643, 0.003483736887574196, -0.06062154844403267, 0.08063644170761108, 0.008895316161215305, -0.10278130322694778, -0.16360744833946228, 0.040614522993564606, 0.08760086447000504, -0.09261379390954971, -0.1497035026550293, -0.11973433941602707, -0.003580559277907014, 0.0031682965345680714, 0.042615555226802826, 0.01896313764154911, -0.027182472869753838, 0.11277537047863007, 0.17141035199165344, 0.14247113466262817, 0.14427199959754944, 0.04816851764917374, -0.057606250047683716, 0.0022115339525043964, 0.04446900635957718, 0.12766380608081818, -0.02542317658662796, -0.1016010195016861, -0.126564159989357, 0.1806771606206894, -0.043981824070215225, -0.007001456338912249], [-0.0038429757114499807, -0.10910855978727341, 0.03366757184267044, 0.12069776654243469, -0.07022460550069809, -0.014069459401071072, 0.037999022752046585, -0.10232287645339966, -0.10325857251882553, -0.07587844878435135, 0.1404877007007599, 0.0424615778028965, 0.001926149008795619, -0.04786543920636177, 0.10409985482692719, -0.10987494885921478, 0.14643971621990204, 0.03875284269452095, 0.012084303423762321, 0.03270087391138077, -0.086838498711586, 0.08900854736566544, 0.09208139032125473, -0.14225497841835022, -0.1529485136270523, -0.060280490666627884, 0.12015397846698761, -0.0839904397726059, 0.17912806570529938, -0.15870514512062073, -0.15312258899211884, 0.08831045031547546, -0.09997335076332092, -0.007998689077794552, -0.04064427316188812, 0.054057128727436066], [-0.13627229630947113, -0.055979352444410324, 0.016235802322626114, -0.05370368808507919, -0.0631335899233818, -0.03011121228337288, -0.03355412930250168, 0.05315173789858818, 0.05588948354125023, 0.14394445717334747, -0.1319490671157837, 0.004038229119032621, 0.11504465341567993, 0.10257065296173096, -0.10009802877902985, 0.053861625492572784, 0.1355351358652115, 0.08510523289442062, -0.10574819147586823, 0.12701795995235443, -0.06102091819047928, -0.08253888785839081, 0.056672144681215286, 0.15605545043945312, -0.10835162550210953, 0.22616560757160187, 0.006355214398354292, 0.09964805096387863, 0.15429510176181793, -0.07851659506559372, -0.10598846524953842, -0.025413813069462776, 0.05474390834569931, -0.10747867077589035, 0.06455186009407043, -0.05279412865638733], [0.014731969684362411, 0.07785291969776154, -0.05212065950036049, -0.07358507066965103, 0.09364059567451477, -0.04255201295018196, 0.10634202510118484, -0.03458334505558014, 0.03765678033232689, 0.019811030477285385, 0.08907540142536163, -0.055199213325977325, 0.056349016726017, 0.07600720226764679, 0.16745442152023315, -0.1029941588640213, -0.053752120584249496, 0.07969614863395691, 0.027737632393836975, -0.0798802301287651, -0.10748644918203354, -0.14442484080791473, -0.0779433622956276, -0.057691171765327454, -0.07510019093751907, -0.12210363894701004, 0.03808439522981644, 0.13183972239494324, -0.03795013949275017, -0.015485440380871296, 0.038230378180742264, 0.1078367605805397, -0.08398739248514175, 0.003267321502789855, 0.18168923258781433, 0.1621674746274948], [-0.1402388960123062, -0.05800342932343483, -0.03180361166596413, 0.017298616468906403, -0.13308177888393402, -0.12954473495483398, 0.127813920378685, -0.016939278692007065, -0.004921655636280775, -0.013779502362012863, -0.09958947449922562, 0.008447941392660141, 0.09263481199741364, -0.16774916648864746, 0.03669105842709541, -0.04772542417049408, 0.09444551169872284, 0.10101930797100067, 0.04095534607768059, -0.0028663696721196175, -0.14948692917823792, 0.08333560079336166, 0.09905701130628586, -0.05284309759736061, -0.17853304743766785, 0.2316993921995163, -0.010505801066756248, 0.05449117347598076, -0.056719228625297546, 0.16568529605865479, 0.11969126015901566, 0.11293456703424454, -0.05948787182569504, 0.16492022573947906, 0.1641555279493332, 0.06943520158529282], [-0.014297897927463055, -0.03889846429228783, -0.08148114383220673, 0.1408442109823227, 0.23124505579471588, 0.0982002392411232, 0.0735364630818367, 0.05404394865036011, 0.14667275547981262, -0.07250271737575531, -0.04451848566532135, -0.11125846952199936, -0.008901258930563927, -0.00688539445400238, 0.06688335537910461, -0.1153905913233757, 0.04385383427143097, -0.1414305716753006, -0.11249413341283798, 0.03555751591920853, -0.16478882730007172, 0.11299183964729309, -0.13498693704605103, -0.09223996102809906, -0.015388856641948223, -0.10482665151357651, 0.14788925647735596, 0.1684870719909668, -0.04734842851758003, -0.03471994772553444, 0.12033005803823471, 0.08116830885410309, -0.00010304855823051184, -0.18670380115509033, 0.17155015468597412, -0.11676205694675446], [-0.0417158342897892, 0.035552822053432465, -0.05324428528547287, -0.06215265765786171, -0.15524016320705414, -0.008049658499658108, -0.03203674033284187, 0.03510222211480141, -0.061137594282627106, 0.10277088731527328, -0.02554687112569809, -0.08801943063735962, -0.07598458230495453, -0.08709360659122467, -0.03445803374052048, -0.07724306732416153, 0.020230641588568687, 0.11616728454828262, -0.0034480078611522913, 0.03787881135940552, 0.09330899268388748, 0.00777955399826169, 0.059697721153497696, 0.06972118467092514, 0.1572541445493698, -0.22552970051765442, 0.04428713396191597, -0.028249645605683327, -0.051921240985393524, 0.06113491952419281, 0.08504391461610794, 0.14833669364452362, -0.1585884690284729, 0.02903055027127266, 0.09586258977651596, 0.05597760155797005], [0.03961862996220589, 0.18489845097064972, 0.05918120965361595, -0.08168008923530579, 0.01586526446044445, 0.04453727975487709, 0.045654866844415665, 0.018086301162838936, 0.013894157484173775, 0.0294272992759943, -0.14902110397815704, 0.060626428574323654, 0.12192796915769577, -0.058878395706415176, -0.023129969835281372, 0.10557633638381958, -0.13398374617099762, -0.0836663469672203, -0.08266638964414597, 0.14048920571804047, -0.1670835018157959, 0.009294587187469006, -0.1585257649421692, -0.012410372495651245, 0.0803399607539177, -0.04027482867240906, 0.15748117864131927, 0.00768476165831089, -0.07833413779735565, 0.09306655824184418, 0.08477197587490082, 0.008368058130145073, 0.1390037089586258, -0.07242409884929657, 0.07737208902835846, 0.12310664355754852], [0.10800813138484955, 0.06400864571332932, 0.02681978978216648, -0.040801793336868286, 0.03129589930176735, 0.06485335528850555, 0.07546965032815933, 0.14601874351501465, 0.14564183354377747, 0.08024395257234573, -0.040451906621456146, -0.039524145424366, -0.09520977735519409, 0.09385634958744049, -0.10719488561153412, -0.116925910115242, 0.004686927888542414, -0.15896576642990112, -0.0003415394457988441, -0.09373784065246582, -0.017101094126701355, 0.20883502066135406, 0.026688862591981888, 0.20152223110198975, 0.07700088620185852, 0.0019593562465161085, -0.0263594351708889, -0.053513478487730026, -0.10178059339523315, 0.3176192045211792, -0.00633267592638731, -0.09644638746976852, 0.2002030462026596, 0.02736380323767662, -0.04192784056067467, -0.2033073753118515], [-0.21406789124011993, -0.17584985494613647, 0.11376845091581345, 0.10834299027919769, 0.04866103455424309, -0.11159716546535492, -0.05393144488334656, -0.13703134655952454, 0.028346475213766098, -0.04853416234254837, -0.025875745341181755, -0.0564117394387722, 0.07379376888275146, 0.14046823978424072, 0.0594099722802639, -0.0002381076046731323, 0.025891589000821114, -0.012835386209189892, -0.10114841163158417, 0.17035727202892303, -0.09136754274368286, 0.14428293704986572, -0.08125844597816467, 0.007157457061111927, 0.07361917942762375, -0.24034680426120758, 0.1093233972787857, -0.14207758009433746, 0.03385145217180252, -0.04385080561041832, 0.0960763543844223, 0.17187519371509552, 0.05645766109228134, -0.06538105010986328, -0.05622459948062897, 0.03879186511039734], [-0.05290306359529495, 0.1007763221859932, -0.02173144929111004, 0.11322463303804398, 0.14077690243721008, 0.11507903784513474, 0.01708897203207016, 0.07356174290180206, -0.06069222092628479, 0.14104542136192322, -0.02071952633559704, 0.08762060850858688, -0.007347492966800928, -0.03240526467561722, -0.06793979555368423, 0.13272520899772644, -0.05437544360756874, -0.028346410021185875, 0.10706758499145508, 0.028038540855050087, -0.1380997747182846, -0.11190738528966904, -0.06619323790073395, 0.18323564529418945, -0.10399512946605682, 0.15492883324623108, 0.12424018979072571, -0.04132421687245369, -0.06514672935009003, -0.06177704408764839, 0.03529058024287224, -0.00492582144215703, 0.02052903361618519, 0.036065664142370224, 0.07078379392623901, -0.06770302355289459], [-0.00983583927154541, 0.022729886695742607, 0.011992004700005054, 0.03756757825613022, -0.0344875268638134, 0.15993957221508026, -0.04538659751415253, -0.04636556655168533, -0.10888581722974777, -0.0834251344203949, 0.008970895782113075, -0.022205140441656113, -0.09484551846981049, 0.14332269132137299, 0.010949665680527687, 0.07417730242013931, 0.16926319897174835, -0.07435771822929382, -0.06648716330528259, -0.020346185192465782, -0.007567626424133778, -0.07420369237661362, -0.026663631200790405, 0.004048614762723446, 0.08774346858263016, 0.14156092703342438, 0.12280946969985962, 0.024718955159187317, 0.00925472192466259, -0.01323186606168747, 0.01341310329735279, -0.012175756506621838, 0.07221207767724991, -0.10267741233110428, -0.13665837049484253, 0.0034625858534127474], [-0.07229770720005035, -0.1000550389289856, -0.14370228350162506, 0.10776547342538834, 0.0028322264552116394, -0.07475680112838745, -0.04609965905547142, 0.024950210005044937, -0.13143862783908844, 0.0752982646226883, 0.010803503915667534, 0.06100686267018318, 0.0798051655292511, -0.03207201510667801, 0.08145163953304291, 0.17067831754684448, 0.005964357405900955, 0.10686135292053223, -0.05570254102349281, 0.046658311039209366, 0.07638385891914368, -0.11569314450025558, 0.10902389138936996, -0.15884816646575928, -0.05855977535247803, -0.09687633067369461, -0.09050435572862625, -0.09640152007341385, -0.15453846752643585, 0.05300287529826164, -0.020185939967632294, -0.1371840089559555, 0.008706431835889816, -0.012108293361961842, 0.06772480905056, -0.1898467242717743], [-0.03767022117972374, 0.0868385061621666, 0.011852111667394638, 0.028124859556555748, -0.019737035036087036, 0.1327163428068161, -0.08045453578233719, 0.07472777366638184, 0.01625109650194645, -0.08837833255529404, 0.006806525401771069, 0.06667494773864746, -0.07833970338106155, -0.04411492496728897, -0.014292732812464237, 0.023699631914496422, -0.023742420598864555, -0.15418334305286407, 0.06052370369434357, 0.0019970545545220375, 0.10846785455942154, 0.032558079808950424, 0.07076141238212585, 0.07253211736679077, -0.034838560968637466, 0.12944675981998444, 0.011317720636725426, -0.10953593999147415, -0.03811408206820488, 0.23141762614250183, -0.008084145374596119, -0.119941346347332, 0.06943823397159576, -0.1328379362821579, 0.04942524433135986, 0.21928414702415466], [-0.26401135325431824, 0.13017158210277557, -0.16135410964488983, -0.050904661417007446, 0.046573206782341, -0.030541080981492996, 0.18612465262413025, -0.0691911056637764, -0.009788323193788528, -0.2138383388519287, -0.08260845392942429, 0.14309388399124146, 0.15827248990535736, -0.08713853359222412, 0.025040308013558388, -0.1891406625509262, 0.09027339518070221, -0.02013423852622509, -0.06721548736095428, -0.13328757882118225, 0.1253666877746582, 0.0748421922326088, 0.08832894265651703, 0.014166349545121193, -0.13013020157814026, 0.07062304764986038, 0.0035650446079671383, 0.04562798887491226, -0.07221418619155884, 0.11320751905441284, 0.11888548731803894, 0.049318742007017136, -0.0737256109714508, -0.04927661269903183, -0.14280453324317932, 0.04575303569436073], [0.11449016630649567, -0.10453493893146515, 0.14562831819057465, 0.024332692846655846, -0.029145414009690285, -0.049064911901950836, -0.035149313509464264, -0.11129005998373032, 0.11167792230844498, -0.07757633924484253, 0.015672288835048676, -0.17105360329151154, 0.052108217030763626, 0.13455405831336975, 0.10983098298311234, 0.0060859606601297855, 0.11658209562301636, 0.04076981544494629, 0.09389403462409973, 0.09169484674930573, -0.1777821183204651, 0.051871590316295624, -0.0638653039932251, -0.08400417864322662, 0.12810315191745758, -0.08294461667537689, 0.008213034830987453, 0.09212017804384232, 0.12062984704971313, -0.05612732097506523, -0.02203495055437088, -0.17089590430259705, -0.1718425303697586, 0.032246384769678116, -0.02156434766948223, -0.10659120976924896], [0.05713437870144844, 0.11954724788665771, 0.0327715240418911, -0.04064654931426048, -0.014679288491606712, -0.10601997375488281, 0.01820424757897854, -0.0739278718829155, 0.10519610345363617, -0.09785112738609314, -0.07890336960554123, -0.1566343456506729, -0.07479565590620041, -0.026550333946943283, -0.09045076370239258, 0.08729878067970276, 0.10673939436674118, -0.1739715337753296, -0.025731217116117477, 0.040205761790275574, 0.1641511619091034, -0.11092724651098251, 0.09309235960245132, -0.047662872821092606, -0.10537209361791611, 0.21210543811321259, -0.1535032093524933, 0.14775730669498444, 0.1434631049633026, -0.0023533618077635765, 0.031282588839530945, 0.15565021336078644, 0.036284223198890686, 0.12229734659194946, 0.12291961908340454, -0.05189375951886177], [0.04576588794589043, -0.09106798470020294, 0.16708646714687347, -0.022392235696315765, 0.052734341472387314, -0.059578582644462585, 0.06403370946645737, 0.01860906556248665, 0.07158992439508438, -0.012082255445420742, -0.11184363812208176, 0.07137598097324371, -0.10271131992340088, -0.18063795566558838, 0.07485517859458923, -0.1265166997909546, -0.06877955049276352, -0.0536113865673542, 0.011558382771909237, -0.0676337331533432, -0.05991686135530472, -0.03841111436486244, 0.09736450016498566, 0.05386055260896683, -0.06726402044296265, -0.12384349852800369, -0.011526523157954216, 0.05751562491059303, 0.007613119203597307, 0.16505393385887146, 0.13190312683582306, 0.06813930720090866, 0.04799119755625725, 0.12405769526958466, -0.053372573107481, 0.06642142683267593], [0.04927540197968483, -0.0749850943684578, 0.02099529653787613, -0.09329916536808014, -0.12184951454401016, 0.04715949669480324, 0.1567767858505249, -0.04672134667634964, 0.05485554412007332, -0.0298913661390543, 0.05243515223264694, 0.07744153589010239, 0.1735561341047287, 0.09044196456670761, -0.15937601029872894, -0.06527911126613617, 0.10287700593471527, -0.1299273818731308, 0.016742877662181854, -0.09496431052684784, 0.034227155148983, 0.04224987328052521, 0.03168824315071106, 0.10459167510271072, -0.044934798032045364, 0.0716557577252388, 0.03317974507808685, -0.07113873958587646, -0.16320227086544037, 0.2830630838871002, -0.08015663176774979, 0.10592199116945267, 0.0848088338971138, 0.009182022884488106, -0.17654907703399658, -0.049724750220775604], [-0.16698196530342102, -0.015902092680335045, -0.06800292432308197, 0.12242189794778824, -0.14524881541728973, -0.0792468711733818, 0.16835565865039825, -0.00551660405471921, 0.07442484050989151, 0.03105313703417778, -0.15063613653182983, 0.07439056783914566, 0.037709128111600876, 0.07119216024875641, -0.08796795457601547, -0.1258975863456726, -0.0984419584274292, 0.011710806749761105, 0.04694147780537605, -0.10274539887905121, -0.03188276290893555, -0.038810864090919495, 0.13484865427017212, -0.07107426971197128, 0.14254477620124817, -0.12108267843723297, -0.0757998675107956, -0.146837055683136, 0.12911726534366608, -0.263574481010437, 0.004690349102020264, -0.07634159177541733, 0.15033185482025146, 0.024486079812049866, -0.21676625311374664, 0.06091402471065521], [-0.03187771514058113, -0.1890328973531723, -0.019424133002758026, 0.07920331507921219, 0.03604995459318161, -0.02035975456237793, 0.041420549154281616, 0.05603297799825668, -0.13972197473049164, 0.22107747197151184, 0.15959686040878296, 0.07141457498073578, -0.04662344604730606, -0.0646916851401329, -0.09172319620847702, 0.22151418030261993, -0.19523949921131134, -0.14123935997486115, 0.006544030737131834, 0.05160601809620857, -0.1416608840227127, -0.2099132537841797, 0.023730477318167686, -0.06858014315366745, 0.1291218250989914, -0.005919116083532572, -0.11112066358327866, -0.15389053523540497, 0.13210906088352203, -0.10516247153282166, -0.032737623900175095, 0.058861520141363144, -0.008997843600809574, 0.007746074348688126, 0.025105247274041176, -0.19538232684135437], [-0.2627933919429779, 0.04646363854408264, -0.02699144184589386, 0.007033534813672304, -0.015703151002526283, -0.07076101750135422, 0.08297158777713776, -0.07112710922956467, -0.005950620397925377, 0.0056876009330153465, 0.06823713332414627, -0.16390648484230042, 0.032192718237638474, 0.1266459971666336, -0.1225106343626976, 0.08296998590230942, 0.026338860392570496, 0.148323193192482, -0.03262702375650406, 0.01820964179933071, -0.06819208711385727, -0.0769684836268425, 0.024596117436885834, -0.17359986901283264, 0.13666480779647827, 0.07841990888118744, 0.06843145936727524, 0.12616170942783356, -0.05946965143084526, 0.048198401927948, 0.011186434887349606, -0.11835701018571854, -0.07124052941799164, -0.0864904597401619, -0.018184784799814224, -0.18184532225131989], [-0.17327721416950226, -0.023381004109978676, 0.0266510471701622, -0.10798390209674835, 0.06348267942667007, 0.08382044732570648, 0.07952885329723358, 0.09588131308555603, -0.08795779943466187, -0.09653745591640472, -0.1275421530008316, 0.010583390481770039, 0.027532821521162987, -0.11386021226644516, 0.015093452297151089, 0.030790602788329124, -0.13563019037246704, 0.03087979555130005, 0.06254833936691284, -0.03812696784734726, -0.19688117504119873, -0.07929179072380066, -0.039343785494565964, 0.028991766273975372, 0.12717407941818237, 0.23473940789699554, 0.007438515778630972, -0.0009483795147389174, 0.09302279353141785, -0.026316720992326736, 0.022540748119354248, -0.09464821219444275, -0.07002677023410797, 0.09146468341350555, -0.004203797318041325, -0.08091913908720016], [0.021144669502973557, 0.004672896582633257, 0.025320494547486305, 0.10374143719673157, 0.026942439377307892, -0.119440957903862, 0.008445135317742825, 0.031990643590688705, 0.029210025444626808, 0.15413542091846466, 0.15595324337482452, -0.012800769880414009, -0.0944925844669342, -0.03976946696639061, 0.1260630488395691, 0.14751015603542328, 0.013048999011516571, -0.11700978130102158, -0.07239970564842224, 0.03724290058016777, 0.10493779927492142, -0.033220406621694565, -0.052444253116846085, -0.09169014543294907, 0.18273276090621948, -0.015953117981553078, -0.08712975680828094, -0.10088448971509933, -0.10939587652683258, 0.08635124564170837, -0.06245243921875954, 0.028366602957248688, 0.015225691720843315, -0.11605004966259003, -0.12514735758304596, -0.1162644550204277], [-0.08137195557355881, 0.007357284426689148, -0.09081793576478958, 0.05802658200263977, -0.04365510120987892, 0.15955229103565216, -0.025186462327837944, 0.10100575536489487, -0.14090484380722046, -0.17087393999099731, 0.045568984001874924, -0.08809634298086166, 0.09223002940416336, -0.1269952654838562, 0.11500604450702667, 0.14453892409801483, 0.006403574254363775, 0.0183463953435421, 0.15399391949176788, 0.08287744969129562, -0.14346177875995636, -0.013834056444466114, -0.16799062490463257, 0.12102443724870682, -0.01720680296421051, 0.0009935892885550857, -0.12415678054094315, -0.08187927305698395, 0.00905852485448122, 0.24605102837085724, -0.08710703253746033, 0.020487911999225616, 0.1388702094554901, 0.22603584825992584, -0.020466871559619904, 0.14801152050495148], [0.011652667075395584, 0.17215898633003235, -0.015753593295812607, -0.16483208537101746, -0.07529587298631668, 0.09466501325368881, -0.02065526880323887, -0.14554156363010406, 0.0783686637878418, -0.11647752672433853, 0.08715370297431946, 0.1578458845615387, 0.037802815437316895, -0.03392640873789787, 0.11227432638406754, -0.05206578969955444, -0.1734895408153534, -0.11093219369649887, 0.06800664216279984, 0.11871600151062012, 0.011389247141778469, -0.1818724423646927, -0.1643039584159851, -0.04611174389719963, 0.09536896646022797, -0.18894441425800323, 0.058761730790138245, -0.10744278132915497, 0.1402534395456314, -0.11077956110239029, -0.011889440007507801, -0.15174946188926697, -0.14126504957675934, 0.026654617860913277, -0.013034425675868988, 0.07403270155191422], [-0.12117105722427368, 0.005968189332634211, 0.077706478536129, 0.11158496886491776, -0.0295480415225029, 0.04168897867202759, 0.089713916182518, 0.09239508956670761, -0.0473245307803154, 0.08282370120286942, -0.010491943918168545, 0.065150685608387, -0.0837521106004715, -0.17322729527950287, -0.12016370892524719, -0.10828296095132828, -0.06316538155078888, 0.08874645829200745, -0.011122568510472775, -0.0396236926317215, 0.05755297839641571, -0.05963001772761345, 0.12445822358131409, -0.10998538136482239, -0.027522988617420197, -0.13318848609924316, 0.04702372848987579, 0.027516886591911316, 0.024096233770251274, 0.3517027497291565, -0.015482403337955475, 0.025664258748292923, 0.07021617144346237, 0.15336474776268005, 0.22944004833698273, 0.13863782584667206], [-0.10233042389154434, 0.05014608055353165, 0.10210772603750229, 0.03330230340361595, 0.11059228330850601, 0.15210944414138794, -0.06857718527317047, -0.031833115965127945, -0.17047229409217834, 0.06522563099861145, 0.1284121572971344, -0.03180795907974243, 0.04343796521425247, -0.014018218964338303, -0.005190406925976276, 0.11205095797777176, 0.016984743997454643, -0.15037693083286285, -0.1252296417951584, -0.1602393239736557, 0.00980795081704855, 0.09874248504638672, -0.030796552076935768, 0.15271030366420746, -0.036848098039627075, 0.13949337601661682, 0.15039770305156708, 0.10675336420536041, -0.005013829097151756, 0.32596996426582336, -0.0979987233877182, 0.08170811086893082, 0.10575854033231735, -0.08816255629062653, -0.19308602809906006, 0.09343891590833664], [-0.04589172825217247, -0.08200698345899582, 0.002747047459706664, -0.10651584714651108, 0.17459262907505035, -0.025015797466039658, -0.044681161642074585, 0.11971771717071533, 0.02612549625337124, 0.0722774937748909, -0.08454892784357071, 0.16000795364379883, -0.052022065967321396, 0.11872886121273041, -0.01586361788213253, 0.07240858674049377, 0.15982894599437714, -0.13561353087425232, -0.11461896449327469, -0.15676376223564148, 0.10674842447042465, 0.18461281061172485, -0.04783276095986366, -0.06723766028881073, 0.02233930118381977, 0.06637952476739883, 0.051191531121730804, -0.046959664672613144, -0.11231809109449387, 0.2161371260881424, -0.08129097521305084, -0.16615310311317444, -0.058249954134225845, 0.03166291117668152, 0.04356004297733307, 0.11911297589540482], [-0.12212946265935898, -0.045275524258613586, -0.056952495127916336, -0.09316326677799225, -0.1047927513718605, 0.027576709166169167, -0.014920196495950222, -0.12213695049285889, -0.051515351980924606, -0.09002014994621277, -0.03758274391293526, -0.09425213187932968, -0.0074796052649617195, 0.03602631017565727, -0.10592939704656601, -0.010898001492023468, -0.02971321903169155, -0.05390547960996628, -0.00415127445012331, -0.04624325409531593, 0.022888775914907455, -0.061553001403808594, 0.05691111832857132, 0.18634650111198425, 0.15454529225826263, 0.009589245542883873, 0.0787675529718399, -0.13085946440696716, 0.16192953288555145, -0.05822553485631943, -0.1175747662782669, -0.12089689821004868, -0.1252020001411438, 0.011243009939789772, -0.0325523242354393, 0.12094245105981827], [0.04532625526189804, -0.06060979515314102, -0.09942562133073807, -0.037230975925922394, -0.034614935517311096, 0.0012111500836908817, 0.00922105461359024, 0.018029799684882164, 0.03362210467457771, -0.06295954436063766, -0.04309319704771042, -0.09248752146959305, -0.09524707496166229, 0.13548466563224792, -0.033302877098321915, 0.159813791513443, 0.06206829100847244, -0.00995154120028019, -0.13446994125843048, 0.016614248976111412, -0.003052734537050128, -0.11910887807607651, -0.03238172084093094, 0.01372160017490387, -0.1025979295372963, -0.018861345946788788, 0.11740868538618088, 0.029693545773625374, 0.2174689918756485, -0.138863667845726, -0.10919976234436035, -0.04156900569796562, -0.029377907514572144, 0.051332343369722366, -0.010659643448889256, 0.0786818191409111], [0.16891656816005707, -0.07722347229719162, -0.038243092596530914, -0.06165369972586632, -0.05213039740920067, 0.07164128869771957, 0.037146784365177155, -0.1819116175174713, -0.10297706723213196, 0.03890293091535568, -0.13778334856033325, -0.07315502315759659, -0.0896412581205368, 0.14795607328414917, -0.01996435597538948, -0.06704387813806534, -0.07433817535638809, 0.14293603599071503, -0.011311478912830353, 0.07025295495986938, 0.09141497313976288, 0.055219680070877075, 0.12089693546295166, 0.03358830511569977, 0.07110320776700974, -0.026800619438290596, -0.11723464727401733, -0.013247150927782059, 0.22353875637054443, -0.22805143892765045, -0.044247377663850784, -0.14145156741142273, 0.036395758390426636, -0.14299800992012024, -0.11733211576938629, 0.23340478539466858], [0.09272150695323944, 0.08035395294427872, 0.030026860535144806, -0.08920319378376007, -0.0478004589676857, -0.08293769508600235, -0.12951384484767914, 0.028699340298771858, -0.048598721623420715, 0.24135670065879822, -0.1292993426322937, -0.1284424513578415, 0.19115817546844482, -0.16567732393741608, 0.15069924294948578, 0.0543687529861927, -0.14682523906230927, 0.13960407674312592, -0.04205737262964249, -0.07168281823396683, -0.1398746818304062, -0.09560936689376831, 0.029897617176175117, -0.14745934307575226, 0.08482670038938522, -0.10690969973802567, 0.05049925670027733, -0.045503344386816025, 0.06891331076622009, -0.11446711421012878, 0.03867470845580101, -0.06798253208398819, -0.11670554429292679, 0.00859022606164217, -0.12937848269939423, -0.12681138515472412], [-0.17168013751506805, -0.11510062962770462, -0.2123773694038391, 0.09697107970714569, 0.17618133127689362, 0.024876175448298454, 0.1630171835422516, 0.12816081941127777, -0.09571366757154465, -0.05815451592206955, -0.00048290780978277326, -0.11063648015260696, 0.079310342669487, -0.04908464476466179, -0.13254204392433167, 0.017462754622101784, -0.11528238654136658, 0.14292530715465546, 0.08334814757108688, 0.157608300447464, -0.037694744765758514, 0.0780656486749649, -0.015732428058981895, -0.13238421082496643, 0.06817957758903503, -0.04303089529275894, -0.06439667195081711, -0.05534999817609787, -0.17541563510894775, 0.10900751501321793, -0.0037724138237535954, -0.004167771432548761, 0.0983072817325592, 0.09002410620450974, -0.050924304872751236, -0.13149002194404602], [-0.08472266048192978, -0.03326164186000824, -0.05761745572090149, -0.10331594198942184, -0.0008026683353818953, -0.04289695993065834, -0.05433357134461403, 0.09990814328193665, 0.12933993339538574, -0.05848925933241844, 0.07382223755121231, -0.06893398612737656, -0.028900636360049248, 0.18918299674987793, 0.00739080086350441, -0.14973169565200806, 0.18789353966712952, -0.029767297208309174, -0.08541914820671082, -0.09530514478683472, 0.15028589963912964, -0.006446856539696455, 0.09554765373468399, 0.10810032486915588, -0.0698675811290741, 0.059962108731269836, -0.10086143761873245, 0.1488102823495865, -0.1004578098654747, 0.19365069270133972, 0.051922235637903214, 0.10433290153741837, -0.11683963239192963, -0.0016073145670816302, 0.1430501937866211, -0.041684333235025406], [0.08951600641012192, 0.07648768275976181, -0.1489010900259018, -0.019621072337031364, 0.040758706629276276, 0.06090199574828148, 0.13298238813877106, -0.009576937183737755, 0.06426915526390076, -0.0044946870766580105, -0.012386305257678032, -0.07112916558980942, 0.14715313911437988, -0.04353789612650871, 0.05851385369896889, 0.08989366143941879, 0.014645511284470558, 0.050736457109451294, -0.012430663220584393, -0.12397019565105438, 0.030279165133833885, 0.02662811242043972, -0.1318039894104004, 0.18562480807304382, -0.001552760717459023, -0.06631427258253098, -0.14536982774734497, -0.13887685537338257, 0.08597522228956223, -0.05122503265738487, -0.06568771600723267, -0.07524681091308594, 0.13868165016174316, -0.020324112847447395, 0.11064276844263077, 0.17472074925899506], [-0.10176210850477219, 0.015223280526697636, -0.06334701180458069, 0.2052236944437027, 0.09266494959592819, -0.06989940255880356, -0.0024823113344609737, 0.005214368458837271, -0.0670681744813919, 0.0632181465625763, -0.16311050951480865, -0.08549343794584274, 0.1394788771867752, 0.15893836319446564, 0.06855840235948563, -0.11123130470514297, -0.18112686276435852, -0.1686152070760727, -0.047953248023986816, 0.06389744579792023, 0.04942038282752037, -0.07876089960336685, 0.13329581916332245, 0.10361793637275696, -0.1149996817111969, -0.07382408529520035, -0.008661461994051933, 0.0022800136357545853, -0.002069660695269704, -0.04460248723626137, 0.08496719598770142, -0.04371805861592293, 0.06535341590642929, 0.019136156886816025, 0.039436642080545425, 0.01080029271543026], [-0.08424832671880722, -0.11215581744909286, 0.03752168267965317, -0.09203282743692398, 0.03241783380508423, -0.06921528279781342, 0.08315987139940262, 0.052159383893013, -0.020418748259544373, 0.1636524647474289, -0.04783894121646881, 0.012410653755068779, 0.04260953143239021, 0.09922444820404053, 0.025342393666505814, 0.032497916370630264, -0.07448983192443848, 0.11794386804103851, 0.06135280057787895, 0.07173846662044525, 0.1126001700758934, -0.10509756952524185, -0.03860829770565033, -0.014867749996483326, 0.12613213062286377, -0.20364779233932495, -0.0973539724946022, -0.06539905071258545, -0.1758328229188919, -0.1624184399843216, 0.09384900331497192, -0.026514830067753792, -0.1408197432756424, -0.041076913475990295, 0.002011055126786232, -0.10271605849266052], [-0.09635791927576065, 0.07554508745670319, -0.042967554181814194, 0.12479303032159805, -0.2015252709388733, -0.002600886160507798, -0.02181551232933998, -0.07345465570688248, 0.06256746500730515, 0.07780567556619644, 0.16275545954704285, -0.0984603762626648, 0.12524770200252533, 0.16160495579242706, -0.07433513551950455, 0.04645616561174393, 0.10910432040691376, 0.12483427673578262, -0.14503173530101776, 0.17914654314517975, -0.026789212599396706, 0.01694435440003872, -0.0740942433476448, -0.14489252865314484, -0.11054447293281555, 0.052613988518714905, -0.06285899877548218, 0.08756772428750992, 0.03091709315776825, 0.19315624237060547, -0.03986178711056709, -0.056772876530885696, -0.06807349622249603, -0.11046867072582245, 0.1585865467786789, -0.027291083708405495], [-0.033458467572927475, -0.15542426705360413, 0.012888818979263306, -0.14551261067390442, 0.04964803159236908, 0.10239262878894806, -0.01214774139225483, 0.12423519045114517, -0.062452785670757294, -0.08719659596681595, -0.12066496163606644, 0.12043275684118271, -0.07886070013046265, 0.18474018573760986, 0.053238436579704285, 0.14481540024280548, -0.09356775134801865, 0.21132421493530273, -0.11321505159139633, -0.09648962318897247, 0.14139416813850403, -0.020034797489643097, -0.021533280611038208, -0.024733446538448334, -0.10950637608766556, -0.3461856245994568, -0.00793434027582407, 0.12467238306999207, 0.07988634705543518, 0.03549894317984581, 0.01010806579142809, 0.17698408663272858, 0.04549125209450722, 0.0553571991622448, 0.008250107988715172, -0.10139018297195435], [0.029493462294340134, 0.07099990546703339, 0.0037831608206033707, 0.012150187976658344, 0.005515037104487419, -0.09166961908340454, 0.07931225001811981, 0.054936282336711884, 0.120338074862957, -0.016267823055386543, -0.14772929251194, 0.002211486455053091, 0.022280488163232803, 0.1600567251443863, 0.04977909475564957, 0.043481480330228806, 0.11855749040842056, -0.05631669983267784, 0.12600156664848328, 0.08002042770385742, 0.0829225704073906, 0.118951715528965, -0.15037061274051666, 0.07418853789567947, 0.1400596648454666, -0.2328108549118042, -0.027432996779680252, -0.14816312491893768, -0.06542335450649261, -0.09461866319179535, 0.05899485945701599, -0.09519936144351959, -0.17603342235088348, 0.12334314733743668, 0.10300108045339584, -0.01659286580979824], [0.2090456336736679, 0.16247709095478058, -0.030726445838809013, -0.015646399930119514, -0.023642074316740036, -0.09863629192113876, -0.07663291692733765, -0.06102052703499794, -0.057382732629776, 0.033675242215394974, -0.04830879345536232, -0.09805401414632797, 0.12112575024366379, 0.10114804655313492, 0.10127385705709457, 0.17532673478126526, -0.04953284189105034, 0.012558693066239357, 0.13774994015693665, -0.13531523942947388, -0.06696557998657227, 0.04068427532911301, -0.012149594724178314, 0.04237394779920578, 0.07595702260732651, -0.12530039250850677, 0.00843095127493143, 0.12844426929950714, -0.11238095909357071, -0.11579132080078125, -0.11411967128515244, 0.08106153458356857, -0.15854813158512115, -0.1164364218711853, 0.14707790315151215, -0.1894935518503189], [0.15142019093036652, -0.11746886372566223, -0.10397730022668839, 0.06008331477642059, 0.06293296068906784, 0.12705731391906738, 0.1776830404996872, 0.010724365711212158, 0.11123663187026978, 0.021150827407836914, 0.04395504668354988, -0.10486554354429245, 0.08544866740703583, 0.1904716044664383, -0.16164499521255493, -0.10479322820901871, -0.14206136763095856, 0.03375457599759102, -0.0290913674980402, -0.05172877758741379, 0.1713000237941742, 0.028723755851387978, -0.10570299625396729, 0.05038546770811081, -0.07259384542703629, -0.011717251501977444, 0.08876146376132965, 0.0566120408475399, -0.12567675113677979, 0.3268800973892212, 0.12920746207237244, -0.09790609031915665, 0.0763704851269722, 0.0878867655992508, -0.1001269668340683, -0.18914924561977386], [-0.03645283728837967, 0.10459918528795242, 0.035403620451688766, 0.16226816177368164, -0.13778701424598694, 0.08763708919286728, 0.03874882310628891, -0.008866717107594013, 0.02795972116291523, 0.09589648246765137, 0.09541472792625427, 0.0052697802893817425, -0.11190522462129593, -0.14934782683849335, 0.1971035748720169, -0.11369509994983673, 0.15962904691696167, 0.0074672517366707325, 0.04533756524324417, -0.10129310935735703, -0.022405065596103668, 0.22997020184993744, -0.08904282748699188, 0.14574863016605377, -0.1257845014333725, 0.18072958290576935, -0.08152385801076889, -0.07636406272649765, -0.08931507170200348, -0.09543179720640182, 0.04103751853108406, -0.08666856586933136, 0.09284258633852005, 0.025165384635329247, 0.14707286655902863, 0.32266074419021606], [0.2546011209487915, 0.01666378229856491, 0.024518607184290886, 0.07506539672613144, 0.07889891415834427, -0.06521394103765488, 0.050202250480651855, -0.0733032152056694, 0.15852026641368866, 0.06695724278688431, -0.13285933434963226, -0.13461586833000183, 0.11232217401266098, 0.22077076137065887, 0.022998696193099022, -0.0531592071056366, 0.09972341358661652, 0.07851815223693848, -0.024238184094429016, 0.13758458197116852, 0.11262665688991547, -0.01256480347365141, 0.09547683596611023, -0.18020638823509216, -0.0952836126089096, 0.008502698503434658, 0.041056398302316666, -0.03645089268684387, 0.06590220332145691, -0.06103334203362465, -0.14985893666744232, 0.043800417333841324, -0.011158826760947704, -0.14493952691555023, 0.014369629323482513, -0.06295916438102722], [-0.17659154534339905, -0.16991600394248962, 0.08180977404117584, -0.06681966781616211, 0.013300583697855473, 0.08268667012453079, -0.017960209399461746, -0.07030503451824188, -0.09756167232990265, 0.04113292321562767, -0.06479950994253159, -0.009173057042062283, 0.05753951519727707, 0.015833236277103424, 0.11658792942762375, 0.0124434232711792, -0.10185657441616058, -0.09335795044898987, 0.04875674471259117, -0.11092781275510788, 0.03613590449094772, -0.0112789086997509, 0.11242411285638809, -0.0771709606051445, -0.09187112748622894, -0.0650225281715393, -0.09658567607402802, 0.043688513338565826, -0.07076768577098846, 0.1274489462375641, 0.10013441741466522, 0.09590406715869904, -0.028217416256666183, 0.09939945489168167, -0.09906818717718124, -0.2842421531677246], [0.03363156318664551, -0.08317512273788452, -0.048147283494472504, -0.029600678011775017, 0.07307182252407074, -0.10026466846466064, -0.07688375562429428, -0.10791929811239243, 0.04466017708182335, 0.11059839278459549, -0.01037504244595766, 0.10589602589607239, -0.19793908298015594, 0.11729949712753296, -0.10661280900239944, 0.18711960315704346, 0.14767517149448395, 0.16783422231674194, 0.15151485800743103, 0.0688939020037651, -0.13792315125465393, -0.1130334734916687, 0.04436013847589493, -0.15344399213790894, 0.09227654337882996, 0.09940614551305771, 0.057207874953746796, -0.14206989109516144, 0.14044229686260223, -0.16833701729774475, -0.05356459692120552, 0.07633014768362045, 0.01867491565644741, -0.012561370618641376, 0.07938506454229355, -0.16727326810359955], [0.21913444995880127, 0.1477135270833969, 0.025958865880966187, 0.0685155838727951, -0.3091467320919037, -0.03784414753317833, -0.15850581228733063, -0.1179439127445221, -0.06505495309829712, 0.04138163477182388, 0.10111606866121292, 0.1168825551867485, -0.06479624658823013, 0.10879472643136978, 0.005806473083794117, -0.047162823379039764, 0.11848364025354385, 0.16040724515914917, -0.1035911813378334, 0.20424607396125793, -0.0010953572345897555, 0.07132178544998169, -0.0983842983841896, 0.03914714232087135, -0.04629140719771385, -0.21872659027576447, -0.03202562779188156, -0.01077306643128395, -0.0018472435185685754, -0.16408295929431915, 0.1551200896501541, 0.0764320120215416, -0.11774010211229324, 0.07018758356571198, 0.08044328540563583, 0.114442378282547], [0.03771181404590607, 0.003766834270209074, 0.0342673659324646, -0.10607177764177322, -0.10379199683666229, 0.0744839534163475, -0.04904831945896149, 0.05589108541607857, 0.1227559894323349, -0.1702379584312439, -0.08512954413890839, 0.1419217884540558, -0.017107786610722542, -0.0009560559410601854, 0.011290359310805798, 0.050821173936128616, -0.0674896165728569, -0.004489779472351074, 0.09883954375982285, -0.031805310398340225, -0.1713559627532959, 0.0702516958117485, -0.04022205248475075, -0.04137451574206352, 0.0849573016166687, 0.008512409403920174, -0.10132794082164764, -0.08836258947849274, -0.045256607234478, -0.014932188205420971, -0.04414261877536774, -0.12561166286468506, 0.11392886191606522, 0.08616402745246887, 0.05458124354481697, 0.020234256982803345], [-0.009484236128628254, 0.0993182361125946, 0.034034308046102524, 0.03462542966008186, -0.0570203959941864, 0.03551322966814041, -0.11366313695907593, 0.013413670472800732, -0.1335776150226593, -0.0668167695403099, 0.08364102989435196, -0.09386415034532547, 0.16700930893421173, -0.12226207554340363, 0.15939664840698242, 0.06066157668828964, -0.08866013586521149, 0.1035112589597702, -0.1481543779373169, -0.10899069905281067, -0.09890053421258926, 0.03316456452012062, 0.026646770536899567, -0.13371983170509338, 0.16840524971485138, -0.012886853888630867, -0.08229842036962509, 0.0018025108147412539, -0.06842004507780075, 0.021511413156986237, 0.05205501243472099, -0.047720443457365036, 0.012155857868492603, 0.08651156723499298, -0.15952111780643463, -0.05804991349577904], [0.07392734289169312, -0.10950981080532074, 0.024737540632486343, -0.0013295086100697517, -0.08660239726305008, 0.07157106697559357, 0.12322796881198883, 0.08793597668409348, -0.026421794667840004, 0.113962322473526, -0.12311497330665588, -0.05150231346487999, 0.10799257457256317, 0.17048214375972748, 0.17175082862377167, 0.18246032297611237, -0.0686577633023262, 0.03338925540447235, -0.10365528613328934, 0.013393290340900421, 0.18882259726524353, -0.031195862218737602, -0.14348982274532318, -0.08817402273416519, -0.12506605684757233, 0.05613333359360695, -0.018115166574716568, -0.11241713911294937, -0.02980136126279831, 0.1711571365594864, 0.018937788903713226, 0.1884268820285797, 0.0044109453447163105, 0.05053592473268509, -0.05087636038661003, -0.03562312200665474], [0.005912155844271183, 0.1584988236427307, 0.07275208830833435, -0.0946802869439125, -0.15369084477424622, -0.1119748130440712, -0.029034599661827087, 0.05790695920586586, 0.13849306106567383, -0.029572390019893646, 0.07686562836170197, 0.13215550780296326, -0.11012835800647736, -0.09001617133617401, 0.0952671691775322, 0.11563452333211899, -0.011365021578967571, 0.02657342329621315, -0.11776838451623917, 0.02171190455555916, 0.09198647737503052, -0.014258361421525478, 0.032456494867801666, 0.08663025498390198, -0.007037723902612925, 0.05935662239789963, -0.13004225492477417, -0.08072010427713394, -0.12118683010339737, -0.12580634653568268, 0.1516410857439041, -0.02347484789788723, -0.09495202451944351, 0.053891442716121674, -0.11172245442867279, -0.014923688024282455], [0.08515337854623795, -0.02335246466100216, 0.05809280276298523, 0.020840609446167946, -0.06105382367968559, 0.033133480697870255, 0.018536610528826714, -0.030150465667247772, 0.024014858528971672, 0.04709995165467262, 0.016071660444140434, 0.03747333958745003, -0.1706320196390152, 0.1367078423500061, 0.07433681190013885, 0.018095703795552254, 0.05287005007266998, -0.13827472925186157, -0.044890690594911575, 0.0004097619967069477, 0.03317106515169144, -0.09790148586034775, 0.02367745153605938, -0.058312125504016876, 0.1200479045510292, -0.17437222599983215, 0.00604934012517333, 0.10342957824468613, -0.17052948474884033, 0.2640412747859955, 0.0811089277267456, 0.06486652791500092, 0.0202169306576252, 0.0344877690076828, -0.14348766207695007, 0.15515916049480438], [0.010625596158206463, 0.08445622771978378, 0.07491600513458252, -0.07025809586048126, 0.06271868199110031, 0.2520766854286194, 0.24299520254135132, -0.1029108539223671, -0.05869109183549881, -0.16673313081264496, 0.1125025600194931, 0.10283467918634415, -0.14441829919815063, 0.08984106779098511, 0.11063916981220245, 0.12219025939702988, -0.12991943955421448, 0.11464335024356842, -0.047582753002643585, -0.15361171960830688, 0.005884620826691389, 0.0705752819776535, 0.08441708236932755, -0.13604772090911865, -0.12846262753009796, -0.2069171965122223, 0.05590248107910156, -0.17694121599197388, -0.042070016264915466, -0.11530502140522003, 0.0699826180934906, -0.011790180578827858, -0.09983225166797638, 0.010854873806238174, 0.30184879899024963, -0.02252596989274025], [-0.094472236931324, 0.054441966116428375, -0.13339529931545258, -0.10485662519931793, -0.09688177704811096, -0.05705339461565018, 0.14908097684383392, 0.02897220104932785, 0.14518319070339203, -0.03760451450943947, -0.015911391004920006, 0.05378704145550728, -0.04846620932221413, -0.006438818760216236, -0.14847907423973083, 0.15720732510089874, 0.18291433155536652, -0.18742035329341888, -0.04449928179383278, -0.13185617327690125, -0.06285662204027176, 0.14111292362213135, 0.09041399508714676, -0.0014955615624785423, 0.07470964640378952, 0.12263627350330353, 0.08374232798814774, -0.11074895411729813, 0.0547584593296051, -0.2741614878177643, -0.0835002139210701, -0.0688188448548317, -0.007284402847290039, -0.17643611133098602, 0.05618167668581009, -0.04179500415921211], [0.039982568472623825, 0.04339273273944855, 0.00319724902510643, 0.07929296791553497, -0.07237913459539413, -0.251410573720932, -0.14335764944553375, -0.058627210557460785, -0.0915127694606781, -0.05955510586500168, 0.09258978813886642, 0.09186252951622009, 0.19100141525268555, 0.19798262417316437, -0.034333713352680206, -0.029191259294748306, 0.06635631620883942, -0.15314088761806488, 0.11217382550239563, -0.02624223567545414, -0.11266845464706421, -0.1005336344242096, -0.08961151540279388, 0.07923942059278488, 0.14948150515556335, 0.158616840839386, -0.012125124223530293, -0.07131502032279968, -0.018387502059340477, -0.17592017352581024, -0.010853050276637077, -0.10643178224563599, 0.11947952955961227, -0.11967449635267258, -0.199894979596138, 0.06084955856204033], [-0.07498973608016968, 0.0051951222121715546, 0.11373909562826157, 0.1005624532699585, 0.12254387140274048, -0.09991336613893509, 0.03633260726928711, -0.0828050896525383, -0.05448761209845543, -0.017909420654177666, -0.0026253671385347843, 0.08831877261400223, 0.02874111756682396, 0.015042043291032314, 0.00812449585646391, -0.05583177134394646, 0.0651017352938652, 0.015394268557429314, -0.20391328632831573, 0.009760802611708641, -0.11070813238620758, -0.10167597234249115, 0.039230477064847946, 0.00854094885289669, -0.008528905920684338, -0.07350095361471176, 0.05424356088042259, 0.1309324949979782, 0.011103752069175243, 0.0686245858669281, -0.15994638204574585, 0.08310014009475708, 0.03133034333586693, 0.07661038637161255, 0.08924160152673721, -0.009546270594000816], [0.033189527690410614, 0.17354276776313782, 0.15569671988487244, -0.10627460479736328, 0.128069207072258, 0.09413649886846542, -0.030360348522663116, -0.1286880522966385, 0.0012592111015692353, 0.027169927954673767, 0.11660905927419662, -0.15625545382499695, 0.017117220908403397, 0.09916316717863083, 0.023388095200061798, 0.1396487057209015, 0.03144022822380066, -0.14171509444713593, -0.09147212654352188, -0.06800761818885803, 0.021823043003678322, 0.054714273661375046, -0.023283740505576134, -0.06879335641860962, 0.07916097342967987, -0.19618090987205505, 0.1286804974079132, -0.027973895892500877, 0.1381625384092331, 0.08997736871242523, 0.04464954510331154, 0.06203962117433548, -0.0814739242196083, 0.1025644838809967, 0.10996731370687485, -0.06644192337989807], [0.008409522473812103, 0.048703938722610474, 0.18266212940216064, 0.023598099127411842, 0.08855041861534119, -0.20014257729053497, 0.20057465136051178, 0.07737243175506592, 0.10459206998348236, -0.007889213040471077, 0.10739392042160034, 0.14781278371810913, 0.0023854109458625317, -0.21505148708820343, 0.12145991623401642, -0.06297021359205246, -0.0806986540555954, 0.07067235559225082, 0.07037191092967987, -0.01019891258329153, -0.03578827902674675, -0.013908607885241508, 0.12586437165737152, 0.09233781695365906, 0.07138477265834808, 0.17709463834762573, -0.09638489782810211, 0.03579435124993324, -0.21938863396644592, 0.3078143894672394, -0.17156216502189636, -0.18053750693798065, -0.18470826745033264, 0.18011148273944855, 0.006747166160494089, -0.03255043923854828], [0.07459480315446854, -0.023393817245960236, 0.013627083040773869, 0.007342911325395107, 0.060219235718250275, -0.09282733500003815, 0.01895115152001381, 0.1051890179514885, -0.033293187618255615, 0.06563873589038849, -0.11964844167232513, -0.02436346560716629, 0.05426664277911186, 0.12279890477657318, 0.14957691729068756, 0.05997121334075928, -0.011297378689050674, -0.07183349877595901, 0.027246825397014618, -0.11226101964712143, -0.06931334733963013, -0.08732549846172333, 0.01237375196069479, -0.09594201296567917, -0.06069205328822136, 0.05231465771794319, 0.15756823122501373, -0.04803919419646263, -0.1075919046998024, -0.09597129374742508, 0.0830276757478714, 0.0787234753370285, -0.03939029574394226, -0.07114174216985703, 0.017403649166226387, -0.11159700155258179], [0.1486743986606598, -0.06107715517282486, 0.047861192375421524, -0.02317662164568901, 0.07235206663608551, -0.06986203044652939, 0.1771676391363144, 0.017044873908162117, 0.03890007734298706, -0.0571872778236866, -0.15955498814582825, -0.10144548863172531, -0.04441264644265175, -0.02727590687572956, -0.010148119181394577, 0.18309718370437622, -0.11907834559679031, 0.06954360753297806, 0.15424485504627228, 0.0025146061088889837, -0.09239492565393448, 0.005820270162075758, 0.032904814928770065, 0.08460191637277603, -0.024646127596497536, -0.07118160277605057, -0.08909282088279724, -0.14396348595619202, 0.11255262792110443, -0.2392454892396927, -0.04609880968928337, 0.03132637217640877, 0.13838456571102142, 0.17551027238368988, -0.166703999042511, 0.07153794914484024], [0.15015526115894318, 0.10147406905889511, 