{"format": "mlp-pv-v1", "in_dim": 36, "hidden": 256, "n_actions": 23, "bid_fractions": [0.0, 0.01, 0.02, 0.03, 0.04, 0.05, 0.06, 0.08, 0.1, 0.12, 0.15, 0.18, 0.22, 0.27, 0.32, 0.38, 0.45, 0.52, 0.6, 0.7, 0.8, 0.9, 1.0], "layers": [{"type": "linear", "weight": [[0.12284695357084274, -0.09341281652450562, -0.06810998171567917, 0.01887807436287403, -0.1166028305888176, 0.15032590925693512, -0.06422396749258041, 0.08989720791578293, -0.023111220449209213, -0.006510335952043533, 0.03501506149768829, 0.0045977141708135605, 0.051769714802503586, -0.08607562631368637, -0.0038804542273283005, -0.0323970653116703, 0.018667802214622498, -0.03910066932439804, 0.13592778146266937, 0.026197418570518494, -0.06455221772193909, -0.09648391604423523, -0.04829399660229683, -0.06997880339622498, -0.05850439518690109, 0.051735855638980865, 0.07362741976976395, 0.09625420719385147, -0.18326525390148163, 0.23097147047519684, 0.03618061542510986, 0.15859085321426392, 0.0984557643532753, -0.13872139155864716, -0.15193676948547363, -0.13744093477725983], [0.16565994918346405, -0.01989161968231201, 0.0714016705751419, -0.10120295733213425, 0.1655491143465042, -0.05482547730207443, 0.1344156712293625, -0.004447767045348883, -0.07004503905773163, 0.08397860080003738, -0.08504056930541992, 0.054482247680425644, -0.05309345945715904, -0.03969123959541321, -0.15780749917030334, -0.09191928058862686, 0.09657231718301773, -0.03927437961101532, 0.16839516162872314, 0.1364298313856125, -0.004544942174106836, -0.09688089042901993, 0.11044658720493317, 0.062117159366607666, -0.10645546019077301, 0.14711377024650574, 0.10573630779981613, 0.16270840167999268, -0.08659546822309494, -0.03892601281404495, -0.0007261247956193984, 0.02916759066283703, -0.12218619138002396, -0.12702159583568573, 0.10959572345018387, -0.013730914331972599], [0.0955762267112732, 0.023248426616191864, -0.03626861050724983, 0.07597616314888, -0.022601833567023277, 0.057382214814424515, -0.13918732106685638, 0.06581594049930573, -0.10638918727636337, -0.1120663732290268, 0.011144276708364487, -0.04900464415550232, 0.10196775197982788, -0.1303171068429947, -0.1505988985300064, 0.100168377161026, -0.053219299763441086, 0.11932136863470078, 0.052845168858766556, -0.10950256884098053, 0.008606091141700745, 0.05438348650932312, -0.11797003448009491, -0.07925371080636978, 0.05004242807626724, 0.025680100545287132, -0.08543379604816437, -0.057243701070547104, 0.1405656337738037, -0.1257794350385666, 0.09610819071531296, 0.04776787757873535, -0.11247178912162781, -0.1703883558511734, 0.16251415014266968, 0.0677427351474762], [0.07036447525024414, 0.11555562913417816, -0.008353137411177158, 0.09682748466730118, 0.14083535969257355, -0.11215938627719879, 0.026082491502165794, 0.08603108674287796, 0.12191293388605118, 0.10304470360279083, -0.1342790126800537, -0.12637870013713837, -0.10950013995170593, -0.030010446906089783, 0.15695400536060333, -0.13454289734363556, 0.09655184298753738, -0.10741467773914337, -0.16000650823116302, -0.04402276128530502, 0.09683314710855484, 0.16592156887054443, -0.09735190123319626, 0.04245218262076378, 0.13725590705871582, 0.15855853259563446, 0.1171339899301529, 0.1280553638935089, 0.11728757619857788, -0.02682093158364296, -0.11823247373104095, -0.1436856985092163, -0.076009601354599, 0.003548538312315941, -0.12303055822849274, 0.09324436634778976], [0.024644553661346436, -0.07109883427619934, 0.057891227304935455, 0.07815893739461899, 0.11822178959846497, 0.10868892818689346, -0.03891235962510109, 0.14417195320129395, -0.019711025059223175, 0.034217238426208496, -0.14877013862133026, -0.1069379523396492, -0.08470302075147629, -0.0950033962726593, 0.11964219063520432, -0.056891731917858124, -0.1308174580335617, 0.09068648517131805, 0.04679873585700989, 0.12320056557655334, -0.08311796188354492, 0.04524308443069458, -0.07089708000421524, -0.031229687854647636, -0.1340702623128891, -0.014499442651867867, -0.04617055878043175, 0.08254018425941467, 0.033305030316114426, 0.019625091925263405, 0.15578745305538177, 0.16605894267559052, 0.10886683315038681, 0.035315148532390594, -0.11408615857362747, 0.1854482889175415], [-0.07901697605848312, -0.01681937836110592, -0.14032354950904846, -0.03854075446724892, -0.11246621608734131, 0.120733343064785, -0.11613182723522186, -0.14654920995235443, -0.07064797729253769, -0.11133567243814468, 0.03490452095866203, -0.08136620372533798, -0.10418645292520523, -0.02805253118276596, 0.09444987773895264, -0.15205258131027222, 0.07151428610086441, 0.09257899969816208, 0.13722574710845947, -0.1298254281282425, 0.025731584057211876, -0.1476651430130005, 0.11463381350040436, -0.08554622530937195, 0.08568890392780304, -0.05453354865312576, -0.03475140780210495, -0.034244854003190994, 0.004722453188151121, 0.06870511919260025, 0.008186397142708302, 0.02658054791390896, -0.17428746819496155, 0.12031515687704086, 0.1566387414932251, 0.1680523157119751], [0.06785332411527634, -0.10873603075742722, -0.03906530886888504, 0.1196795254945755, -0.06774760037660599, 0.13111518323421478, -0.0650888979434967, -0.17986749112606049, 0.08242502063512802, -0.042172957211732864, -0.02331751585006714, 0.13533899188041687, 0.16424071788787842, 0.18453748524188995, -0.016012879088521004, -0.09676322340965271, 0.17113101482391357, -0.013558288104832172, -0.05291621387004852, 0.05729799345135689, -0.12097414582967758, 0.12857910990715027, 0.11549326032400131, -0.12363137304782867, -0.1180117055773735, -0.0166323184967041, 0.08360662311315536, 0.008228790014982224, -0.07979367673397064, 0.09800361096858978, -0.1353452056646347, -0.09744255244731903, -0.09532368928194046, 0.1330861747264862, 0.16175316274166107, -0.07207158207893372], [-0.008715455420315266, 0.052347030490636826, -0.0038938787765800953, -0.06100689619779587, 0.08239606767892838, 0.12100911140441895, -0.021088050678372383, -0.010519670322537422, 0.17628559470176697, 0.12183914333581924, -0.09192890673875809, 0.15386992692947388, 0.04949704930186272, -0.13319718837738037, 0.09161582589149475, -0.13551989197731018, 0.13566303253173828, -0.10570104420185089, 0.05050201714038849, 0.046722207218408585, 0.025970490649342537, 0.15324963629245758, -0.07248241454362869, -0.06736631691455841, -0.14903169870376587, -0.005882571451365948, -0.0918237641453743, 0.0030395006760954857, -0.04627854377031326, 0.06330611556768417, 0.13154688477516174, 0.04222824051976204, -0.05888649448752403, -0.09021145105361938, -0.16314171254634857, 0.14658819139003754], [-0.0704677551984787, 0.027700750157237053, 0.012304691597819328, -0.07214454561471939, 0.06249447166919708, 0.1147504448890686, 0.02241247333586216, -0.06131984293460846, -0.06957706809043884, 0.005835570860654116, -0.08182930201292038, -0.08807937800884247, -0.018598536029458046, -0.04421475529670715, 0.050230689346790314, -0.040795911103487015, -0.013039566576480865, -0.054175812751054764, -0.14805038273334503, 0.155830517411232, 0.042403269559144974, 0.1738470196723938, -0.020966269075870514, -0.02266102284193039, -0.1416858285665512, -0.053607042878866196, 0.11790318042039871, -0.1513691395521164, -0.04955311119556427, 0.11308228969573975, 0.10931488871574402, 0.0695079118013382, -0.024512970820069313, 0.032821424305438995, -0.008509124629199505, -0.040938835591077805], [0.07406336814165115, -0.04354492574930191, -0.021786224097013474, 0.046421751379966736, -0.11540007591247559, 0.04804897680878639, 0.13751965761184692, 0.018178816884756088, 0.08264756202697754, -0.11366146057844162, -0.005143254529684782, -0.03732016310095787, -0.08566435426473618, -0.14286823570728302, 0.03532286733388901, 0.007683311123400927, -0.08227458596229553, -0.1429162323474884, -0.13927030563354492, 0.15023460984230042, -0.03093690238893032, -0.03520134091377258, -0.03757470101118088, -0.08342042565345764, -0.1524067521095276, -0.07231646031141281, 0.11032484471797943, 0.04403459280729294, -0.04918510839343071, 0.0009397193789482117, 0.11447958648204803, 0.13837067782878876, 0.16593708097934723, 0.05787281319499016, 0.06720205396413803, -0.02183578349649906], [-0.07083428651094437, -0.14974384009838104, 0.09214397519826889, -0.017932510003447533, 0.043904684484004974, 0.04097755253314972, -0.17279592156410217, -0.07985615730285645, 0.010632026940584183, -0.009189724922180176, -0.15812061727046967, 0.05503222718834877, -0.019738394767045975, -0.007969670929014683, 0.045499809086322784, 0.05016854405403137, -0.04951396957039833, 0.14370737969875336, 0.08183922618627548, 0.017966629937291145, -0.014333928935229778, -0.16372868418693542, 0.1334223747253418, -0.05083092302083969, -0.11883313953876495, 0.11457274109125137, 0.07201237976551056, 0.04159888997673988, -0.02689330093562603, -0.07434670627117157, 0.04365212097764015, 0.13281093537807465, 0.02481820248067379, -0.06928946822881699, 0.20830298960208893, -0.04284219816327095], [0.11965278536081314, 0.043397970497608185, 0.1390456259250641, 0.09883643686771393, -0.05949843302369118, 0.11234629899263382, 0.003399965353310108, -0.16020840406417847, -0.02169010229408741, -0.1374589055776596, -0.08124858140945435, -0.11884024739265442, 0.13109347224235535, -0.03857354819774628, -0.022724613547325134, 0.08867807686328888, 0.06374049186706543, -0.10991237312555313, 0.06535795331001282, 0.06945488601922989, -0.1385098546743393, 0.14884330332279205, -0.09953675419092178, -0.06542208045721054, -0.1424226462841034, 0.18448349833488464, 0.031173130497336388, 0.14806519448757172, -0.0029383550863713026, 0.15329737961292267, -0.058734454214572906, -0.13359077274799347, 0.027860235422849655, -0.013696067035198212, -0.026626095175743103, -0.09621359407901764], [-0.03441309928894043, 0.06681779772043228, 0.02060077339410782, -0.11393184214830399, 0.046127799898386, 0.009796204045414925, 0.037928611040115356, 0.09703151881694794, -0.10887528955936432, 0.14467404782772064, -0.16583386063575745, 0.06719199568033218, -0.008283307775855064, 0.07990545779466629, -0.09154479205608368, 0.08513054251670837, -0.12602882087230682, -0.13615912199020386, 0.04870244488120079, 0.09301823377609253, 0.1503850519657135, -0.022990962490439415, 0.158126100897789, 0.10012035071849823, -0.09324657171964645, -0.14153572916984558, 0.09182561933994293, -0.10111401230096817, 0.06995221972465515, -0.17647869884967804, 0.11200409382581711, 0.03703397139906883, -0.023389868438243866, 0.062401093542575836, -0.1262112259864807, -0.017164573073387146], [-0.06323276460170746, -0.09297912567853928, -0.0711091086268425, -0.04746696352958679, 0.15575599670410156, 0.1821957528591156, 0.21397489309310913, 0.07094388455152512, -0.13092783093452454, 0.03116585873067379, 0.04918791726231575, -0.12549267709255219, 0.07967715710401535, -0.13950231671333313, 0.022447343915700912, 0.029731296002864838, 0.12075814604759216, -0.0848751813173294, -0.1349356323480606, 0.15229453146457672, 0.06083216890692711, 0.08839821070432663, 0.04881447181105614, -0.0570707730948925, 0.10252408683300018, -0.1827096790075302, 0.0013948263367637992, 0.062292538583278656, 0.10202300548553467, -0.104002445936203, -0.11408346891403198, 0.047469962388277054, -0.1408335268497467, -0.1405779868364334, -0.18565970659255981, -0.05049586296081543], [-0.04620138183236122, -0.10473978519439697, -0.006641176529228687, -0.06518055498600006, 0.09194149076938629, 0.041420966386795044, -0.060887984931468964, 0.030312396585941315, -0.10617274791002274, 0.09915942698717117, 0.0965859442949295, -0.1365940272808075, -0.13354627788066864, -0.068803571164608, -0.0799831971526146, 0.03913770988583565, -0.1288047581911087, -0.12286181002855301, 0.08100638538599014, -0.04877086728811264, -0.02759135328233242, -0.153641015291214, 0.07109367847442627, 0.00975899025797844, -0.03025704436004162, -0.15326014161109924, 0.03272959962487221, 0.03620879724621773, 0.09138072282075882, 0.06876274943351746, -0.013806838542222977, -0.10955969244241714, 0.11158256977796555, 0.07420282810926437, -0.06778806447982788, 0.13586382567882538], [0.06989656388759613, -0.11968298256397247, -0.09038974344730377, -0.08601557463407516, -0.04392063990235329, 0.0653449147939682, -0.08387576043605804, 0.16874036192893982, 0.056024517863988876, 0.0607612282037735, 0.02482375130057335, -0.06553713232278824, 0.12149706482887268, -0.11175582557916641, -0.06210276857018471, 0.0313924103975296, 0.1481948345899582, -0.058930061757564545, -0.08912278711795807, -0.0919085443019867, -0.06695319712162018, -0.0349554643034935, -0.02398175373673439, -0.08014506846666336, 0.06782709807157516, 0.015487509779632092, -0.08537629246711731, -0.08077581226825714, 0.04772578552365303, 0.05312391743063927, 0.11886154115200043, -0.008563674055039883, -0.11990751326084137, -0.11921291053295135, -0.016746630892157555, -0.018214667215943336], [-0.019311092793941498, -0.09110139310359955, 0.06690768152475357, -0.05609489232301712, 0.0849151462316513, 0.018317708745598793, -0.04398280382156372, 0.0963631197810173, 0.02314697578549385, -0.09457705169916153, -0.11318979412317276, 0.056297820061445236, 0.054418500512838364, 0.13281133770942688, -0.03547943755984306, 0.09344475716352463, 0.0298902727663517, 0.027550477534532547, -0.0677463486790657, 0.1311250776052475, -0.030565351247787476, -0.06362412124872208, -0.030903752893209457, 0.12901565432548523, 0.06205056607723236, 0.012410763651132584, 0.13322538137435913, 0.05357245355844498, -0.15495799481868744, -0.09843746572732925, 0.04694915935397148, 0.1102052852511406, -0.129586324095726, 0.04561581090092659, -0.013120506890118122, -0.07364469766616821], [-0.11608574539422989, 0.0297855157405138, 0.035535626113414764, 0.13022325932979584, 0.0699038952589035, 0.07792119681835175, 0.18321405351161957, 0.03981081768870354, 0.009654245339334011, -0.060511332005262375, 0.11758332699537277, 0.01464280765503645, 0.10686489194631577, 0.18249399960041046, -0.040027227252721786, 0.12607893347740173, -0.03551725298166275, 0.13910196721553802, 0.12222837656736374, -0.06884322315454483, -0.00023539211542811245, -0.082645945250988, -0.07657232135534286, -0.04315020889043808, -0.005963652394711971, -0.0785655826330185, -0.16181184351444244, -0.11232918500900269, -0.029648425057530403, -0.03206723555922508, 0.1096888929605484, 0.126182422041893, 0.09789587557315826, 0.08352360874414444, -0.14280366897583008, 0.12188751250505447], [-0.15071281790733337, -0.026755817234516144, -0.10049252212047577, 0.04974179342389107, -0.11337891966104507, -0.06931672245264053, -0.09565204381942749, -0.09055313467979431, -0.0688796192407608, 0.18486332893371582, -0.00018073199316859245, 0.0672873854637146, -0.14562717080116272, 0.17110204696655273, -0.02490934729576111, -0.1277962327003479, 0.13565942645072937, -0.03453611209988594, 0.16741028428077698, -0.09865914285182953, -0.13324958086013794, -0.12769360840320587, 0.09356408566236496, -0.009757266379892826, -0.1439187228679657, 0.058336950838565826, 0.01138167455792427, 0.07681296020746231, -0.06303305178880692, -0.0993778333067894, 0.12404600530862808, -0.0559123158454895, 0.13362564146518707, 0.15826494991779327, -0.11245056241750717, -0.08297021687030792], [0.035013098269701004, -0.11267461627721786, 0.05049637332558632, -0.09687065333127975, -0.058608923107385635, -0.1656797081232071, 0.062030892819166183, -0.1312938928604126, -0.1466245800256729, -0.036625366657972336, -0.11112996935844421, -0.169189453125, 0.07534973323345184, -0.08957435190677643, 0.11851977556943893, 0.10500965267419815, -0.12519347667694092, -0.11090490221977234, -0.07145655155181885, 0.08161532133817673, -0.02085725963115692, -0.06346418708562851, 0.09201231598854065, 0.1479414999485016, 0.10917095094919205, -0.14399616420269012, -0.043357640504837036, -0.048414941877126694, 0.12695465981960297, -0.1009373664855957, -0.10870012640953064, -0.011643407866358757, -0.047568704932928085, 0.049225933849811554, -0.022801505401730537, -0.1157321184873581], [0.1181500181555748, 0.10839368402957916, 0.02667798101902008, -0.16524991393089294, 0.13134928047657013, 0.07766036689281464, 0.06098327785730362, -0.1012558862566948, 0.02214711159467697, -0.05272829160094261, 0.13993540406227112, 0.15288925170898438, -0.03352847695350647, -0.18316251039505005, 0.0868888646364212, 0.035058967769145966, 0.07697194069623947, -0.1512928605079651, 0.04564240202307701, -0.09145565330982208, -0.15463565289974213, -0.07216038554906845, 0.05155447870492935, 0.07237948477268219, -0.15948356688022614, 0.26311826705932617, 0.0691164880990982, 0.14110887050628662, 0.08234625309705734, 0.009961731731891632, 0.07980770617723465, 0.1268996298313141, 0.06068478524684906, -0.12422046810388565, -0.06080252677202225, 0.2378297746181488], [0.12315697222948074, 0.09476110339164734, -0.06778116524219513, -0.00028383638709783554, -0.07051227986812592, -0.03951941058039665, 0.12440135329961777, -0.08684206753969193, -0.04383295401930809, 0.048587583005428314, -0.08674585819244385, 0.055058207362890244, -0.005772541277110577, 0.09028279781341553, -0.11256970465183258, 0.0481090322136879, -0.1460365355014801, 0.10232513397932053, 0.18128857016563416, -0.057834818959236145, 0.0356268584728241, -0.08092813938856125, -0.08356015384197235, -0.07870985567569733, -0.06276298314332962, 0.06734929978847504, -0.0028554368764162064, 0.034397486597299576, -0.10997910052537918, -0.057143040001392365, -0.1189628392457962, -0.09690217673778534, 0.1598760336637497, 0.07644344121217728, -0.15279921889305115, -0.07483291625976562], [-0.04301980510354042, 0.07081957161426544, 0.17278270423412323, 0.004081107210367918, 0.1258399784564972, -0.057548489421606064, 0.03493589907884598, -0.11127878725528717, 0.01786385104060173, 0.09520038962364197, 0.08963056653738022, 0.13932877779006958, -0.08692844212055206, -0.030108898878097534, 0.012089879252016544, 0.12292706221342087, -0.17699788510799408, -0.1105281189084053, 0.003269662382081151, -0.12312453985214233, 0.033860355615615845, -0.02416464500129223, -0.06203750520944595, 0.0653543621301651, 0.10865383595228195, 0.10226703435182571, 0.06332147866487503, -0.028175687417387962, 0.09890590608119965, 0.18313902616500854, -0.09036486595869064, 0.05218464136123657, 0.002919632475823164, -0.09624511748552322, -0.07749824970960617, -0.09529890865087509], [-0.10265698283910751, -0.024827659130096436, 0.0703728124499321, 0.12491942197084427, -0.009968945756554604, -0.025179315358400345, 0.12328631430864334, 0.047528624534606934, 0.16673865914344788, 0.06359291076660156, 0.04111107438802719, 0.15376852452754974, 0.10284365713596344, 0.14417138695716858, -0.06746223568916321, 0.05269884318113327, 0.08013923466205597, -0.059357110410928726, -0.05943144112825394, 0.03455575183033943, -0.01149766519665718, 0.17978838086128235, -0.09986543655395508, 0.005190858151763678, -0.10662828385829926, 0.05875604599714279, -0.03928050771355629, 0.08966518193483353, -0.103721022605896, -0.17967674136161804, -0.06706266105175018, -0.11870142817497253, 0.15708760917186737, -0.0032359298784285784, -0.003240063553676009, 0.0769270583987236], [-0.03131277114152908, 0.1316695660352707, -0.025338586419820786, -0.20608437061309814, 0.05213078483939171, 0.039861105382442474, -0.16332533955574036, 0.02501964196562767, 0.04173869267106056, 0.023046856746077538, 0.00017995272355619818, -0.04961474612355232, -0.1341831237077713, 0.00010760037548607215, -0.11074883490800858, -0.149124875664711, -0.04156862571835518, -0.10043537616729736, 0.05274636670947075, 0.13115255534648895, 0.14179514348506927, -0.10160402208566666, 0.09170868247747421, 0.12495545297861099, -0.00420672120526433, 0.11116170138120651, 0.09524619579315186, 0.13887661695480347, 0.10316179692745209, 0.03274975344538689, -0.05069878324866295, -0.08839258551597595, -0.07533951848745346, 0.13453760743141174, -0.043790627270936966, 0.047895438969135284], [-0.1482202559709549, -0.061580076813697815, -0.06653868407011032, -0.056189559400081635, 0.19372272491455078, -0.1584271490573883, -0.036701951175928116, -0.05987253785133362, -0.15215268731117249, 0.12925322353839874, -0.08559933304786682, 0.08638391643762589, 0.08176859468221664, 0.16220137476921082, 0.05492369830608368, 0.12768834829330444, 0.17831939458847046, 0.01477656327188015, -0.052306097000837326, -0.05179031565785408, 0.027000337839126587, 0.04441293329000473, -0.14634980261325836, 0.10822756588459015, 0.030148282647132874, -0.21686133742332458, 0.06775667518377304, 0.08200107514858246, 0.08744052797555923, 0.021880628541111946, 0.01959274895489216, -0.14630766212940216, 0.007663038093596697, 0.1485356241464615, -0.06312739104032516, 0.03169841319322586], [0.12097715586423874, -0.011328080669045448, -0.008849265985190868, -0.012151863425970078, -0.13719519972801208, 0.09744599461555481, 0.036262355744838715, 0.07372191548347473, 0.05471367761492729, 0.044913750141859055, -0.14698879420757294, -0.0073326462879776955, -0.07715015113353729, 0.04126736894249916, 0.13664212822914124, -0.12054774165153503, -0.026808638125658035, 0.15040571987628937, -0.1490374207496643, -0.043614711612463, 0.1530088186264038, 0.1166740357875824, 0.04266233369708061, -0.07435448467731476, -0.03209434822201729, -0.13607876002788544, -0.14295051991939545, -0.15919750928878784, 0.17344926297664642, 0.032297443598508835, 0.05769358575344086, -0.049938809126615524, 0.13899581134319305, -0.11331523954868317, 0.08133378624916077, 0.012920469976961613], [-0.049350664019584656, -0.056975554674863815, 0.05584590509533882, -0.13071505725383759, 0.07084087282419205, -0.06703545898199081, 0.029095031321048737, 0.12769044935703278, -0.028483260422945023, 0.0009801426203921437, 0.03269267454743385, 0.13172204792499542, -0.0858163833618164, 0.0006959897582419217, -0.0599193312227726, 0.1719089299440384, -0.14967983961105347, -0.09510017186403275, 0.013036094605922699, 0.14688244462013245, 0.12800927460193634, -0.18773162364959717, -0.11283461004495621, 0.1547115594148636, 0.04335203394293785, -0.2027982622385025, -0.04397514462471008, 0.075371153652668, -0.01991143636405468, -0.12886016070842743, -0.07572102546691895, -0.071048803627491, 0.00019262987188994884, 0.028743650764226913, 0.09627927839756012, -0.1387782245874405], [-0.0639578327536583, -0.13038066029548645, 0.13550375401973724, 0.1692824512720108, 0.21885041892528534, 0.06191597133874893, 0.01566963642835617, -0.0016227465821430087, 0.103123240172863, -0.13038882613182068, 0.043160516768693924, -0.11215859651565552, -0.138368621468544, -0.016686350107192993, -0.02742878347635269, -0.09154655784368515, 0.06576710194349289, 0.03262101486325264, 0.05340919643640518, -0.06020348519086838, -0.1431218385696411, 0.046641770750284195, -0.0372200608253479, -0.022849973291158676, 0.16182264685630798, 0.07524245977401733, 0.0890350267291069, -0.004702108446508646, -0.11172064393758774, 0.16429512202739716, -0.0842941403388977, 0.056146714836359024, -0.10465875267982483, 0.15093931555747986, -0.11610515415668488, 0.2065267115831375], [0.08578655123710632, 0.03367933630943298, -0.01622944138944149, 0.11593051999807358, 0.11265968531370163, 0.05039181560277939, -0.016570230945944786, -0.0693599209189415, 0.1719132512807846, 0.029209773987531662, 0.11797028034925461, 0.002688672859221697, 0.06389228254556656, -0.08236050605773926, -0.09012626856565475, 0.14654342830181122, 0.08589360117912292, 0.12038692831993103, -0.1277245432138443, 0.043703336268663406, -0.13788418471813202, 0.011172589845955372, 0.022941885516047478, -0.09279754012823105, -0.15625759959220886, 0.03998105600476265, 0.17719270288944244, 0.17087234556674957, -0.10369066148996353, 0.06122415140271187, -0.10518957674503326, -0.11822239309549332, -0.011027532629668713, 0.1954086869955063, 0.023846358060836792, 0.056177347898483276], [0.2009633332490921, 0.0770302340388298, 0.15625615417957306, 0.15178723633289337, 0.09927916526794434, 0.02394801378250122, -0.14401455223560333, -0.10361528396606445, -0.07567831128835678, 0.11610586196184158, 0.11092248558998108, 0.07043039053678513, -0.13053211569786072, -0.10768914967775345, 0.1586303859949112, -0.00015920594159979373, -0.15134868025779724, 0.003386862576007843, -0.01871277578175068, 0.02405341900885105, 0.09286580979824066, 0.07775963842868805, -0.10167054831981659, 0.014157097786664963, -0.04649869352579117, 0.07590946555137634, 0.0948084145784378, 0.10261188447475433, 0.17600344121456146, 0.05954241380095482, -0.13540537655353546, 0.061302803456783295, -0.0909619852900505, 0.00845316331833601, 0.04401319473981857, 0.18643295764923096], [-0.14359021186828613, -0.16121111810207367, -0.041285622864961624, 0.06919723749160767, 0.12883055210113525, 0.11583579331636429, 0.08182277530431747, 0.027539152652025223, -0.05064783990383148, 0.0031211464665830135, -0.08912079781293869, 0.03244370222091675, -0.11772504448890686, 0.09894095361232758, 0.10979138314723969, 0.16880780458450317, -0.15312527120113373, 0.1329633742570877, -0.11175043135881424, -0.014890529215335846, 0.14727076888084412, 0.10618565231561661, -0.045255377888679504, 0.10406695306301117, -0.16627922654151917, 0.15422417223453522, 0.15785028040409088, -0.00018481492588762194, 0.05505480244755745, -0.140533447265625, -0.10087037086486816, -0.07544483989477158, -0.009880751371383667, -0.11421950161457062, -0.14817509055137634, -0.022243138402700424], [-0.11855960637331009, -0.07780448347330093, 0.013513816520571709, -0.05135783180594444, 0.1499023288488388, -0.10356269031763077, -0.08406393229961395, 0.021102426573634148, -0.11955070495605469, 0.06973117589950562, 0.1610449254512787, -0.08637320250272751, -0.03067769855260849, 0.17366285622119904, -0.11261399835348129, 0.06941349059343338, -0.12453562766313553, -0.13859157264232635, 0.004510669969022274, -0.08409850299358368, 0.10154039412736893, -0.04157734289765358, 0.002419950207695365, -0.07549772411584854, 0.08226330578327179, 0.15333327651023865, -0.008322750218212605, -0.09325619041919708, -0.16706663370132446, 0.20398522913455963, 0.07841121405363083, 0.07922537624835968, 0.0359598845243454, 0.09678741544485092, 0.058225080370903015, 0.07040835916996002], [0.11081374436616898, 0.018998434767127037, 0.11842535436153412, 0.08531087636947632, -0.02261774055659771, -0.04201953485608101, 0.09110940992832184, 0.059828512370586395, 0.07093986123800278, -0.06853561103343964, -0.05322641879320145, 0.052820246666669846, 0.03452900052070618, 0.17059451341629028, 0.06053934618830681, 0.03998288884758949, 0.02271198108792305, -0.17768602073192596, -0.08336465805768967, -0.004680131562054157, -0.12274127453565598, -0.1796122044324875, 0.0858047679066658, 0.033344052731990814, -0.15554942190647125, 0.011268523521721363, 0.0776890441775322, 0.07936905324459076, 0.12885290384292603, -0.07889322936534882, 0.05590664595365524, -0.1579955518245697, -0.0429421029984951, -0.10497094690799713, -0.0425560288131237, 0.05946449190378189], [0.05778171494603157, -0.11692770570516586, -0.08015093207359314, -0.005867691710591316, -0.0030267140828073025, -0.10642588883638382, 0.1237579956650734, 0.07201444357633591, 0.06323882937431335, -0.08383691310882568, 0.09869394451379776, -0.07016097754240036, -0.05204057693481445, -0.09587421268224716, -0.04575483500957489, -0.09766307473182678, 0.0004611607873812318, -0.1401386857032776, 0.050315286964178085, -0.17263807356357574, -0.08831384778022766, -0.12871132791042328, 0.08136816322803497, 0.0887690857052803, -0.15768544375896454, -0.08544743806123734, 0.10566394031047821, 0.02770695649087429, 0.08296915888786316, -0.06739479303359985, 0.05481284484267235, 0.08666181564331055, -0.06817696988582611, -0.01524391770362854, 0.0903211459517479, 0.0012689817231148481], [-0.002832733793184161, -0.03601020202040672, -0.08750410377979279, -0.10091785341501236, 0.28618064522743225, 0.01747267134487629, 0.15000154078006744, 0.06341873854398727, -0.0875995084643364, 0.020758993923664093, -0.06400836259126663, -0.025299109518527985, 0.10844005644321442, 0.06895124167203903, -0.11339603364467621, -0.0922953262925148, -0.14257243275642395, -0.15663951635360718, 0.08587876707315445, -0.12213356047868729, -0.030641186982393265, -0.01304589956998825, -0.002621999941766262, -0.03489721938967705, 0.06689900159835815, -0.022556237876415253, 0.09150046855211258, 0.00058363052085042, -0.037325747311115265, 0.07558909803628922, 0.0730208083987236, -0.000781090697273612, 0.08860407769680023, -0.020701037719845772, -0.03959934040904045, 0.10832026600837708], [-0.15659821033477783, 0.02859555184841156, 0.13507504761219025, -0.10598371177911758, 0.017693430185317993, 0.027323130518198013, 0.08257196843624115, 0.06438750773668289, 0.06810356676578522, 0.048669565469026566, -0.0518965981900692, 0.10196074843406677, -0.026100194081664085, 0.11669255793094635, -0.03648382052779198, -0.12269701808691025, 0.044737640768289566, 0.090262271463871, 0.01183084212243557, 0.012254880741238594, 0.04285081848502159, 0.09936297684907913, 0.026755232363939285, -0.12261727452278137, -0.10232841223478317, 0.04764002561569214, -0.0013633924536406994, 0.18688607215881348, -0.036198168992996216, 0.21313448250293732, -0.12003415822982788, -0.13121439516544342, 8.119575795717537e-05, -0.051088787615299225, -0.02049814537167549, 0.02111044153571129], [-0.1374375820159912, 0.11871805787086487, -0.11767912656068802, 0.1583649218082428, 0.05976284667849541, -0.03176582232117653, -0.14328902959823608, -0.008156310766935349, -0.08707345277070999, 0.07207930088043213, -0.15926535427570343, -0.04742337763309479, -0.1094156950712204, -0.16116133332252502, -0.10081041604280472, -0.05214793607592583, 0.012481768615543842, 0.009622839279472828, 0.07154595851898193, -0.08154746145009995, -0.10040881484746933, -0.051260147243738174, 0.1466594636440277, -0.027506230399012566, -0.14947907626628876, 0.1562427282333374, 0.028029005974531174, 0.029311317950487137, 0.02043127827346325, 0.12808091938495636, -0.08394172042608261, 0.11666648834943771, 0.14847725629806519, -0.07766425609588623, 0.10415773093700409, 0.11874675750732422], [0.14008913934230804, -0.051432568579912186, -0.06349848210811615, -0.03715785592794418, -0.10902109742164612, -0.03462022915482521, 0.14017345011234283, 0.18391861021518707, 0.14283347129821777, 0.06445509195327759, 0.018031004816293716, 0.1203889325261116, 0.1356503963470459, -0.010121690109372139, -0.01995883323252201, 0.08481764048337936, -0.015607076697051525, -0.09667325764894485, -0.07143580913543701, 0.14847420156002045, 0.13568052649497986, -0.04183604195713997, -0.03288008272647858, -0.07039548456668854, -0.04647223278880119, 0.165098175406456, -0.1393725872039795, 0.08746103942394257, -0.1400488317012787, -0.0035580589901655912, -0.039054978638887405, 0.025865158066153526, -0.01997769996523857, -0.07499847561120987, -0.08552076667547226, -0.09110910445451736], [-0.1654094159603119, -0.0846671313047409, 0.11582924425601959, 0.032677795737981796, -0.10006281733512878, 0.07239360362291336, -0.0788731500506401, -0.031689681112766266, -0.1257610321044922, -0.17003564536571503, -0.14148931205272675, -0.10375994443893433, -0.018264150246977806, 0.04949145019054413, 0.05407993122935295, -0.1664513647556305, 0.04736059159040451, -0.1079663559794426, 0.007709792349487543, 0.0376540906727314, 0.011373735032975674, 0.03759881481528282, -0.03864310309290886, 0.0902339369058609, 0.013865848071873188, 0.141185462474823, -0.006141694262623787, -0.10570718348026276, 0.07846678048372269, 0.050020042806863785, 0.13058266043663025, -0.038891151547431946, 0.12855984270572662, -0.08284429460763931, 0.045624397695064545, -0.11154859513044357], [0.09221158176660538, 0.020296208560466766, 0.09256903827190399, -0.11206834763288498, -0.1615523099899292, 0.053154006600379944, -0.07839449495077133, 0.02372664213180542, -0.08590628206729889, -0.01041914988309145, 0.0020673363469541073, 0.0922703966498375, 0.09181699901819229, -0.016446420922875404, -0.03450866788625717, -0.012354621663689613, 0.04953518882393837, -0.13829827308654785, -0.04636797308921814, -0.16627109050750732, 0.025685131549835205, -0.0036600057501345873, 0.09896229207515717, 0.14448058605194092, -0.16440467536449432, 0.002200388116762042, -0.04298010841012001, 0.01778082735836506, -0.058609869331121445, -0.0912247896194458, -0.0623352974653244, -0.01886614039540291, 0.13585619628429413, -0.07356156408786774, 0.12316590547561646, -0.12526707351207733], [0.01064893789589405, -0.15098974108695984, -0.13942815363407135, 0.041118819266557693, -0.05125560611486435, 0.1420115828514099, 0.12005136907100677, -0.14926017820835114, -0.008468548767268658, -0.03443542495369911, -0.09070130437612534, -0.105333112180233, -0.0676497370004654, 0.11573474109172821, 0.04577726498246193, 0.12752732634544373, 0.007978277280926704, 0.092640720307827, 0.03902691975235939, -0.026871802285313606, -0.00360719277523458, -0.16616322100162506, 0.007136861328035593, -0.0600503645837307, -0.045325689017772675, -0.10974108427762985, -0.0156706515699625, -0.13013820350170135, 0.028022898361086845, -0.057519759982824326, -0.030439559370279312, 0.1507808119058609, 0.12335559725761414, 0.06032238155603409, -0.03399552404880524, -0.005368884652853012], [-0.10509686172008514, 0.11277246475219727, 0.1420864462852478, -0.028864869847893715, 0.11765289306640625, 0.14985717833042145, 0.0045891329646110535, -0.09948565810918808, 0.029200604185461998, 0.038690924644470215, -0.15420129895210266, -0.015066850930452347, -0.049921441823244095, 0.13027122616767883, 0.0022372084204107523, 0.12329805642366409, 0.14283239841461182, -0.055067550390958786, 0.032668959349393845, -0.018481088802218437, -0.08277120441198349, -0.10061979293823242, 0.010860554873943329, 0.04043582081794739, -0.03650197386741638, 0.04248005151748657, 0.11306425929069519, 0.06674380600452423, 0.06802109628915787, 0.06850963085889816, -0.12622733414173126, -0.10133780539035797, -0.11924206465482712, 0.11475887149572372, -0.16444584727287292, -0.16500550508499146], [0.1348639577627182, 0.09352552890777588, -0.09014803916215897, 0.08268298208713531, 0.01900669001042843, 0.028865935280919075, -0.14568133652210236, -0.08904418349266052, -0.013731072656810284, 0.15583772957324982, 0.04048343375325203, -0.06965317577123642, -0.11548542976379395, -0.03124872036278248, 0.013986201956868172, 0.08098895102739334, -0.15969599783420563, -0.04466728866100311, -0.021499427035450935, -0.0884360522031784, 0.16205675899982452, -0.10541629791259766, -0.17339877784252167, -0.10992332547903061, 0.009187374264001846, -0.2026567906141281, 0.05059773847460747, 0.1470489650964737, 0.03559574857354164, -0.24582679569721222, 0.15311194956302643, 0.11899152398109436, 0.09747879207134247, 0.029907647520303726, 0.009719408117234707, -0.1386777013540268], [-0.03871244937181473, 0.11429645866155624, -0.011476550251245499, -0.08082251995801926, 0.041986096650362015, 0.1718275398015976, 0.037030477076768875, 0.017763804644346237, -0.014288765378296375, -0.0010649560717865825, -0.10706160962581635, -0.06354577839374542, 0.1096978411078453, -0.050013698637485504, 0.125384122133255, -0.16219860315322876, -0.06278222799301147, -0.016642963513731956, -0.13618029654026031, 0.10130994766950607, 0.07675357162952423, -0.10996302217245102, 0.11477899551391602, 0.11961577832698822, -0.12936560809612274, -0.07102072238922119, 0.11976427584886551, -0.1511828601360321, -0.049136463552713394, -0.15758682787418365, 0.0898233950138092, 0.000647686654701829, 0.03273928537964821, 0.12086421251296997, -0.07520289719104767, -0.1396932601928711], [0.0003528406086843461, -0.00016307196347042918, 0.042852889746427536, 0.09083165228366852, -0.03963814303278923, -0.04856684431433678, 0.10925308614969254, 0.055571362376213074, 0.056598763912916183, 0.028891855850815773, 0.08730113506317139, -0.11278140544891357, 0.016133304685354233, 0.038351189345121384, -0.16751539707183838, 0.0529986172914505, 0.007752016186714172, 0.13224494457244873, -0.15008340775966644, 0.16041937470436096, -0.08066455274820328, 0.08827224373817444, 0.12743590772151947, -0.025640912353992462, -0.07596247643232346, -0.04134419187903404, -0.10271982103586197, 0.024894822388887405, 0.062131498008966446, 0.047668468207120895, -0.09722592681646347, 0.09296724945306778, 0.15419957041740417, -0.06316222250461578, 0.11388641595840454, -0.045788660645484924], [0.005699614062905312, -0.1048586294054985, -0.13090652227401733, 0.05994067341089249, -0.1402491331100464, 0.10015296936035156, 0.1623668074607849, -0.011487036012113094, 0.014394844882190228, 0.00579422153532505, -0.06906481832265854, 0.006314314901828766, 0.07160148024559021, 0.12504011392593384, -0.12860140204429626, 0.013501777313649654, -0.11722518503665924, -0.009122712537646294, 0.006103179883211851, -0.06089552119374275, 0.11134859174489975, 0.11327866464853287, -0.06308760493993759, -0.021245596930384636, -0.03640105575323105, 0.00459907716140151, 0.05404474586248398, 0.15973976254463196, -0.1672411561012268, 0.16566167771816254, -0.08774254471063614, -0.1279945820569992, 0.13509325683116913, -0.0621531680226326, -0.0986277237534523, 0.0428759902715683], [-0.008652321062982082, -0.1756558120250702, -0.08684633672237396, -0.07176923006772995, -0.037510015070438385, -0.04922022670507431, -0.18313252925872803, 0.011962381191551685, -0.16924172639846802, -0.0776139348745346, 0.11126814782619476, -0.05770977586507797, -0.13124409317970276, 0.11566328257322311, 0.11672889441251755, -0.013524594716727734, -0.015429242514073849, 0.03214874491095543, 0.005602339282631874, -0.0016646580770611763, 0.0886974111199379, 0.033660147339105606, -0.13010045886039734, -0.08787836134433746, 0.11431290209293365, -0.06070486828684807, 0.033479414880275726, 0.12858140468597412, 0.09662137925624847, 0.024315927177667618, 0.1510121375322342, -0.15905901789665222, 0.011942814104259014, 0.018892675638198853, -0.042183514684438705, -0.1560877412557602], [0.02660324238240719, -0.12384358793497086, -0.056959368288517, 0.13616791367530823, -0.05690682679414749, -0.04030242934823036, 0.07080823928117752, -0.023911723867058754, 0.013243524357676506, -0.15070635080337524, 0.09392964094877243, -0.14348378777503967, 0.03292587026953697, -0.1868162751197815, -0.1410854309797287, 0.13185256719589233, -0.06438641250133514, -0.0010110776638612151, 0.006849341560155153, 0.1626015603542328, 0.05923321098089218, 0.0739886462688446, -0.06957816332578659, -0.059991709887981415, 0.1296514868736267, 0.06249463930726051, 0.04976310953497887, -0.12022211402654648, -0.13549479842185974, 0.08038391917943954, -0.1170366108417511, 0.1199679970741272, 0.14262576401233673, -0.042158059775829315, -0.1173328310251236, 0.18188327550888062], [-0.09894639253616333, -0.11968982219696045, -0.1296803504228592, -0.0010296881664544344, 0.023952046409249306, 0.08734627813100815, 0.12135214358568192, 0.07573801279067993, 0.022489605471491814, 0.13821928203105927, -0.0742940604686737, -0.040381141006946564, 0.1378432959318161, -0.07513411343097687, 0.08241485059261322, 0.02201736532151699, 0.05119922757148743, -0.042329736053943634, -0.15008127689361572, 0.11471337825059891, 0.12373097985982895, -0.13765127956867218, -0.08603700250387192, -0.001476018805988133, 0.06878063082695007, -0.010129469446837902, -0.07864100486040115, 0.12737174332141876, -0.0955580398440361, 0.14781251549720764, -0.006887088064104319, 0.07649976760149002, 0.03155209869146347, 0.04322307929396629, 0.1107148751616478, -0.0010379779851064086], [0.05150693655014038, 0.0754549503326416, -0.0845123678445816, 0.06301338225603104, -0.15529516339302063, 0.09093622863292694, -0.02992265298962593, 0.05427347496151924, -0.017087148502469063, -0.057094424962997437, -0.06554313004016876, 0.06166059523820877, 0.0735698938369751, -0.20192259550094604, 0.1253798007965088, -0.1627860814332962, -0.08019167184829712, 0.033140622079372406, 0.13890041410923004, 0.029538851231336594, -0.10099536180496216, 0.018853535875678062, -0.1205158680677414, 0.06903056800365448, -0.0021084093023091555, 0.026071764528751373, -0.14605280756950378, 0.0844993069767952, 0.12971825897693634, -0.07460112869739532, 0.04920724779367447, -0.08880008012056351, -0.06121139973402023, 0.18201708793640137, -0.16613580286502838, -0.04646475985646248], [0.1439492255449295, 0.10483629256486893, -0.016552366316318512, -0.050710566341876984, -0.047120414674282074, -0.17332154512405396, -0.05454307794570923, -0.14165809750556946, -0.023603003472089767, 0.1781170815229416, -0.14158782362937927, -0.07266180962324142, -0.14692600071430206, 0.15581589937210083, 0.13682979345321655, -0.08822841942310333, 0.11093071848154068, 0.10815726220607758, -0.14660760760307312, 0.05939972773194313, 0.10295039415359497, -0.050804704427719116, 0.10386911779642105, -0.00951363705098629, -0.03354804962873459, 0.1048942357301712, -0.13320061564445496, -0.1644907295703888, 0.04869799315929413, -0.03632921725511551, 0.02310835011303425, -0.09456080198287964, 0.13704080879688263, -0.10982059687376022, -0.04874949902296066, -0.1637481302022934], [-0.17258501052856445, 0.034971754997968674, -0.03762507811188698, 0.10388217866420746, 0.17213833332061768, 0.07475077360868454, 0.14287741482257843, -0.012772238813340664, 0.13778264820575714, 0.09626226127147675, -0.030741721391677856, 0.003545878455042839, -0.08619629591703415, 0.09629743546247482, -0.13390761613845825, -0.06623495370149612, -0.11583752930164337, 0.004954023286700249, 0.03340902924537659, -0.10236155986785889, -0.02518342435359955, 0.11992546916007996, 0.022387675940990448, 0.06270134449005127, -0.04476941376924515, -0.01860751584172249, -0.11544247716665268, 0.18620821833610535, 0.06201326474547386, 0.08408414572477341, 0.11277395486831665, 0.18104812502861023, -0.09437689185142517, 0.09322294592857361, -0.08841250836849213, 0.08018211275339127], [-0.09507545828819275, 0.06739692389965057, -0.07824448496103287, 0.06616001576185226, 0.1273382008075714, 0.1369961053133011, 0.025899216532707214, 0.11003396660089493, -0.0681556686758995, -0.11248674988746643, 0.15319254994392395, 0.05047742277383804, -0.04660017043352127, 0.021655574440956116, 0.06969280540943146, -0.012992266565561295, -0.12743136286735535, 0.011613122187554836, -0.09462586045265198, 0.10558396577835083, -0.07183871418237686, -0.031893450766801834, -0.12124030292034149, 0.0038611884228885174, -0.023371675983071327, 0.12419671565294266, -0.015394128859043121, 0.13849015533924103, 0.17497210204601288, 0.04665962979197502, -0.029763951897621155, -0.11167734116315842, -0.08398239314556122, -0.031899888068437576, -0.047877490520477295, 0.06747020781040192], [-0.09108736366033554, 0.03927868232131004, -0.04601215198636055, -0.1135391965508461, 0.14003236591815948, -0.0878320187330246, -0.15449240803718567, 0.015502499416470528, -0.09253320097923279, -0.05694595351815224, -0.122036874294281, -0.05172384902834892, -0.04426630213856697, 0.03104292042553425, 0.12277083098888397, 0.1307166963815689, 0.017344363033771515, 0.07866527140140533, -0.14246627688407898, -0.13368502259254456, 0.08836022764444351, 0.028682103380560875, 0.043020397424697876, 0.08871907740831375, 0.09249848872423172, 0.10120806843042374, -0.056647419929504395, -0.056485068053007126, 0.010045298375189304, 0.18733784556388855, -0.011033585295081139, -0.05973658710718155, 0.09048423171043396, 0.14266179502010345, -0.0857786163687706, -0.04079047217965126], [-0.13048434257507324, 0.023873833939433098, 0.04839706048369408, -0.1639687567949295, -0.09604603797197342, -0.14428302645683289, 0.11142517626285553, 0.16548150777816772, 0.16454723477363586, 0.11280108243227005, -0.02277536503970623, 0.07486960291862488, 0.10816200822591782, -0.0770193338394165, -0.09990296512842178, 0.13141725957393646, -0.016714800149202347, 0.04442169889807701, -0.08238042145967484, -0.09714461863040924, -0.04323319345712662, 0.005683242809027433, 0.09520109742879868, 0.1019563153386116, -0.0232719536870718, 0.18141844868659973, -0.08957836776971817, 0.014261948876082897, -0.10805755853652954, 0.08650752902030945, 0.14651848375797272, -0.13225385546684265, 0.035520538687705994, -0.16219961643218994, -0.04889865964651108, -0.09385355561971664], [-0.031951092183589935, -0.10617007315158844, -0.08135894685983658, -0.20117618143558502, 0.015738287940621376, -0.10671187937259674, -0.06603910028934479, 0.14900359511375427, 0.06415888667106628, -0.10867830365896225, -0.06935945153236389, -0.08787467330694199, -0.11676464974880219, -0.003988027106970549, 0.0012957414146512747, 0.13271506130695343, 0.008266798220574856, -0.05629028007388115, 0.15055249631404877, 0.06965123862028122, -0.02758103981614113, 0.152969628572464, 0.14759740233421326, -0.11388625204563141, -0.1340777426958084, -0.06708990037441254, -0.11032721400260925, -0.025404419749975204, 0.06427137553691864, -0.126797154545784, -0.152342289686203, -0.1284036785364151, -0.07493498921394348, 0.07313266396522522, 0.18424126505851746, 0.2489384263753891], [-0.025805644690990448, -0.10551480948925018, 0.17897354066371918, -0.11257950216531754, 0.04314863681793213, 0.13117510080337524, 0.02773355320096016, 0.06961085647344589, -0.12908878922462463, -0.07732117176055908, -0.09815360605716705, 0.11912085115909576, -0.08459042012691498, 0.013049389235675335, 0.13602504134178162, 0.13839292526245117, -0.124760702252388, -0.13356870412826538, 0.13625815510749817, 0.04898902773857117, -0.13302554190158844, 0.15194043517112732, -0.11975704878568649, 0.14755547046661377, 0.1311047226190567, 0.10018173605203629, -0.03784339502453804, 0.013130931183695793, -0.15780384838581085, 0.14111728966236115, 0.002549784956499934, 0.11702119559049606, -0.07484524697065353, 0.18670505285263062, 0.09507898986339569, -0.05946262553334236], [0.06176687031984329, -0.12726794183254242, -0.0965992733836174, -0.1077476516366005, -0.11877449601888657, 0.026968007907271385, -0.09671713411808014, -0.11808264255523682, 0.026338182389736176, 0.07449933141469955, -0.11778896301984787, -0.06157708540558815, -0.06729709357023239, 0.06289871037006378, 0.08444206416606903, 0.10993142426013947, -0.13409464061260223, -0.021689629182219505, -0.010625212453305721, -0.07089642435312271, 0.07804682850837708, -0.027409838512539864, 0.0017796660540625453, -0.16319629549980164, 0.10476856678724289, -0.16520404815673828, -0.008791484870016575, -0.16911748051643372, 0.13435816764831543, -0.12547685205936432, 0.0741218850016594, -0.15196318924427032, -0.004769309423863888, 0.049248624593019485, 0.0933150202035904, 0.13885833323001862], [-0.010759345255792141, -0.032749075442552567, 0.028740784153342247, -0.010751777328550816, -0.04098691791296005, -0.14664319157600403, -0.19035306572914124, -0.09142345190048218, -0.047864899039268494, -0.05096137523651123, -0.011410355567932129, 0.03159059211611748, -0.023540791124105453, -0.22383509576320648, 0.12551183998584747, -0.13082724809646606, -0.003778645535930991, 0.037065472453832626, 0.050532951951026917, -0.08937491476535797, -0.146194189786911, 0.10101776570081711, -0.012994490563869476, 0.1441527009010315, 0.07956445217132568, 0.011996474117040634, 0.029397979378700256, -0.045147690922021866, -0.10391411185264587, 0.0355818048119545, 0.15391923487186432, 0.09577362984418869, 0.14258454740047455, 0.14228565990924835, 0.11749267578125, -0.13618610799312592], [-0.14872300624847412, -0.02353670448064804, -0.028819778934121132, -9.262407547794282e-05, -0.06010054424405098, 0.1603226363658905, -0.019954681396484375, 0.17567178606987, -0.08069812506437302, -0.15321432054042816, 0.05192805454134941, 0.043894924223423004, -0.02298104763031006, -0.08681584149599075, 0.06983201950788498, 0.029514320194721222, -0.0503464974462986, 0.12675882875919342, -0.051061298698186874, 0.15852996706962585, -0.10730016231536865, -0.04986726492643356, 0.06555299460887909, 0.12714487314224243, 0.029834670946002007, -0.1351582258939743, -7.407677185256034e-05, -0.03768368810415268, -0.04690822958946228, 0.031332630664110184, 0.05684661865234375, -0.020819803699851036, -0.1022377535700798, -0.10932686924934387, -0.16890986263751984, -0.12977880239486694], [0.20594331622123718, 0.1180858463048935, -0.01585727371275425, -0.005411175545305014, -0.09790804237127304, -0.12283680588006973, 0.049933113157749176, -0.1245715469121933, 0.09093550592660904, -0.03824508562684059, -0.17483924329280853, -0.12781460583209991, 0.11611402034759521, 0.12314174324274063, 0.030341286212205887, -0.009898990392684937, 0.12735266983509064, 0.10247359424829483, 0.08745475858449936, -0.11613006144762039, 0.019419346004724503, 0.13528262078762054, -0.11804420500993729, 0.15377108752727509, -0.12590786814689636, -0.07289809733629227, -0.0045160879381000996, 0.023396776989102364, 0.07014113664627075, -0.26027122139930725, 0.06505660712718964, 0.029173677787184715, -0.024634281173348427, -0.20654550194740295, 0.17405661940574646, -0.04465467110276222], [-0.12023978680372238, 0.1656264364719391, -0.07438141852617264, 0.1429527848958969, 0.094166599214077, -0.13191749155521393, -0.1396959275007248, -0.11560574173927307, 0.035293493419885635, 0.11151694506406784, -0.03134186565876007, -0.05158396437764168, -0.048249755054712296, -0.1071263998746872, 0.15632767975330353, -0.0006160274497233331, -0.141248419880867, -0.14968425035476685, 0.0886065885424614, 0.06275821477174759, 0.10149801522493362, -0.0693470761179924, -0.03218705952167511, 0.03355095908045769, -0.007665709592401981, -0.08917231857776642, 0.038854457437992096, -0.10727463662624359, -0.12773281335830688, -0.013965173624455929, -0.11675681918859482, -0.004008246120065451, 0.021967004984617233, 0.14624616503715515, 0.042493075132369995, -0.06844973564147949], [-0.1181175485253334, -0.010992037132382393, -0.008607853204011917, -0.08388471603393555, 0.025066997855901718, 0.09972283244132996, 0.07084290683269501, -0.03159129247069359, -0.030698304995894432, 0.16267573833465576, -0.016151297837495804, -0.137355774641037, 0.008438002318143845, 0.030002601444721222, -0.06930903345346451, -0.002816032385453582, -0.12409872561693192, 0.0642792209982872, -0.11823268979787827, 0.07180134207010269, 0.13775800168514252, -0.1021864116191864, -0.059606947004795074, 0.022962328046560287, 0.01607215590775013, 0.1006045714020729, 0.007898488081991673, 0.038721293210983276, -0.030469011515378952, 0.03917941451072693, 0.06296900659799576, -0.12556001543998718, 0.09363129734992981, -0.001257874770089984, 0.1782686710357666, -0.15315325558185577], [0.07556329667568207, 0.10685494542121887, 0.05816059187054634, -0.03583822771906853, -0.0975031778216362, -0.1473415195941925, -0.13632166385650635, 0.09801372140645981, -0.13429312407970428, -0.06695280969142914, 0.08674363046884537, 0.11068419367074966, -0.1524064689874649, 0.06941834837198257, 0.020684676244854927, 0.15941056609153748, -0.012007497251033783, 0.08912261575460434, -0.016861680895090103, 0.16443026065826416, 0.00456988113000989, -0.115785151720047, 0.03479977324604988, -0.09000452607870102, 0.05270429328083992, 0.08209598064422607, -0.10443666577339172, -0.12805598974227905, 0.04073816537857056, -0.12290292978286743, -0.026660047471523285, 0.15156498551368713, 0.08584413677453995, -0.06034095957875252, 0.033069539815187454, -0.010789834894239902], [-0.11136254668235779, 0.04586244374513626, -0.10369330644607544, -0.023632433265447617, 0.11671482771635056, -0.14514069259166718, 0.023340068757534027, 0.13072659075260162, 0.016336610540747643, -0.06261779367923737, 0.0032386507373303175, -0.1763150840997696, 0.008061330765485764, 0.10317735373973846, 0.11677851527929306, -0.028442397713661194, 0.057374849915504456, -0.039815422147512436, -0.07069411873817444, -0.011615334078669548, -0.11651160567998886, 0.04516907408833504, 0.05662249028682709, -0.0677051767706871, -0.06385554373264313, -0.12044195085763931, 0.012946476228535175, 0.04960046336054802, 0.17038503289222717, -0.29015323519706726, -0.15485748648643494, -0.014012761414051056, 0.13387058675289154, -0.041405245661735535, 0.016096360981464386, 0.02060054801404476], [0.03715283051133156, 0.1282687783241272, 0.13475194573402405, -0.055642738938331604, -0.13000042736530304, -0.1388440728187561, -0.04251250997185707, 0.009169426746666431, 0.0654359981417656, -0.1212615817785263, 0.12321798503398895, -0.0678464025259018, 0.03514811396598816, -0.06397643685340881, 0.09342464059591293, -0.15107299387454987, -0.09986159205436707, 0.008737890049815178, 0.09053001552820206, -0.07095061242580414, 0.07426021248102188, -0.013506761752068996, -0.15127278864383698, 0.04714037850499153, -0.02202051691710949, 0.1445785015821457, 0.10746955871582031, 0.1349726915359497, 0.11498727649450302, -0.05542794615030289, -0.16013534367084503, 0.041417621076107025, 0.050045792013406754, -0.07021088153123856, 0.15291361510753632, 0.029461858794093132], [-0.04926824942231178, 0.13364318013191223, 0.145571768283844, 0.060979269444942474, -0.11041124910116196, -0.010040598921477795, -0.16180171072483063, 0.09727989137172699, 0.12155136466026306, -0.07678593695163727, -0.13497304916381836, 0.1161421611905098, -0.168496772646904, -0.07710443437099457, 0.11308614909648895, -0.09754602611064911, 0.028549155220389366, 0.14987123012542725, -0.016711240634322166, -0.02853626199066639, 0.15883377194404602, 0.027593035250902176, 0.07279762625694275, -0.05245285853743553, -0.15006403625011444, 0.021961312741041183, -0.09291524440050125, -0.09364143759012222, -0.13193432986736298, 0.07060889899730682, -0.11136453598737717, 0.039157718420028687, 0.042599838227033615, 0.1028556078672409, 0.1312611848115921, -0.06391078233718872], [0.04555850103497505, -0.046814821660518646, 0.012017750181257725, -0.08160888403654099, -0.14298318326473236, 0.10259052366018295, -0.07353702187538147, 0.16866905987262726, 0.1490979641675949, 0.03178299590945244, -0.04036936163902283, -0.13306066393852234, -0.058888934552669525, -0.06682922691106796, 0.05667293444275856, 0.07282926142215729, 0.17924025654792786, 0.07859979569911957, 0.024898283183574677, -0.02460688166320324, 0.008399087004363537, 0.16946768760681152, -0.09930555522441864, -0.10063584893941879, 0.10358049720525742, 0.05824459344148636, -0.006152071058750153, -0.05714492127299309, -0.07049305737018585, -0.06500306725502014, -0.05275337025523186, -0.10839138180017471, -0.02727981097996235, 0.15499641001224518, -0.0603916198015213, 0.19924592971801758], [-0.18160447478294373, 0.015164801850914955, -0.018161553889513016, -0.055442459881305695, 0.007868415676057339, 0.1306009739637375, -0.008013756945729256, 0.1773221343755722, -0.0027534414548426867, -0.057745061814785004, 0.10262639820575714, 0.14728105068206787, 0.18024460971355438, 0.07162698358297348, -0.13710848987102509, -0.02024841122329235, 0.03246427699923515, -0.05774481222033501, 0.09399248659610748, -0.020338058471679688, -0.13893137872219086, -0.048446156084537506, -0.10030388832092285, 0.08077393472194672, -0.10516022890806198, -0.025503071025013924, 0.023437073454260826, 0.08577267825603485, -0.13451702892780304, 0.19539925456047058, -0.09886950999498367, -0.11568235605955124, 0.0782775729894638, -0.12159156799316406, 0.10761070996522903, 0.09122123569250107], [-0.12476389855146408, -0.029999874532222748, -0.0922994539141655, -0.04647791385650635, 0.0007066854741424322, -0.06034695729613304, -0.12182675302028656, -0.17466403543949127, -0.13150502741336823, 0.035428501665592194, -0.018506811931729317, -0.10918910801410675, -0.07184721529483795, -0.01581154391169548, 0.1014869213104248, -0.18800610303878784, -0.1000095009803772, -0.033337097615003586, -0.05190681293606758, -0.10295769572257996, 0.07161369919776917, -0.09296795725822449, 0.011352992616593838, -0.11835338920354843, 0.13796287775039673, -0.11635530740022659, -0.035861339420080185, 0.11084713041782379, 0.09857704490423203, -0.3668695092201233, 0.09203512221574783, -0.11806870996952057, -0.03327095881104469, 0.07811768352985382, 0.005150856915861368, 0.16462676227092743], [-0.07443362474441528, -0.19589942693710327, -0.020245788618922234, 0.12678779661655426, 0.20299457013607025, -0.043448641896247864, -0.026189390569925308, -0.10854758322238922, -0.17005722224712372, -0.09060857445001602, -0.13648012280464172, -0.08631270378828049, 0.0733209103345871, -0.06114313006401062, 0.10838762670755386, 0.10642354935407639, -0.12636829912662506, 0.019626755267381668, 0.08596862107515335, -0.14218030869960785, -0.041730448603630066, 0.1151631623506546, -0.13116861879825592, 0.1496237963438034, 0.02476952038705349, 0.010220671072602272, 0.130146786570549, -0.1546446681022644, 0.15047746896743774, -0.23050212860107422, 0.07077069580554962, -0.009939149022102356, 0.12564648687839508, 0.0017620025901123881, -0.15727226436138153, 0.01999039016664028], [-0.022254765033721924, -0.06823185831308365, -0.24969281256198883, -0.05579052492976189, -0.0319635272026062, 0.08759378641843796, 0.08138083666563034, 0.03346817195415497, 0.0021734251640737057, -0.08597955852746964, 0.06277069449424744, -0.0019320889841765165, 0.044713739305734634, -0.03464562073349953, -0.033725813031196594, 0.07982634752988815, -0.02215029112994671, -0.15616483986377716, 0.023601310327649117, 0.13871194422245026, -0.06956793367862701, 0.09942269325256348, -0.14193764328956604, -0.0459262952208519, 0.08990556746721268, -0.113986536860466, -0.0780494436621666, -0.02606038562953472, -0.06017715111374855, 0.008573513478040695, 0.065922811627388, -0.05642268806695938, -0.07293259352445602, 0.21461035311222076, 0.02580472081899643, -0.06497003138065338], [0.14624129235744476, -0.08324235677719116, 0.12456204742193222, 0.07095665484666824, 0.008547567762434483, 0.04245344549417496, -0.05451285094022751, -0.1402333527803421, -0.1125287190079689, 0.0629817321896553, 0.08294814079999924, -0.0029344470240175724, -0.07026512920856476, -0.07413884252309799, -0.08558230102062225, -0.11474768817424774, 0.12685446441173553, -0.1353999525308609, 0.12691698968410492, 0.10330209881067276, -0.03792327642440796, -0.016103995963931084, -0.04293433949351311, -0.13314072787761688, 0.006241928320378065, -0.10133108496665955, 0.016689632087945938, -0.052138444036245346, -0.10290014743804932, -0.2012663632631302, 0.14849695563316345, 0.13912290334701538, 0.1597471982240677, 0.05218609422445297, 0.08801057934761047, 0.1290905922651291], [0.01861940324306488, -0.007005946710705757, -0.07050497084856033, 0.05670281872153282, 0.006082724779844284, -0.05936339125037193, 0.07243091613054276, 0.08420265465974808, -0.11498737335205078, -0.1380382776260376, -0.07550308853387833, -0.17811782658100128, 0.12678220868110657, -0.026399195194244385, -0.13325099647045135, 0.077889584004879, -0.010764233767986298, 0.01865132711827755, 0.10169322788715363, -0.2037205845117569, 0.02401203103363514, -0.13556376099586487, 0.010342990048229694, -0.12388112396001816, 0.08683528751134872, -0.07277127355337143, -0.03133999928832054, -0.1971261203289032, 0.04506583884358406, -0.2227543592453003, 0.022439459338784218, 0.0491577573120594, 0.07973483204841614, 0.21840977668762207, -0.10426854342222214, -0.018242737278342247], [-0.003832799382507801, -0.12517420947551727, 0.10476627200841904, -0.08459862321615219, -0.011384369805455208, 0.18415214121341705, -0.030744818970561028, 0.020714046433568, 0.16390037536621094, 0.07680033147335052, 0.1406976580619812, -0.12372424453496933, 0.03622749447822571, -0.23740436136722565, 0.03689981997013092, -0.20042431354522705, 0.01403371337801218, 0.07298733294010162, -0.1565009355545044, -0.03646337240934372, -0.08647153526544571, 0.2044484168291092, -0.02947557345032692, 0.12288036197423935, -0.12412751466035843, 0.07354617118835449, 0.09745624661445618, 0.018819041550159454, -0.07597716152667999, 0.035451989620923996, 0.11162083595991135, 0.06399669498205185, 0.00237564230337739, 0.0667615681886673, -0.10557839274406433, -0.04830683395266533], [-0.06469593942165375, 0.08009888976812363, -0.15685655176639557, -0.05567781627178192, 0.06600923091173172, 0.02240760251879692, 0.04752236232161522, 0.020970096811652184, -0.1657341718673706, -0.06480018049478531, 0.07916264981031418, 0.010169398039579391, 0.07688451558351517, 0.09237080812454224, 0.07199934870004654, -0.08982013165950775, -0.10243267565965652, -0.05486369505524635, -0.023717649281024933, -0.03936215490102768, -0.05185201019048691, -0.0083091352134943, 0.07414127886295319, -0.1402890533208847, 0.06347513198852539, -0.17239832878112793, -0.012214371003210545, -0.16642150282859802, 0.13133221864700317, -0.12018385529518127, -0.10892204940319061, 0.08971386402845383, 0.06605342030525208, 0.10409464687108994, -0.007124686148017645, -0.1788557767868042], [-0.12915566563606262, 0.08805909007787704, -0.16698496043682098, 0.14028963446617126, -0.013267921283841133, 0.015819398686289787, 0.020710838958621025, -0.0012286013225093484, -0.0258881077170372, 0.04005851224064827, -0.013200665824115276, 0.03313528373837471, 0.1534193456172943, 0.002043241634964943, -0.10716234892606735, -0.12075181305408478, 0.11456797271966934, 0.08397015184164047, 0.048474863171577454, -0.06026936322450638, -0.12874729931354523, 0.1686994433403015, -0.1416129320859909, -0.06281455606222153, 0.08468124270439148, 0.14181385934352875, -0.038816049695014954, -0.14963671565055847, 0.06337802112102509, -0.0848022848367691, -0.006204275414347649, -0.1397908329963684, 0.13637705147266388, 0.011351014487445354, 0.05271421745419502, 0.1475144773721695], [0.09280161559581757, -0.045595649629831314, -0.051986437290906906, -0.1649738848209381, -0.16385531425476074, -0.10144852846860886, 0.03190695866942406, -0.08598669618368149, 0.08927630633115768, 0.056749433279037476, -0.05206367000937462, 0.06576316803693771, 0.12977907061576843, -0.05630773305892944, 0.10249188542366028, 0.09914691001176834, 0.14986105263233185, -0.13461311161518097, 0.13196559250354767, -0.010839099995791912, -0.0122219892218709, 0.017938761040568352, -0.11295467615127563, -0.06105327233672142, -0.14739859104156494, 0.023228658363223076, 0.03963455930352211, -0.11356940120458603, 0.05446108058094978, -0.20217499136924744, 0.0824422761797905, -0.17568722367286682, -0.0044922782108187675, 0.12138410657644272, -0.1695232093334198, -0.15852342545986176], [-0.019387004896998405, -0.03429500386118889, -0.03901170194149017, 0.14128804206848145, -0.15118564665317535, 0.022764747962355614, -0.16430659592151642, -0.09116136282682419, -0.10927709937095642, -0.039553429931402206, -0.10661210864782333, 0.015112755820155144, 0.07514866441488266, 0.1704389899969101, 0.08806087076663971, 0.1770566701889038, -0.008005881682038307, 0.1759062558412552, -0.15333449840545654, -0.06644826382398605, -0.10934346914291382, -0.16281642019748688, -0.13199838995933533, -0.15721741318702698, 0.1782027631998062, -0.03586721792817116, 0.06990383565425873, -0.04749523475766182, 0.062390152364969254, -0.19794876873493195, -0.1364317238330841, 0.017145387828350067, 0.10842452943325043, -0.03135316073894501, 0.08231188356876373, -0.005869964603334665], [0.09555051475763321, -0.15836526453495026, -0.09757314622402191, 0.03417409583926201, 0.1719353199005127, 0.11469128727912903, -0.09562797099351883, -0.08078248798847198, 0.028469042852520943, -0.0012385192094370723, -0.11189819872379303, -0.10553687065839767, 0.07864297181367874, 0.11612199246883392, 0.10761068016290665, -0.04275418445467949, -0.05652330815792084, -0.03653835877776146, 0.11548232287168503, -0.17180407047271729, 0.056067463010549545, -0.14585526287555695, -0.036951225250959396, 0.10597651451826096, -0.08016492426395416, -0.102817602455616, -0.03357430920004845, 0.04669443517923355, 0.08949993550777435, -0.08116224408149719, 0.10254199802875519, -0.08433767408132553, -0.006191789638251066, -0.0955592468380928, 0.024066001176834106, -0.20908276736736298], [-0.1136510819196701, -0.016326623037457466, 0.14087043702602386, 0.016091743484139442, -0.1366201937198639, 0.07336554676294327, 0.1387217938899994, -0.11201045662164688, 0.15010204911231995, 0.11153848469257355, 0.011674814857542515, -0.07997668534517288, 0.08610198646783829, 0.06330825388431549, -0.08275610208511353, -0.0935647264122963, -0.12289857864379883, -0.0661713257431984, 0.02251502312719822, 0.06648150086402893, -0.013609955087304115, 0.1496322602033615, 0.029054589569568634, 0.04705832526087761, -0.07434897124767303, -0.08370719105005264, 0.08642624318599701, 0.08081357926130295, -0.03533108904957771, 0.01701939105987549, -0.1527065485715866, 0.016720127314329147, -0.12111940234899521, -0.028208736330270767, -0.05318630486726761, -0.1685750037431717], [0.1074143797159195, -0.011494552716612816, -0.1363578885793686, -0.13964904844760895, -0.15027357637882233, -0.08334377408027649, 0.01703108474612236, 0.09498607367277145, -0.010294300504028797, -0.039471108466386795, -0.11190683394670486, -0.06880179047584534, 0.1489448994398117, 0.05475559085607529, -0.1274135559797287, -0.03534049168229103, -0.11525313556194305, 0.03795864060521126, 0.003998018801212311, -0.014136172831058502, 0.14116241037845612, -0.09210700541734695, 0.030401576310396194, -0.04854555055499077, 0.04466236010193825, -0.13996464014053345, -0.04838697239756584, 0.08945859223604202, -0.10161977261304855, -0.020843513309955597, -0.004419942386448383, -0.11427192389965057, -0.08837077021598816, -0.023249495774507523, -0.0030284717213362455, -0.07891874015331268], [0.04774172976613045, -0.1418168991804123, -0.0008259237511083484, -0.10556570440530777, 0.0771610215306282, 0.13868965208530426, -0.13766181468963623, -0.10587115585803986, 0.16347353160381317, 0.09904745221138, 0.09221920371055603, -0.09315995126962662, 0.045812029391527176, 0.040072809904813766, 0.11698295176029205, 0.13257808983325958, 0.0005721968482248485, 0.07241364568471909, -0.13871335983276367, 0.037513889372348785, -0.09148652106523514, 0.1292741894721985, -0.11345275491476059, -0.14304423332214355, -0.14072780311107635, -0.04528835788369179, 0.014197933487594128, -0.01680673286318779, 0.07208455353975296, -0.1238090842962265, -0.09853462874889374, -0.01365311723202467, -0.0031819171272218227, 0.0011501284316182137, 0.11149638146162033, 0.06142912805080414], [0.004635296296328306, -0.01911904476583004, -0.008914224803447723, -0.00019336181867402047, -0.06912515312433243, -0.03386523947119713, -0.10919274389743805, 0.090087890625, 0.031211571767926216, -0.0937185287475586, -0.004324847366660833, -0.09655915200710297, -0.0401277132332325, -0.1918359100818634, -0.03223297744989395, -0.09370134770870209, -0.15481692552566528, 0.17191913723945618, 0.02607223391532898, 0.11866968870162964, 0.025093544274568558, 0.01035617757588625, -0.08690734207630157, 0.06693076342344284, 0.09864142537117004, -0.05048505961894989, -0.09579309076070786, 0.11445260047912598, -0.010333823040127754, -0.15722349286079407, 0.07825819402933121, 0.15506905317306519, 0.14233291149139404, 0.11206679791212082, 0.1355638951063156, -0.12543271481990814], [-0.004579686094075441, 0.12258928269147873, -0.12089978158473969, 0.005707947071641684, -0.0371258407831192, -0.0149074736982584, 0.059160660952329636, -0.005370137747377157, -0.07072963565587997, -0.034929756075143814, 0.050142526626586914, -0.10116934776306152, 0.09709141403436661, -0.15701782703399658, -0.12416347116231918, 0.032265011221170425, -0.022138837724924088, 0.09827852249145508, 0.05673373490571976, 0.00589739391580224, 0.005363264586776495, 0.11216466873884201, -0.16698172688484192, -0.07083695381879807, 0.10066487640142441, -0.17968019843101501, 0.06726912409067154, 0.08427508920431137, 0.04250163957476616, -0.16653868556022644, -0.11032295227050781, 0.010973870754241943, -0.08731694519519806, 0.09052358567714691, 0.05116616562008858, 0.04640516638755798], [0.11290261149406433, -0.16906505823135376, -0.13821110129356384, 0.1023346558213234, 0.02085014618933201, -0.17213256657123566, -0.03316730260848999, 0.1415548026561737, 0.014263330027461052, 0.02015300653874874, 0.10350099951028824, -0.053196072578430176, 0.09845287352800369, 0.05163700133562088, -0.12481212615966797, -0.028540024533867836, 0.12159904092550278, 0.07662423700094223, 0.008444810286164284, -0.003871840424835682, -0.11876677721738815, -0.07192936539649963, 0.10824157297611237, -0.013601456768810749, -0.09949837625026703, -0.005001396406441927, -0.12087056785821915, -0.028715254738926888, -0.006121670827269554, -0.19664976000785828, -0.09344107657670975, -0.11742497980594635, -0.1151985302567482, 0.1486724317073822, 0.07989237457513809, -0.07238520681858063], [-0.04650353267788887, 0.14429987967014313, 0.1020180955529213, 0.037662286311388016, 0.00816854927688837, -0.11359061300754547, 0.07601455599069595, -0.05281173437833786, 0.0010138936340808868, -0.07550422102212906, 0.04197058826684952, 0.037970028817653656, -0.04285020753741264, -0.08184293657541275, -0.004626921843737364, -0.15841710567474365, -0.002371095586568117, -0.1503281444311142, 0.12050776928663254, 0.07087942212820053, -0.025840479880571365, 0.132798433303833, 0.006733301095664501, 0.15504705905914307, 0.02886456809937954, 0.0540458969771862, 0.016305137425661087, -0.10750747472047806, -0.1701812446117401, -0.032127849757671356, 0.12743285298347473, 0.07767343521118164, -0.06103324517607689, -0.10299012809991837, 0.17042790353298187, 0.035699933767318726], [-0.17067056894302368, -0.024110641330480576, -0.028249848634004593, -0.040872130542993546, -0.06144356355071068, 0.0500662624835968, -0.12054287642240524, 0.07114949077367783, -0.08669557422399521, 0.12607355415821075, 0.14671441912651062, 0.152385875582695, -0.17733751237392426, -0.08640925586223602, -0.044585827738046646, -0.17231769859790802, 0.0700962245464325, -0.05689036101102829, -0.006013280246406794, 0.08309147506952286, -0.14709120988845825, 0.060678232461214066, -0.07849384099245071, 0.12693898379802704, 0.12885801494121552, -0.013651113025844097, -0.1088239848613739, 0.09350676834583282, -0.13206271827220917, 0.17869827151298523, 0.12716713547706604, 0.06208733469247818, -0.08431553095579147, 0.10517038404941559, 0.13842391967773438, 0.012815015390515327], [0.009018957614898682, 0.026984941214323044, 0.19709941744804382, 0.1364460289478302, -0.2713353931903839, 0.10783534497022629, -0.1146044135093689, 0.002643587999045849, -0.053728580474853516, -0.0027216961607337, -0.01109991129487753, 0.012434083968400955, -0.1439209133386612, -0.05071919411420822, 0.1320476531982422, -0.006917220074683428, -0.08597170561552048, 0.17260770499706268, -0.1479770392179489, -0.01847091317176819, 0.13924118876457214, 0.066194087266922, -0.04428013041615486, -0.059883423149585724, -0.034366149455308914, -0.03512686491012573, -0.006066503934562206, 0.18498973548412323, 0.12756535410881042, -0.11877317726612091, 0.10123800486326218, -0.13521215319633484, 0.009997286833822727, 0.12116533517837524, 0.03775276616215706, -0.08154741674661636], [0.026437370106577873, 0.10283660143613815, -0.019504230469465256, 0.08837214857339859, -0.11072388291358948, 0.07991089671850204, -0.09409713000059128, 0.07745835185050964, -0.1019955426454544, -0.003549787914380431, 0.0021444682497531176, -0.021550945937633514, -0.015893986448645592, -0.08293134719133377, -0.08620670437812805, 0.11975983530282974, 0.04587734490633011, 0.04835912585258484, -0.023335186764597893, 0.06692145764827728, 0.05058325082063675, -0.028958596289157867, 0.02235073409974575, 0.027419649064540863, 0.164348304271698, -0.1288507580757141, -0.08484645932912827, -0.05690712854266167, 0.09196420758962631, -0.16504618525505066, -0.0573916994035244, -0.06084045022726059, 0.007714626379311085, -0.15027129650115967, 0.05044226348400116, 0.159036785364151], [0.07296888530254364, -0.1182011067867279, -0.07358449697494507, 0.03897745907306671, 0.1088617742061615, 0.0845346599817276, 0.12289174646139145, 0.008168003521859646, 0.1332232505083084, 0.15369608998298645, 0.08761106431484222, -0.012470775283873081, 0.10427127033472061, 0.10577758401632309, -0.11944596469402313, 0.0598277747631073, -0.040079064667224884, 0.02088983543217182, -0.10528261214494705, -0.006907716393470764, 0.014281414449214935, -0.06745190173387527, -0.12354113906621933, 0.10941363871097565, -0.06723949313163757, 0.16686618328094482, -0.0756634846329689, 0.16801002621650696, 0.007633050438016653, -0.058208417147397995, -0.01717321388423443, -0.05036519095301628, 0.031706493347883224, 0.12275642156600952, -0.10142094641923904, 0.06692491471767426], [0.07798174768686295, -0.08314616233110428, 0.01936470717191696, 0.11711970716714859, -0.10142287611961365, 0.11443248391151428, -0.10249881446361542, -0.05272606760263443, 0.06482459604740143, 0.039329126477241516, -0.13281820714473724, -0.09368371218442917, 0.005156336352229118, -0.008656404912471771, 0.00410984642803669, 0.14632442593574524, -0.05308719351887703, 0.034707967191934586, -0.1177409365773201, -0.04819495975971222, 0.16339299082756042, 0.09826856851577759, 0.03096676617860794, -0.03405946120619774, -0.09689833968877792, 0.11338545382022858, -0.052365005016326904, 0.02514164336025715, -0.07335995137691498, 0.011553375981748104, 0.0342399962246418, 0.007693096529692411, 0.01817709393799305, -0.024311210960149765, 0.09092212468385696, 0.026454489678144455], [0.18320773541927338, -0.017539415508508682, -0.15674909949302673, -0.0009441580041311681, 0.15158036351203918, -0.03126000612974167, 0.03603622689843178, -0.05111423507332802, -0.0003415063547436148, 0.14741261303424835, -0.02036569081246853, -0.10442835837602615, -0.08230502903461456, -0.0345211885869503, -0.12588758766651154, 0.19275470077991486, 0.17517440021038055, -0.12063860148191452, -0.06681279093027115, 0.10437510907649994, -0.030607400462031364, 0.14942443370819092, -0.06125909835100174, -0.06242721155285835, -0.09348053485155106, -0.10637805610895157, 0.11736280471086502, -0.011026698164641857, -0.09863461554050446, 0.0687321275472641, -0.059722594916820526, 0.08203545957803726, 0.18814127147197723, 0.08203153312206268, 0.15531456470489502, -0.19078317284584045], [-0.057131461799144745, -0.1150631234049797, 0.13887779414653778, -0.10895891487598419, 0.015282734297215939, -0.0296672023832798, 0.019266152754426003, 0.13540321588516235, 0.0673680528998375, 0.1585530936717987, -0.09895921498537064, 0.04406490549445152, -0.016923582181334496, -0.13290202617645264, -0.06297056376934052, 0.005096205044537783, -0.1397734433412552, 0.11523701250553131, -0.07275661826133728, -0.0009887664346024394, 0.024988168850541115, -0.13220202922821045, -0.049409303814172745, 0.05453365668654442, -0.02738872915506363, 0.17260509729385376, 0.06375495344400406, 0.10349138081073761, 0.13826872408390045, 0.05899865925312042, -0.11695244163274765, 0.11759095638990402, -0.02281457744538784, 0.03919277340173721, 0.07083804160356522, 0.028012502938508987], [0.1118052676320076, 0.13728931546211243, -0.13602618873119354, -0.04672282561659813, 0.03520049527287483, 0.004642263054847717, 0.02358832210302353, -0.14449115097522736, -0.04776039347052574, -0.015593512915074825, 0.1394970566034317, -0.1298481523990631, 0.036168698221445084, -0.003074805485084653, -0.07669679075479507, 0.06275206804275513, 0.14483341574668884, 0.1416405290365219, -0.037218447774648666, -0.007173873949795961, -0.026740767061710358, 0.11847412586212158, -0.08680500835180283, 0.0427035354077816, 0.08976361155509949, 0.0801275223493576, -0.07160942256450653, 0.0862845629453659, -0.15012286603450775, 0.008630620315670967, 0.12416510283946991, -0.07794727385044098, 0.0028633561450988054, 0.13583791255950928, 0.006140587851405144, 0.018215030431747437], [0.04814612492918968, -0.10576196014881134, -0.15534430742263794, 0.03657229617238045, 0.03655758127570152, 0.0914841741323471, 0.11276385188102722, 0.09870459884405136, 0.025620387867093086, 0.024763157591223717, -0.041863813996315, -0.11567799001932144, 0.15839320421218872, 0.13742651045322418, 0.005058249458670616, 0.031197458505630493, 0.013025524094700813, 0.028423987329006195, -0.08612854033708572, 0.16615517437458038, 0.009167260490357876, 0.007727129850536585, 0.10264530777931213, 0.003530653892084956, -0.00800870917737484, -0.025564268231391907, -0.07751192152500153, 0.0901745855808258, -0.13494066894054413, 0.3172432780265808, -0.07434026896953583, 0.014771789312362671, -0.0461755134165287, -0.08770211786031723, -0.07790660858154297, -0.11877025663852692], [-0.014132730662822723, -0.04541003331542015, -0.059529826045036316, 0.10929293930530548, -0.025042066350579262, -0.06613150984048843, 0.017894329503178596, 0.04915621504187584, 0.11048991233110428, -0.05898343771696091, -0.120482437312603, -0.009732026606798172, -0.02531878650188446, 0.20662224292755127, 0.08094973862171173, -0.09069248288869858, 0.10549424588680267, 0.04253444820642471, 0.06955820322036743, -0.05135847255587578, 0.050590064376592636, -0.09915222972631454, 0.04760785400867462, 0.14601412415504456, 0.028227536007761955, -0.10486862063407898, -0.014271058142185211, 0.08576107025146484, -0.15734387934207916, 0.024543317034840584, 0.0054376255720853806, -0.10658545047044754, -0.06444163620471954, -0.07654953002929688, 0.031880076974630356, -0.2442476451396942], [-0.14400231838226318, 0.14141854643821716, 0.016606083139777184, -0.09344969689846039, 0.07100836932659149, -0.08593150973320007, -0.01047741249203682, 0.10261031985282898, -0.11212589591741562, -0.13431783020496368, 0.01664835773408413, -0.07475949823856354, -0.034959327429533005, 0.142510786652565, 0.039798155426979065, 0.06213277205824852, -0.15166118741035461, -0.10606257617473602, -0.11358711123466492, 0.1594134122133255, -0.06246242672204971, 0.1335839033126831, 0.15680643916130066, -0.11744898557662964, 0.07722604274749756, -0.11028677225112915, 0.14489038288593292, 0.11106996983289719, 0.047808822244405746, 0.053457390516996384, -0.019015388563275337, -0.025107380002737045, -0.025040723383426666, -0.09168803691864014, -0.14899234473705292, -0.06059808284044266], [-0.002200556453317404, 0.1720721572637558, 0.14556147158145905, -0.1853020042181015, -0.10892470180988312, -0.028308328241109848, -0.16605913639068604, -0.002218829235062003, 0.04505090042948723, -0.006903335452079773, 0.06323178112506866, -0.009442167356610298, -0.17815062403678894, -0.025211714208126068, -0.16340017318725586, -0.06367434561252594, -0.06717789173126221, 0.1237725242972374, -0.03950785845518112, -0.029080118983983994, -0.111006960272789, -0.04786025732755661, 0.04059939831495285, 0.04447516053915024, 0.156488299369812, 0.09455610811710358, 0.005898609757423401, 0.13292253017425537, -0.08253219723701477, -0.005032271146774292, 0.04677821323275566, 0.061700500547885895, -0.042243700474500656, 0.01988292671740055, 0.12401504814624786, -0.05894215777516365], [-0.09933425486087799, -0.19031310081481934, -0.11607283353805542, -0.17813345789909363, 0.030304547399282455, -0.10728460550308228, -0.04350242391228676, 0.09623602032661438, -0.15807223320007324, 0.06291379034519196, -0.0030171021353453398, -0.09670274704694748, 0.16461119055747986, 0.19385695457458496, -0.1165468841791153, 0.034310970455408096, -0.06407386064529419, -0.16954517364501953, 0.0742771178483963, 0.08487967401742935, 0.1383240669965744, -0.1455554962158203, -0.042484551668167114, 0.0618089959025383, -0.10516705363988876, 0.1481982171535492, 0.0010023434879258275, 0.025747232139110565, 0.05080137774348259, 0.08299636840820312, 0.040595944970846176, -0.10880418866872787, 0.14122316241264343, -0.0698612704873085, 0.010732446797192097, -0.23219841718673706], [-0.11153388768434525, 0.15718922019004822, 0.026246169582009315, 0.05491887778043747, -0.021383019164204597, -0.11126110702753067, 0.12514899671077728, -0.10353713482618332, 0.12941057980060577, -0.08549119532108307, 0.1548745483160019, 0.030965272337198257, -0.08312098681926727, 0.15141868591308594, 0.14783461391925812, -0.08210150897502899, -0.06742460280656815, -0.03586465120315552, 0.017508534714579582, 0.1316106617450714, -0.08196182548999786, 0.12463027238845825, 0.16683200001716614, 0.09246280789375305, -0.039786942303180695, 0.19875839352607727, -0.0676606073975563, 0.05697987228631973, -0.10020250827074051, 0.09575988352298737, -0.15170487761497498, 0.07662895321846008, -0.10866154730319977, -0.13809148967266083, -0.05730859935283661, 0.1591116338968277], [0.07617543637752533, -0.14646929502487183, 0.101917564868927, -0.0655386820435524, -0.10922171175479889, -0.14249959588050842, -0.10287635773420334, 0.14798082411289215, -0.1288141906261444, 0.012625059112906456, -0.09871876239776611, -0.1636172980070114, -0.11170390248298645, 0.04165932908654213, 0.04739213362336159, 0.018871400505304337, 0.02971959486603737, -0.08763623237609863, -0.026892168447375298, 0.014228340238332748, -0.02931823581457138, 0.069652259349823, 0.12474365532398224, 0.1093095913529396, 0.12809763848781586, -0.24499355256557465, -0.05122818052768707, 0.06366083025932312, 0.09374944865703583, -0.08113615959882736, 0.035595860332250595, -0.004052848555147648, 0.008264539763331413, -0.12168803811073303, -0.12009051442146301, 0.04360289126634598], [0.15000329911708832, -0.042681965976953506, 0.09637696295976639, 0.20014266669750214, 0.02055816724896431, 0.14162889122962952, 0.06343887001276016, -0.19959451258182526, -0.06000104919075966, 0.11204104125499725, -0.05168350413441658, -0.050044845789670944, -0.05429469421505928, -0.039519522339105606, 0.017437711358070374, 0.07831030339002609, -0.04196881875395775, -0.05887560918927193, -0.07238420099020004, 0.16911405324935913, 0.1643274873495102, -0.11645915359258652, -0.06539739668369293, -0.04482434689998627, -0.07995925843715668, -0.20112884044647217, -0.07327485829591751, 0.1463240087032318, -0.013283374719321728, 0.04067216068506241, 0.09350059181451797, -0.004613611847162247, -0.0227708388119936, 0.11880193650722504, 0.0687466636300087, -0.13228298723697662], [9.311694157077e-05, -0.01419308315962553, 0.010019142180681229, 0.040644582360982895, -0.1447800248861313, -0.0924130529165268, 0.016809314489364624, 0.007126565091311932, 0.025356218218803406, -0.05197392404079437, -0.06412693113088608, -0.04117896780371666, 0.0669129267334938, -0.12473469972610474, -0.07544303685426712, 0.11265134811401367, 0.14601610600948334, 0.10626140236854553, 0.12611833214759827, -0.12414724379777908, -0.057973530143499374, -0.13457471132278442, -0.10051562637090683, 0.07313230633735657, 0.14513197541236877, -0.20849604904651642, 0.08230829238891602, -0.09000026434659958, 0.09731241315603256, -0.010056973434984684, -0.12198241800069809, 0.07595513015985489, -0.12633463740348816, -0.06601939350366592, -0.12098119407892227, 0.11324068903923035], [0.0445563867688179, -0.10210907459259033, -0.09223427623510361, 0.03862850368022919, 0.0723642110824585, 0.060695767402648926, -0.11448394507169724, 0.04081128165125847, -0.12074889987707138, -0.04140551760792732, -0.006803964730352163, -0.1509719341993332, 0.10214605182409286, -0.12178511917591095, 0.0386740043759346, -0.08139357715845108, 0.06658260524272919, 0.05962493643164635, 0.08072543889284134, -0.010581940412521362, -0.07270752638578415, -0.06521113961935043, 0.12006180733442307, 0.03986124321818352, -0.07375296205282211, -0.0899667963385582, -0.03162049874663353, -0.06403464823961258, -0.06858137249946594, 0.22133612632751465, -0.08787640184164047, 0.1696285903453827, 0.1410544514656067, -0.09622947871685028, 0.08879466354846954, -0.13927467167377472], [0.011100655421614647, -0.11569139361381531, -0.10239823162555695, 0.05757003650069237, 0.05938882753252983, -0.0351170152425766, -0.017888477072119713, 0.04345433786511421, -0.05031494423747063, 0.09449213743209839, -0.149186909198761, -0.05572863668203354, 0.15477371215820312, -0.0386115238070488, -0.04973682016134262, -0.14285054802894592, 0.1489570587873459, 0.09622152149677277, -0.11940661072731018, -0.024168550968170166, 0.14412234723567963, -0.17589525878429413, 0.01761680096387863, -0.12239594757556915, -0.1234794557094574, -0.01672844961285591, 0.07537584006786346, -0.15992826223373413, -0.09171561151742935, -0.10723786056041718, -0.025089161470532417, -0.07488466799259186, 0.10159818828105927, -0.02149105817079544, -0.00917905941605568, -0.13886161148548126], [0.05607859790325165, -0.1349940299987793, -0.14954666793346405, 0.055746953934431076, -0.18550090491771698, 0.011397202499210835, 0.00499946903437376, 0.004923403728753328, 0.121062271296978, -0.062483709305524826, 0.12203460931777954, -0.08309818804264069, -0.1282418966293335, -0.11010769754648209, 0.0956973060965538, 0.016562484204769135, 0.00629516551271081, -0.022828754037618637, -0.0653032436966896, 0.03717365115880966, -0.002585097448900342, -0.016339240595698357, -0.06775698810815811, -0.10566922277212143, 0.0196700356900692, 0.07366655766963959, -0.13548874855041504, 0.16253703832626343, 0.08262821286916733, 0.15457190573215485, 0.05492798611521721, -0.02904048189520836, 0.06254804134368896, 0.08969330787658691, 0.08134163916110992, -0.04292569309473038], [-0.11233146488666534, -0.026169629767537117, 0.07638552039861679, -0.062186628580093384, 0.014064891263842583, -0.09492871165275574, -0.07018076628446579, 0.010703736916184425, -0.06665924191474915, -0.11319223046302795, 0.1376858353614807, 0.021509239450097084, 0.13103078305721283, -0.03590056672692299, -0.07281230390071869, 0.08089128136634827, 0.04564087092876434, -0.03028107061982155, -0.018453318625688553, -0.09642238169908524, -0.01595115475356579, 0.005513450130820274, 0.09898213297128677, 0.1227416843175888, -0.1356898844242096, -0.07390403002500534, 0.05205954611301422, 0.0904284119606018, -0.11770382523536682, -0.09898459911346436, 0.04747344180941582, -0.11503668129444122, 0.13698658347129822, -0.10706072300672531, 0.05273381993174553, -0.042163923382759094], [-0.17665426433086395, -0.20741528272628784, 0.033871620893478394, -0.00723200011998415, -0.08939187973737717, 0.18767036497592926, 0.13038884103298187, 0.11539516597986221, -0.07650934159755707, -0.030371300876140594, 0.0382116362452507, -0.02923780307173729, 0.0771355852484703, -0.0742124691605568, -0.04885753244161606, -0.03516850247979164, -0.07517173886299133, -0.11855238676071167, -0.025914568454027176, -0.06741171330213547, -0.062091778963804245, -0.058574434369802475, 0.056105367839336395, -0.023586906492710114, 0.12080054730176926, 0.06558992713689804, -0.07860816270112991, 0.163001149892807, -0.07755435258150101, -0.11031825840473175, 0.08643104135990143, -0.11200215667486191, 0.0955732986330986, 0.17812761664390564, -0.04059738293290138, -0.05996306613087654], [0.032515838742256165, 0.06416498124599457, 0.0884658694267273, 0.05145568028092384, -0.011196286417543888, 0.16766411066055298, 0.03617224469780922, -0.09432699531316757, -0.0644369050860405, -0.039361726492643356, 0.06171604245901108, -0.16105322539806366, -0.16804049909114838, -0.07042732834815979, 0.017471473664045334, 0.12586218118667603, -0.13172964751720428, 0.07313361763954163, 0.015041666105389595, 0.15313832461833954, -0.08473794907331467, -0.07097753882408142, 0.06120585650205612, -0.16421347856521606, 0.11107458174228668, -0.0996498242020607, 0.03328433632850647, -0.1095477044582367, 0.13023293018341064, 0.043906133621931076, 0.025973733514547348, -0.07881433516740799, -0.11820017546415329, -0.018269464373588562, -0.11032824218273163, -0.012117967009544373], [0.1389133632183075, 0.06011057272553444, -0.03860422596335411, -0.09361598640680313, 0.10328112542629242, -0.07105200737714767, -0.07694044709205627, 0.03376759588718414, 0.10894540697336197, -0.04431518539786339, 0.0071630715392529964, -0.05591069906949997, 0.1237623319029808, -0.01986081711947918, -0.009916833601891994, 0.112437903881073, -0.05165116861462593, 0.19022543728351593, -0.057348620146512985, -0.03633296862244606, 0.03039633482694626, -0.07195159047842026, -0.1428140103816986, -0.11420309543609619, -0.13194319605827332, 0.19506773352622986, 0.037620268762111664, -0.05463499575853348, 0.09391945600509644, -0.004830500576645136, -0.05637577548623085, 0.13546927273273468, -0.08448291569948196, -0.10184160619974136, 0.16270077228546143, 0.07726676762104034], [-0.0012961708707734942, -0.005019958596676588, -0.08626793324947357, -0.1143716424703598, 0.012423133477568626, 0.08491523563861847, 0.10485676676034927, -0.06013083457946777, -0.11654949933290482, 0.008281412534415722, 0.09948469698429108, -0.03319770470261574, 0.1217271164059639, -0.0814582034945488, 0.011037370190024376, -0.1329842507839203, -0.00955965742468834, 0.10414790362119675, -0.16293780505657196, 0.12336243689060211, 0.09261545538902283, 0.11161710321903229, -0.09230921417474747, 0.0890762135386467, 0.011882818304002285, -0.213472381234169, 0.12474886327981949, -0.20709902048110962, 0.13096031546592712, 0.01704195886850357, 0.07676956057548523, 0.030768999829888344, -0.1822458952665329, 0.05106627568602562, -0.14522622525691986, -0.07855284959077835], [-0.08438994735479355, -0.10707909613847733, -0.02763867750763893, 0.06926336139440536, 0.12123257666826248, -0.13345158100128174, 0.11944987624883652, 0.028264319524168968, 0.01734679937362671, 0.017234256491065025, -0.08778393268585205, -0.15276528894901276, 0.030103255063295364, 0.12608715891838074, -0.14667169749736786, 0.1365937441587448, 0.08227000385522842, 0.1098107397556305, 0.09295675158500671, 0.12494944781064987, 0.01227748766541481, -0.09094969928264618, -0.10179709643125534, -0.1459299474954605, -0.006513341795653105, 0.03094913251698017, 0.007752837147563696, -0.11345066130161285, 0.10786841809749603, -0.11640321463346481, -0.15225642919540405, 0.15517264604568481, 0.02794097736477852, 0.12136323004961014, 0.0033054056111723185, 0.16669878363609314], [0.0025917126331478357, -0.06505106389522552, 0.10362154245376587, 0.01998961716890335, -0.06500405073165894, -0.008894671685993671, -0.014222417026758194, 0.04997541382908821, -0.15983417630195618, -0.10349714756011963, 0.08291497826576233, 0.10334306955337524, -0.032347291707992554, -0.1321147084236145, 0.029634352773427963, 0.10182560235261917, -0.12958744168281555, 0.02706523798406124, 0.05858693644404411, 0.03269853815436363, 0.13071200251579285, -0.18087483942508698, 0.058468423783779144, -0.04115079343318939, -0.10952542722225189, 0.06072334945201874, -0.057152751833200455, 0.13595153391361237, -0.14472922682762146, 0.08557742089033127, -0.07902023196220398, 0.0770304873585701, 0.09964676201343536, 0.10134894400835037, 0.0037839349824935198, -0.1444115936756134], [0.045204270631074905, -0.06884218752384186, 0.05796647444367409, -0.015722882002592087, -0.19479785859584808, -0.1275438517332077, -0.09658084064722061, -0.14195755124092102, -0.07065190374851227, -0.058650437742471695, 0.0857965424656868, 0.06837005913257599, -0.15721629559993744, -0.014294448308646679, 0.041900306940078735, -0.05763489007949829, 0.04308581352233887, -0.02138121984899044, -0.14986424148082733, 0.13398058712482452, -0.12322712689638138, -0.08330925554037094, 0.017066311091184616, 0.04288274049758911, 0.03589539974927902, 0.05799417942762375, -0.1314120888710022, -0.14070311188697815, 0.15560583770275116, -0.2272821068763733, -0.05491646006703377, 0.09145716577768326, 0.12638691067695618, 0.10430364310741425, -0.05268871784210205, 0.07521448284387589], [0.07676427811384201, -0.13440561294555664, -0.13025741279125214, 0.046893417835235596, 0.14173845946788788, -0.07727532833814621, 0.05902884528040886, 0.13272790610790253, 0.11802750825881958, 0.08570507913827896, -0.03196776285767555, 0.09993545711040497, -0.16239188611507416, -0.011096007190644741, 0.03019770048558712, -0.047626372426748276, 0.16680261492729187, -0.1563802808523178, -0.09692825376987457, 0.14687351882457733, -0.04848029091954231, 0.08307430893182755, 0.024807166308164597, 0.16459912061691284, -0.005588621832430363, 0.08045302331447601, -0.05251557007431984, -0.02409423142671585, -0.12632660567760468, 0.13935257494449615, -0.004303615540266037, -0.10107126832008362, -0.03670194372534752, -0.027913400903344154, 0.05986977368593216, -0.06720085442066193], [0.1864023655653, -0.11499250680208206, 0.18709763884544373, -0.04563402384519577, 0.08004514873027802, 0.06274253875017166, -0.16835686564445496, -0.03479255735874176, 0.03263062983751297, -0.09900364279747009, -0.04817131906747818, -0.058624185621738434, -0.0868968740105629, 0.10847202688455582, -0.10996890813112259, -0.05423082783818245, 0.09940729290246964, 0.07749485969543457, -0.0224287286400795, -0.15405221283435822, 0.07732637971639633, 0.17818468809127808, -0.045798394829034805, 0.16953499615192413, -0.052855536341667175, 0.05449940264225006, 0.07645519077777863, -0.12369482964277267, 0.06834424287080765, -0.08123618364334106, -0.013420009054243565, 0.02899472415447235, -0.09338557720184326, 0.030603229999542236, 0.11339802294969559, -0.07252064347267151], [0.12119242548942566, -0.1711033433675766, -0.010482698678970337, -0.10180079936981201, -0.022312726825475693, -0.0870109423995018, -0.09667332470417023, -0.06435108929872513, -0.16494297981262207, -0.03750521317124367, -0.08076129108667374, 0.1372952163219452, -0.10911677032709122, -0.0029137623496353626, -0.05009375512599945, -0.14547854661941528, 0.019219540059566498, -0.12450158596038818, 0.05616401508450508, -0.07728540897369385, 0.05426303297281265, 0.11944599449634552, 0.12191729992628098, 0.15358488261699677, -0.0577288456261158, -0.1598712056875229, -0.056853458285331726, -0.17444008588790894, 0.015578103251755238, -0.11374825239181519, -0.03798936679959297, 0.1286497563123703, -0.011737254448235035, -0.039209142327308655, 0.14079990983009338, -0.08268744498491287], [-0.06336457282304764, 0.0775342509150505, 0.18917325139045715, -0.05420868843793869, -0.16673466563224792, 0.05324447527527809, 0.011229465715587139, -0.1098237931728363, -0.04889292269945145, -0.0005455063073895872, 0.1198243796825409, 0.012191424146294594, 0.16912198066711426, 0.25887683033943176, 0.04257328435778618, -0.045518908649683, -0.0854388102889061, -0.042564794421195984, 0.029708003625273705, -0.10133780539035797, -0.15742720663547516, -0.03268226608633995, -0.10198546946048737, 0.06857109814882278, -0.055230651050806046, -0.08413031697273254, 0.08343606442213058, 0.049989573657512665, 0.012939469888806343, 0.1587139368057251, -0.08979318290948868, 0.06919468194246292, 0.02800428308546543, -0.14791575074195862, 0.0688941702246666, -0.190680131316185], [-0.05117472633719444, -0.08664946258068085, -0.08784224838018417, 0.0923079326748848, 0.10659829527139664, 0.04538646340370178, 0.003816696349531412, 0.17538662254810333, 0.09108327329158783, 0.040921811014413834, -0.05068338289856911, 0.0329078733921051, -0.0777834951877594, 0.07012833654880524, -0.12216675281524658, -0.0071179624646902084, -0.13376286625862122, -0.058607928454875946, -0.08763828873634338, -0.07274693250656128, 0.1498275250196457, 0.06952737271785736, -0.05891111493110657, 0.195556640625, 0.03552509471774101, 0.013279469683766365, -0.07976619899272919, 0.05500726401805878, -0.09870197623968124, 0.1726376861333847, -0.10462415218353271, -0.12186373025178909, 0.13856330513954163, 0.001503841020166874, 0.07186820358037949, -0.04525378346443176], [-0.18100811541080475, 0.10236207395792007, -0.08625242859125137, 0.10721300542354584, -0.04414959251880646, -0.03603336960077286, -0.06475836783647537, -0.057098839432001114, 0.010029815137386322, -0.02263590320944786, -0.08597850799560547, -0.13263089954853058, 0.11814205348491669, -0.08875163644552231, 0.015357733704149723, -0.14986687898635864, 0.12595830857753754, 0.14516262710094452, 0.019026700407266617, 0.155536949634552, 0.076289601624012, 0.11083969473838806, -0.09743721783161163, -0.07785487920045853, -0.046254031360149384, -0.20312759280204773, 0.0936954990029335, -0.14386297762393951, 0.012908105738461018, 0.16254661977291107, -0.02604231983423233, 0.12274021655321121, -0.0836961567401886, 0.04776754602789879, 0.11631546169519424, -0.0013391135726124048], [-0.06626790761947632, 0.09039203822612762, -0.12885689735412598, -0.10624317824840546, -0.1562056690454483, 0.1577911227941513, 0.23270688951015472, 0.03361549600958824, 0.016367929056286812, -0.1431731879711151, 0.08002213388681412, -0.07335611432790756, 0.13790395855903625, -0.1583280861377716, -0.10353252291679382, 0.10422023385763168, 0.033827658742666245, -0.043133821338415146, -0.09501319378614426, -0.14328116178512573, 0.11166173219680786, -0.03128660470247269, 0.03648361936211586, 0.11493648588657379, -0.03150031715631485, -0.07099347561597824, -0.09642317146062851, 0.02302488498389721, -0.031415414065122604, 0.08340184390544891, 0.03412403538823128, -0.14403313398361206, 0.08633781969547272, -0.08088678866624832, -0.19652408361434937, -0.034246861934661865], [-0.018836643546819687, 0.13744919002056122, 0.1609954982995987, -0.023926984518766403, -0.1173221543431282, 0.13843712210655212, 0.1589251011610031, 0.11627866327762604, -0.1415732204914093, -0.004957609344273806, 0.045396558940410614, 0.04126196354627609, -0.1224905252456665, 0.060894500464200974, -0.06782928109169006, 0.12100610136985779, -0.12915724515914917, 0.14374558627605438, 0.048324741423130035, 0.03546199947595596, -0.08629698306322098, -0.022150367498397827, 0.03527994081377983, -0.13884294033050537, 0.02675017900764942, 0.03230873495340347, 0.05492649972438812, 0.12444251775741577, -0.10221710801124573, -0.11445655673742294, -0.0670439675450325, -0.10057256370782852, 0.09090296179056168, 0.03820039704442024, -0.16419106721878052, -0.16033720970153809], [-0.12394163757562637, 0.07123910635709763, 0.023164022713899612, 0.05485135316848755, -0.03661493584513664, 0.15256460011005402, 0.09671968221664429, -0.09849581122398376, -0.10451214760541916, 0.11725376546382904, -0.0906505212187767, 0.038092341274023056, 0.04873320832848549, 0.003506754757836461, 0.13642428815364838, -0.06470054388046265, -0.10879416763782501, -0.005425053648650646, -0.056430164724588394, 0.02446463145315647, -0.08955312520265579, 0.1192164421081543, -0.1265374720096588, -0.0463036485016346, 0.057832054793834686, 0.06856463849544525, 0.08154701441526413, -0.02750968001782894, 0.04847589135169983, -0.09162763506174088, -0.032827191054821014, 0.0296726506203413, -0.13258090615272522, -0.07530373334884644, 0.08868534862995148, -0.18932616710662842], [0.08804122358560562, -0.08826729655265808, -0.08525300025939941, 0.07360436767339706, -0.0019234647043049335, 0.033414971083402634, 0.13650698959827423, 0.15677513182163239, 0.12401044368743896, -0.11262093484401703, 0.1605922430753708, 0.05811059847474098, 0.07343274354934692, -0.05615907534956932, -0.09162865579128265, -0.1201365515589714, -0.003647738369181752, -0.11599601805210114, -0.1573410928249359, 0.12739937007427216, -0.06701666116714478, -0.13030105829238892, -0.1549990475177765, 0.04116584733128548, -0.09601788222789764, -0.05822931230068207, -0.11409866064786911, -0.07232625782489777, 0.1049124225974083, 0.1518794745206833, 0.07522409409284592, 0.01672585867345333, 0.013694437220692635, -0.09783248603343964, -0.045867372304201126, 0.10531111061573029], [-0.12189745903015137, 0.03129962831735611, -0.09558907151222229, -0.16446712613105774, 0.11751584708690643, 0.11424874514341354, 0.12289482355117798, -0.11377028375864029, -0.14475753903388977, 0.09401898831129074, -0.14740382134914398, 0.086135134100914, 0.14656011760234833, -0.015388625673949718, 0.14231683313846588, -0.15371693670749664, 0.10464248806238174, 0.1043916717171669, 0.14553309977054596, 0.017445074394345284, 0.07194211333990097, -0.11803052574396133, 0.005785299930721521, 0.033173516392707825, -0.00819149985909462, 0.13075236976146698, 0.0446431003510952, 0.1392839550971985, -0.16355180740356445, 0.10493511706590652, -0.1395420879125595, 0.022607680410146713, 0.101066455245018, -0.11556244641542435, -0.08760218322277069, -0.1513838768005371], [0.17617356777191162, -0.015056716278195381, -0.0489022321999073, -0.02365671470761299, -0.009355396963655949, -0.07658469676971436, -0.022535523399710655, -0.09390692412853241, 0.13072210550308228, 0.10515257716178894, 0.08622827380895615, -0.03603937849402428, -0.09856832027435303, 0.179391011595726, -0.1058143749833107, -0.1461421102285385, 0.11644834280014038, 0.09924475103616714, 0.11994943022727966, 0.030431970953941345, 0.005820726044476032, -0.18967969715595245, -0.03290751203894615, 0.07651174068450928, -0.07741951942443848, -0.037738390266895294, 0.08883348852396011, -0.0500972643494606, 0.015535829588770866, -0.19104018807411194, -0.023772044107317924, 0.05317799001932144, 0.09132754057645798, 0.06518835574388504, 